svm_type c_svc
kernel_type linear
nr_class 29
total_sv 1408
rho 0.12718624013214166 0.53229725810281536 0.50859176107374326 0.81405895560446417 0.046322964829939958 0.60188107548963088 0.74551457733719084 1.0837930964000673 0.60608059436919515 0.49696495145082431 -0.69577854536269335 0.16173898614030888 0.87627176912154137 -0.15787415377310579 0.5852719875887622 0.40980917963199126 0.77335284466496135 0.53674132594632162 0.92328839362137716 0.63132184057746754 0.3014333851082327 0.93153604535332235 0.078730193138236496 -0.12496556677304364 0.37326990520272446 0.60774223125595872 0.12695083301242904 -0.80557289883820982 0.4114196854773402 0.40864621081577646 0.78662933148669434 0.050872236252061762 0.56987333468831713 0.6586880423837651 1.0500970751745036 0.59973408572978781 0.48131404295473162 -0.61431174710091385 0.05129450928821383 1.0078465008745101 -0.32501972928485673 0.32176855065964938 0.30963591773977639 0.63880778884512124 0.50519854492543592 0.90604993410578283 0.49941221417219689 0.10255432638744358 1.0403100187341896 -0.075842276308880796 -0.23838411504919291 0.10056502409803519 0.5283994103576013 0.0958035641239363 -0.73128236504613242 -0.082474230058740369 0.58168019780648239 -0.40469116014575801 0.35346387062370233 0.21726188445573455 1.0260868063879143 0.19765351428501507 -0.04643677783645174 -0.89888646870660527 -0.38736392852830398 0.89182620218285635 -0.68460815561130117 -0.23204828156412952 -0.13747929364514005 0.27397476064090431 0.11449223201844623 0.58920120642636742 0.12513774962045671 -0.48952909674644535 0.76338708400094102 -0.42491737656106626 -0.64836405934237051 -0.18006593778387281 0.19257350779524796 -0.38488218145641873 -0.91507599436150178 0.60217289550486219 -0.27467885446218948 0.32079471051270175 0.34657832578611025 1.0480591504280377 0.16602993247821285 0.026273074212937803 -0.91703066515786735 -0.40253615093702205 0.81208563414833279 -0.6011674843403424 -0.14309987559237658 -0.087491201172051086 0.33698322158686034 0.14629773631641577 0.70468771021632637 0.087337216547120441 -0.16835476437057148 0.91666679558630793 -0.41638502859185816 -0.69164589823584066 -0.35291646847763308 0.1662132300827969 -0.36358384577579261 -0.9074083041563985 -0.79808033492428687 -0.3180839803765006 -0.35152711413100862 1.0034985187693271 -0.45823591765540506 -0.61302309971069557 -0.95095299221820795 -0.79771085020456745 0.60490294251201404 -0.92611673704554276 -0.64584580100121891 -0.71840666902716388 -0.35026273233483463 -0.5389603244656106 0.062570805746217401 -0.49263127781868221 -0.6742386719078568 0.66438213198081264 -0.80014283566050004 -0.87915851065029194 -0.68340185418680166 -0.49353904850483965 -0.79124843412207135 -0.97526911201114908 0.51808771811487431 0.64711011947998254 1.1166108859218544 0.58737689160384943 0.3900456694874937 -0.65435994910120154 0.048683525479851809 0.8477364641798999 -0.28015847806111566 0.44131380960347955 0.29394038011561713 0.59070131382720481 0.44165045073492937 0.80180397621268318 0.59880881139195907 0.15103899133630846 0.90013025008405678 -0.13482806690858448 -0.33166389176111555 0.0037304315583135436 0.48967344734617896 0.046286283391095279 -0.77869237854743234 0.019124580680397726 1.0001906418764384 -0.11691054234776148 -0.29875420529462438 -0.87974441183968355 -0.60333562196132795 0.65756758566378826 -0.75430815806687657 -0.29281717425918408 -0.44729795511057924 -0.41661548966642292 -0.18402362604478611 0.36026828278801093 -0.086234745446407218 -0.39698206422268101 0.79498689089400709 -0.68824535867863634 -0.72106445902093552 -0.36451906142449186 -0.27862211897464528 -0.63524247066385264 -0.94336813856178015 1.0196576734742402 -0.06753015331496752 -0.36997431786006973 -0.94248065682098259 -0.66582021779542067 0.82037876544042554 -0.83058571215839339 -0.50748089736121915 -0.4527229703569654 -0.12237237184143968 -0.17576366672163346 0.35007901915926393 -0.18613503298618816 -0.68396325121874402 0.68490012177442672 -0.64011746981556439 -0.82253668885548037 -0.45995221596330577 -0.21235708999500424 -0.62354075066020043 -0.96546931877276199 -1.0000355918146493 -1.0263874027382716 -1.0926368735957095 -1.1235521557269357 -1.179065902225118 -0.99991828376262082 -1.0581652518561724 -1.0599057749867478 -1.0925365226145178 -1.1523569891212122 -0.99981986625066965 -1.0658214406458868 -1.0898542047642583 -0.99972248508788886 -1.0268706452551877 -1.1020047697553177 -1.2801121609766712 -1.0604797045196688 -1.0216349213517755 -1.0464452221806058 -0.27308919073584914 -0.85231819092196925 -0.49420983931145146 0.69661092720136686 -0.74265556549464473 -0.33045574104923786 -0.32862623797968415 0.089366402141574514 -0.097966796447615689 0.40500357778146151 -0.054764359876956721 -0.29094800538989396 0.70161026840127694 -0.58378226852034754 -0.76041465741270031 -0.54877210746992999 -0.14279169427612956 -0.5258274705107806 -0.9365179494485234 -0.83775020596954763 -0.44000788291586723 0.80227390125701192 -0.71075168264226296 -0.18658965751917203 -0.10888021218210239 0.27795956186614929 0.056475698677411146 0.60490298787248853 0.20445792078548602 -0.41666869234336879 0.76920899978009494 -0.45474426748531482 -0.67930281366184109 -0.46472462918709595 0.14713930612925882 -0.37589212475891193 -0.92147886660831002 0.70774300909909138 0.99858099110237697 0.49252977185626856 0.85932425940474266 0.83395071961972767 0.90059483205730761 0.79505200279892818 1.0317032100776728 0.88890199924696756 0.76600451676365744 1.0338458925435094 0.60444118267069091 0.41846904201789753 0.76498852564752373 0.86567579973764519 0.62668119108380693 -0.2711234726339482 1.0442724162523214 -0.38691380052679675 0.40634930694025512 0.26932989403363772 0.42267286645757079 0.46471851442671791 0.96497881800181795 0.45344599781239048 0.051253312343476951 1.0535458013090251 -0.025664150978698435 -0.23118309022470909 0.37726534788065769 0.41611923936674478 -0.031497371804089687 -0.76238366802733504 -0.92054735335653837 -0.8052616537668571 -0.84092387899248988 -0.72207494358392221 -0.8554815739293552 -0.91040260705584009 -0.71101039182542147 -0.84923404915883904 -0.047729813258240682 -0.91555577824268553 -1.038913575943093 -1.100305404584448 -0.76739906126587742 -0.94985946937620502 -0.97949132690760421 0.63080489102073889 0.63696568301005718 0.80876670598257894 0.5562412776171336 0.9027245023478877 0.72716954422931945 0.43278447648293705 0.93899572844059309 0.37053421805744324 0.072319729541979058 0.41150597924902133 0.68755019613068102 0.37794868103087448 -0.54831205753974244 0.03943424667863029 0.46263833480126054 0.21349264132058618 0.72678036935333512 0.23345995379719506 -0.14896649768067649 0.88210572797519027 -0.47310805468104805 -0.58434847275909785 -0.41453231953169284 0.25109365269837697 -0.26262114411399196 -0.91795948486050671 0.35434945009213975 0.2634513652883268 0.64528246625973529 0.30488517165174883 -0.25528059742345144 0.80413369808835711 -0.24937104395411774 -0.50464037590260835 -0.15603747115141331 0.31029604330719451 -0.2912939903510488 -0.8868353474622368 -0.30135124304454325 0.50133685785282445 -0.14339495885567297 -0.47667418171058101 0.83767787695754803 -0.63677779601235918 -0.78325355726892532 -0.16835137163063316 -0.19583977316047965 -0.63808038761063779 -0.95829742026924691 0.56303600164874845 -0.0080645856547202407 -0.30554877688460225 0.90641332865216795 -0.43224315667834368 -0.78524085060318372 -0.45761737359129134 0.02791180095281753 -0.43870328662316166 -0.89985169982733859 -0.53943576737227439 -0.78231474223737785 0.92359626173216192 -0.80420871267576743 -1.0448973510797279 -1.0141007531136166 -0.60294730000176777 -0.82631456476856646 -0.99690188454481887 -0.14110569221078106 0.77476723206340281 -0.56085172210265433 -0.66882770236806366 -0.22206307163030323 -0.065122182418033636 -0.48020430553591087 -0.93056744300466288 0.71350371863653061 -0.17595905785380273 -0.34323160026039912 -0.012997400738456644 0.30501342873372495 -0.13384207835540213 -0.78497816946997989 -0.89359211951902873 -1.0854845422992188 -1.2132133552240989 -0.82577865019977925 -0.95698832791555133 -0.99070157283657323 -0.24554574834040663 0.17248811686867521 0.43506581854251147 0.084954168178737188 -0.76395176007632593 0.54480032433399939 0.74906722347977495 0.43128913280173842 -0.55856231121838218 0.43078839004613034 0.037542960647863804 -0.78519616150150384 -0.44604280170757621 -0.93424244411945856 -0.8082504418079175
label 2 8 21 0 25 9 26 5 28 7 3 1 13 17 6 22 19 10 15 23 12 24 4 16 27 11 18 20 14
nr_sv 40 28 55 70 106 44 65 59 84 64 29 49 42 44 15 41 47 57 57 72 54 46 63 23 28 18 60 42 6
SV
0 0 6.7154388561221282e-06 0 0 0 0 0 0 0 1.4502891004522324e-05 0 0 0 0 0 0 0 0 0 5.5032740614301269e-05 0 0 0 0 0 0 0 3:3.7210699 7:32.913272 8:27.099197 9:27.073763 10:3.5466856 11:2.1204077 12:28.692979 13:1.3339982 14:56.170172 15:193.24408 16:1.2145794 17:30.354603 18:1.1228417 19:18.943723 20:1.1192176 22:2.1331468 3930:36.800151 3931:14.412564 5619:6.6076386 5670:3.5109304 5767:3.6056758 6307:5.6425577 6344:3.97755 6364:5.7967084 6505:8.2249786 6542:7.0776422 6559:12.306802 6762:7.5884679 6861:2.4947177 7241:3.5750924 7304:27.144918 7322:13.932087 7851:4.6654202 8346:3.2490008 8456:5.0761622 9856:8.4194867 10191:14.090916 10241:4.1332033 11434:3.4348067 11503:11.802031 12663:3.1940187 12852:6.7145723 13258:22.970565 13296:5.869015 13647:6.2891849 13667:10.166288 13677:4.8804177 13700:6.8953207 13772:5.4289836 15155:4.4974254 15743:2.2070356 18216:7.5884679 19370:4.6617285 20979:3.7818054 21724:5.5256487 22785:4.7552545 23282:4.1762206 23399:20.304649 23477:5.1905726 24368:8.2247384 24772:7.5884679 25085:23.047714 25255:5.6525879 25992:3.4089655 26188:4.9290078 26472:4.1984438 28701:3.2665452 28783:4.2562634 29180:12.629364 29689:6.6076386 30753:3.2844028 30869:4.679747 31566:9.3135324 31874:10.263464 32037:13.879911 32064:5.97903 32217:4.2156579 32951:3.4038764 33015:10.782487 33037:41.371924 33042:7.993933 33616:2.6373467 41457:4.92588 41692:7.5884679 42764:6.7281404 42883:77.367233 42950:7.3007858 43251:5.5960377 44243:2.7260748 44813:14.503053 45409:3.1981424 45530:9.5074626 45989:7.0776422 46824:6.2891849 46988:5.3197843 47041:4.2097433 47362:3.4613335 47950:27.999602 48979:10.171578 49106:3.7744253 49620:7.5884679 51984:7.0776422 52010:6.6076386 52041:3.5811347 53614:3.3887628 53865:4.92588 54089:17.227924 54104:4.6095427 55184:5.5515859 55696:3.8912896 56070:14.300369 56335:23.398735 58116:9.0878909 58258:6.3844951 58388:25.959422 60231:11.301298 60456:4.7947292 61987:3.8195457 62567:5.4990879 62629:1.1904277 63271:23.866381 63326:4.5126929 63631:11.651063 63688:16.749082 64240:7.4054401 64372:6.6328843 64519:3.1302521 65212:16.244268 65247:3.8272678 65349:16.788113 65362:4.8369326 65572:5.7426412 66645:21.163664 67574:4.7552545 69069:11.382696 69766:4.5599458 69943:4.3176323 70229:14.641253 70238:21.232927 70245:27.53443 70246:7.0776422 70261:5.7426412 71213:6.2605042 71695:4.2097433 71826:4.8158791 71855:4.92588 72212:15.561062 73762:6.74117 73763:7.993933 73765:7.993933 74362:6.8953207 74594:5.3912433 74645:12.804719 74670:7.3007858 75104:4.6617285 76124:3.0998315 76680:3.6278326 77511:20.685962 77530:32.573902 78229:38.122102 78848:6.2891849 79157:11.257819 79185:4.8369326 79512:4.1762206 81769:4.369592 81918:4.221172 82519:3.073952 83840:3.0666793 83899:10.77999 84276:4.2097433 84429:4.2682395 85472:23.981799 86536:6.0480228 86651:3.796731 86757:4.4675725 87002:6.74117 87350:5.2006109 87689:33.644882 87780:5.2213443 89358:10.197412 89364:76.864138 89434:7.993933 89501:18.591071 89670:5.5515859 90141:46.497506 90876:6.2891849 91032:24.192091 91216:39.223124 91611:9.1472908 91650:3.4996943 91884:7.3007858 91978:8.0662396 92229:6.2021735 93627:3.643655 93642:16.994066 93783:19.181039 93957:4.7952599 94285:5.1073642 94406:32.665452 94671:2.9899867 95155:2.8262939 95389:15.176936 95973:4.8804177 96221:8.4280331 97583:3.0960932 97592:6.7675505 97601:11.110421 97603:6.4549893 97732:8.96996 97885:6.4898556 97896:7.0560777 98361:4.4974254 98545:3.5280249 99890:10.092211 99894:3.9163955 100784:17.959215 100786:17.959215 
0 0 0.00097825653562767616 0 0 7.5083909997110732e-05 0 0 0 0 0.00037098231742756476 0 0 0 0 0 0 0.00012540474623533255 0 0 0.00034152953233861875 0.00012482612155349722 4.6439560909296773e-05 0 0 0 6.9553349172347709e-07 1.4648105029268138e-06 1:1.9441995 2:5.6726401 3:5.5816048 8:1.2317817 9:1.2306256 12:19.960334 14:5.4009781 15:46.37858 16:1.2145794 17:16.695032 18:1.1228417 20:1.1192176 21:10.701474 3931:1.8015705 6069:2.680727 6559:4.1022672 6861:2.4947177 8237:4.4244003 11503:2.9505079 14800:4.8158791 15743:2.2070356 17483:3.1776918 18464:9.4716729 18477:3.4506382 21381:4.8804177 24122:2.8093444 24244:4.0142513 26696:3.7598265 26734:5.97903 30168:3.59333 31471:3.6698003 32101:4.0919603 32814:5.0235185 33616:13.186734 41699:4.6440289 43086:4.9494105 44813:1.8128817 45530:3.802985 45648:5.1317321 45670:3.8272678 47086:2.4526694 47950:3.9999431 52928:4.9494105 59838:3.2106166 62629:1.1904277 63409:5.0235185 63631:7.7673752 65212:2.3206097 67695:4.9494105 67745:4.7750572 67758:4.9735081 70220:5.0761622 72212:15.561062 76553:4.92588 77070:4.3176323 80744:13.787455 83778:3.2754341 83840:3.0666793 86267:4.4974254 86410:5.0761622 89364:13.123145 89501:2.0656745 90141:12.518559 94285:2.5536821 94671:2.9899867 97640:4.9494105 98013:5.9139607 100784:8.9796073 100786:8.9796073 
0 0 0.00023673931143435926 1.0826050221177168e-05 0.00012054601684080518 0.00032518879759092898 0 0 0.00031002768196427091 0 0.00041499598022911444 1.9408450521893166e-06 0 0 0 0 6.3357202177409292e-05 9.540542566370624e-05 0 0.0002597002413790543 0.00071221947656749406 0 0 0 0 0 0 6.2842859097699615e-05 2:5.6726401 8:8.6224717 9:8.6143792 12:1.2475208 13:2.6679965 14:25.924695 15:24.477584 16:12.145794 17:3.0354603 18:11.228417 19:1.2629149 20:11.192176 23:3.2878405 25:3.289588 3931:1.8015705 6559:2.0511336 8943:7.6700998 10191:2.3484861 10349:4.9494105 12852:2.2381908 13772:5.4289836 15743:2.2070356 16427:6.199663 30059:2.829147 33378:11.852645 33616:2.6373467 40783:16.930931 44813:1.8128817 45699:5.4682043 47245:3.6244851 47950:1.9999715 54151:5.7967084 56070:3.5750924 59838:3.2106166 60456:2.3973646 62629:9.5234217 66946:5.1035612 71213:3.1302521 72212:2.5935104 74815:6.4898556 76680:1.8139163 79300:6.4898556 85251:6.2916332 89364:1.8747351 89501:2.0656745 90141:1.7883656 90556:5.9144914 96879:3.7034735 97732:2.9899867 100784:5.1312042 100786:5.1312042 
0 0 0 0 0 0 0 0 0 0 0 0 0 0 0 0 -0 0 0 0 3.6237414582395462e-07 0 0 0 0 0 0 0 2:615.48145 3:16.744814 7:1.8285151 8:2012.7312 9:2010.8422 11:4.2408155 12:752.25507 13:5.3359929 14:1380.49 15:208.70361 16:17.004112 17:1000.1842 18:582.75483 19:732.49063 20:851.72456 21:10.701474 22:12.798881 23:103.56698 25:103.62202 3931:7.2062819 8323:629.77484 9240:1327.4736 9463:8.4029284 9819:7.0675771 11456:45.530807 11503:73.762696 12954:2.5800573 15695:74.968259 15712:58.4087 15743:26.484427 16427:6.199663 16851:7.5649869 17506:35.872137 17626:26.96468 21724:262.46831 22563:31.975732 24283:3.7383203 25050:15.987866 25255:11.305176 26188:2.4645039 26205:46.095427 26472:16.793775 27451:33.545231 28092:20.642879 29180:37.888093 31511:23.583941 33616:2.6373467 42637:28.310569 42642:39.969665 44813:1.8128817 45385:4.7952599 47086:9.8106777 50611:12.310433 53892:15.070556 54573:3.4400561 55238:1086.2987 59838:3.2106166 60456:505.84393 61699:288.36178 61749:2.2509298 62567:703.88325 62582:15.987866 62629:97.615073 63146:29.682771 65949:3.5631162 67059:22.192925 71213:28.172269 71833:47.552545 72212:474.6124 72379:24.372644 72503:23.186834 74089:4.7750572 74881:5.5090263 75022:23.981799 76566:164.90042 76680:96.137565 77416:74.426082 78229:376.45575 80618:4.2444289 80679:103.62318 84838:7.993933 84958:6.8953207 85251:9.4374498 85697:694.99039 85937:199.04367 89621:242.60029 90412:8.2042254 91611:32.015518 92196:9.8517601 94406:1048.561 94671:14.949933 95155:534.16955 96221:30.902788 96879:3.7034735 97565:12.76899 97566:7.993933 97592:6.7675505 98752:15.938369 100784:297.60984 100786:297.60984 
0 0 0 0 0 0 0 0 0 0 4.5551940516097296e-06 0 0 0 0 0 0 0 0 0 0 0 0 0 0 0 0 0 1:31.107192 2:258.10513 3:26.047489 4:9.9544058 6:25.009833 7:47.541393 8:199.54863 9:199.36135 11:40.287747 12:114.77192 13:37.351951 14:212.79854 15:756.22851 16:15.789532 17:189.71627 18:353.69513 19:198.27764 20:357.0304 21:21.402947 23:31.234485 25:27.961498 3930:3.0666793 3931:37.83298 4676:4.7358364 6069:8.042181 6145:25.959422 6354:7.9550999 6505:8.2249786 6559:2.0511336 7726:3.4996943 7851:6.9981303 8070:7.5884679 8071:114.00866 8084:13.48234 8207:7.3007858 9463:5.6019522 9856:8.4194867 10191:9.3939443 10241:4.1332033 10566:5.0761622 11503:11.802031 11801:31.975732 12663:19.164112 12852:6.7145723 12954:144.48321 13296:2.9345075 13441:8.374541 13689:56.449053 13698:34.476603 13723:7.9914645 13776:27.581283 14766:24.141846 14929:6.8487799 15743:13.242214 16851:2.5216623 16856:6.3844951 17843:19.965886 17973:13.631836 17977:5.5090263 18327:22.970565 18332:4.6266371 19427:105.72222 19900:12.404347 19981:3.5222942 20459:2.7442808 21724:5.5256487 21949:4.9494105 22522:5.0761622 22568:3.2754341 23521:9.0878909 24283:3.7383203 26188:17.251527 26625:5.4062878 26734:29.89515 27745:4.4244003 28092:10.321439 28103:37.242355 28141:108.58174 28951:8.2965052 29180:22.732856 30522:3.8587664 30753:3.2844028 31566:22.352478 31638:4.1544807 31708:3.97755 31728:7.1866599 31860:6.2891849 32217:14.754803 32719:10.936409 33451:54.527345 33616:2.6373467 42764:3.3640702 43041:4.92588 43913:3.0776084 44243:21.808599 44813:52.573568 45387:4.08191 45530:5.7044775 45670:7.6545355 45679:5.3548756 45762:5.6913479 45765:16.266791 45923:10.63625 45941:7.4766405 46312:63.737577 46384:10.27317 46952:55.312344 47041:4.2097433 47086:2.4526694 47362:3.4613335 47950:55.999203 50611:9.2328251 50774:7.993933 52332:3.477594 52902:7.7661182 52908:5.2858828 53107:3.0241197 53787:3.6501276 56948:3.419222 57133:4.2682395 57277:4.7358364 58324:3.5872137 59055:15.768592 59306:4.4974254 59788:141.6801 59832:8.6352646 59838:16.053083 60231:3.7670992 60454:4.9494105 60456:9.5894583 61098:7.5884679 61749:11.254649 62567:54.990879 62619:7.6085565 62629:67.85438 62673:3.1341206 62727:5.049494 63271:14.916488 63631:46.604251 63674:5.4289836 64240:4.9369601 64372:6.6328843 64911:47.963598 65212:27.847316 65364:4.6617285 65576:3.7383203 65615:9.2438343 65729:45.381665 65920:15.176936 66534:25.15674 66549:150.90173 66621:99.086991 70229:4.8804177 70505:15.565158 71213:28.172269 71855:4.92588 72212:57.057228 73104:11.95806 73252:6.2891849 73711:9.3234569 74089:14.325171 74136:4.9982007 74645:17.072958 74694:5.8538668 74830:25.517806 75275:12.244262 75365:3.7034735 75620:5.6913479 75960:5.2213443 75965:11.382696 76535:10.506186 76659:11.192075 76662:31.010868 76680:50.789657 76708:9.0563941 76714:102.2086 79846:13.781333 80744:5.514982 82861:5.3548756 84276:4.2097433 84918:6.6076386 85009:3.3689602 85251:69.207965 85578:4.679747 85937:78.742552 86036:5.6913479 86043:14.155284 86230:12.979711 86452:7.3007858 86458:16.367841 86562:186.42057 86651:3.796731 87350:10.401222 89364:103.11043 89501:8.262698 89543:4.6266371 89621:7.7015965 90141:41.132409 90466:14.708672 91611:18.294582 91650:6.9993887 92076:208.14422 92154:26.96468 92191:10.506186 92196:19.70352 92199:106.23855 92200:7.993933 92206:33.028203 92862:5.1905726 92906:7.993933 93554:8.6865495 94671:14.949933 95052:88.776709 95132:7.3007858 95155:115.87805 95566:14.531683 96088:20.685962 96843:17.75434 97129:9.4729532 97443:9.6738651 97583:3.0960932 97592:3.3837752 97601:3.7034735 97603:3.2274946 97610:6.8281612 97626:60.480228 97732:8.96996 97896:2.3520259 98013:17.741882 98752:7.9691847 100784:88.513272 100785:9.611784 100786:88.513272 
0 0 0 0 0 0 0 0 0 0 3.9689985741564882e-06 0 0 0 0 0 0 0 0 0 0 0 0 0 0 0 0 0 1:66.102784 2:181.52448 3:39.071234 6:38.65156 7:40.227333 8:203.24398 9:203.05322 10:3.5466856 11:46.64897 12:91.069022 13:5.3359929 14:223.60049 15:252.5056 16:7.2874765 17:264.08504 18:95.441543 19:146.49813 20:108.5641 21:4.2805895 23:11.507442 24:43.597985 25:11.513558 3931:14.412564 4732:41.371924 5708:5.4289836 5767:3.6056758 6401:5.5090263 6505:2.7416595 6559:12.306802 6590:4.6980961 6861:4.9894353 7063:16.286951 7083:19.136339 7241:3.5750924 7486:19.469567 7580:7.993933 7590:2.8121494 7851:2.3327101 7985:12.979711 8027:20.22351 8175:5.6913479 8346:6.4980017 8760:15.987866 9134:4.1123692 9463:2.8009761 9532:3.9249062 10191:21.136375 10241:4.1332033 11503:29.505079 11910:27.355697 12018:6.2021735 12663:6.3880374 12852:2.2381908 12954:2.5800573 13191:7.9914645 13258:17.227924 13296:2.9345075 13441:8.374541 13512:5.97903 13538:6.8953207 14106:7.993933 14262:4.9494105 14531:4.0236411 14589:4.5927356 15743:4.4140712 16851:7.5649869 17056:7.993933 17058:6.2021735 17091:5.7967084 17263:4.6095427 17506:14.348855 17717:11.285115 17843:19.965886 18520:11.029335 18565:20.22351 18582:4.4244003 20808:31.376713 20828:25.959422 20979:3.7818054 22700:6.2891849 22835:17.025053 22874:5.6913479 23206:5.4682043 23282:4.1762206 23353:6.1221308 23483:4.292631 23521:13.631836 23541:13.108776 23694:7.993933 23894:7.993933 24283:7.4766405 25039:7.993933 25650:27.545132 25992:3.4089655 26188:14.787023 26440:7.993933 26472:12.595331 26571:7.5884679 26625:2.7031439 26696:30.078612 27451:13.97718 27565:62.809057 27726:6.8953207 28017:13.985185 28220:5.3912433 28336:3.942148 28362:6.1221308 28599:5.5090263 28701:3.2665452 28782:34.320234 28951:8.2965052 29123:4.8584388 29180:32.836347 29601:5.049494 30059:5.658294 30522:3.8587664 30589:6.8953207 30753:13.137611 31202:11.624687 31566:9.3135324 31638:12.463442 31915:11.458637 32037:23.133186 32217:12.646974 33015:10.782487 41467:13.584591 41813:5.5090263 42168:5.7967084 42480:5.253093 42545:3.2274946 42764:3.3640702 43008:42.405463 44813:96.082728 45174:7.7175328 45409:3.1981424 45530:17.113433 45699:5.4682043 46900:32.418809 46915:12.096046 46921:30.456973 46937:6.2891849 47014:6.74117 47015:6.6076386 47026:7.3007858 47027:23.981799 47086:19.621355 47950:21.999687 48979:17.800262 51115:5.3197843 51992:9.1198915 52041:3.5811347 52676:4.0523512 52822:5.253093 53614:3.3887628 53865:4.92588 54104:4.6095427 55248:6.4898556 55696:7.7825792 56070:10.725277 56691:3.1817486 56901:8.3968876 56948:6.838444 56982:4.2803609 57277:9.4716729 58364:4.4529737 59306:4.4974254 59705:14.704385 59788:6.8554889 59838:3.2106166 60222:4.9982007 60231:11.301298 60248:4.5439454 60454:4.9494105 60456:26.37101 61270:5.4316366 61749:18.007438 61803:4.7552545 61987:7.6390914 62567:52.241335 62619:3.8042782 62629:60.711814 63248:9.805781 63271:2.9832977 63631:17.476594 64240:9.8739201 64290:4.1872705 64732:6.6076386 65212:9.2824388 65615:55.463006 65729:49.16347 65863:14.155284 66135:2.7628244 66549:20.577509 67148:15.970094 69614:6.8953207 69636:8.8208281 69824:20.76229 70505:7.7825792 70596:45.530807 70602:6.2891849 70614:6.74117 70940:17.074044 71213:56.344538 72212:36.309145 73208:6.4898556 73699:16.286951 74089:4.7750572 74209:25.959422 74229:5.2213443 74455:7.3007858 74633:4.4974254 74645:4.2682395 74682:5.2213443 76124:3.0998315 76152:4.6095427 76175:8.7391841 76309:5.1035612 76339:6.1221308 76535:5.253093 76566:9.8940253 76680:38.092243 76714:19.164112 77037:3.5395857 77958:3.2446624 78028:8.9059473 78229:7.1478941 79094:5.0761622 79547:4.5439454 80543:11.323276 80712:23.976299 80744:8.272473 82303:11.192075 82519:3.073952 83183:6.0002096 83840:3.0666793 84276:4.2097433 85009:10.10688 85071:9.6317583 85129:5.4289836 85251:72.353782 85578:4.679747 85697:4.1123692 85937:72.180673 86092:3.4400561 86562:62.140189 87350:15.601833 87605:5.97903 87689:3.7383203 89233:39.172264 89358:15.296119 89364:50.617847 89501:2.0656745 90141:44.709141 90574:4.7552545 91611:13.720936 91686:5.7426412 92913:15.987866 92955:13.879911 93186:6.2891849 93554:8.6865495 93642:3.3988131 93783:4.7952599 93957:4.7952599 94035:5.3912433 94285:2.5536821 94406:3.2665452 94671:44.8498 95052:5.0729548 95155:84.788818 95170:4.5281971 95482:4.8584388 95566:31.969703 95734:15.664033 96221:14.046722 96843:17.75434 96855:5.97903 97583:9.2882795 97610:6.8281612 97688:41.343998 97732:8.96996 97762:13.06904 97896:4.7040518 98545:3.5280249 99756:70.576787 99894:27.414769 100784:94.927277 100785:26.432406 100786:94.927277 100787:3.2533582 
0 0 0.00021004856225485601 0 0.00026770377869957086 0 0 0 0 0 0.00036518809638901766 0 0 0 0 0 0 0 0 0 0 0 0 0 0 0 0 2.5162270107737569e-05 6:18.18897 10:26.600142 12:2.4950417 14:9.7217606 15:33.495641 16:4.8583176 17:18.212762 18:4.4913667 20:4.4768702 5767:3.6056758 7241:3.5750924 8943:3.8350499 12852:4.4763815 15743:4.4140712 16427:3.0998315 25992:3.4089655 28701:3.2665452 33378:3.9508817 33449:4.6440289 42089:18.576116 45409:3.1981424 45530:1.9014925 47950:1.9999715 49463:7.5884679 52041:3.5811347 54345:18.943346 59838:3.2106166 62629:1.1904277 65212:4.6412194 66065:12.237836 71480:4.8369326 72212:2.5935104 76124:3.0998315 83840:3.0666793 84243:4.92588 86562:8.8771698 89364:1.8747351 90141:1.7883656 94671:11.959947 94877:2.9537389 95566:2.9063366 98545:3.5280249 100784:2.5656021 100786:2.5656021 
0 0 0 0 5.5535153865897375e-05 0 0 0 0 0 0 0 0 0 0 0 0 0 0 0 0 0 0 0 0 0 0 0 6:9.0944848 8:17.244943 9:17.228758 11:2.1204077 13:1.3339982 14:37.806847 15:7.7297633 16:1.2145794 17:21.248222 18:5.6142084 19:21.469553 20:5.5960878 6559:2.0511336 15743:2.2070356 17903:6.4898556 17913:6.1221308 26188:9.8580156 26472:16.793775 26504:5.8538668 29180:5.0517457 31566:5.5881195 31828:7.0776422 44813:9.0644083 45530:1.9014925 46952:7.9017634 47086:2.4526694 52947:22.735442 58201:7.3007858 59788:2.285163 59802:5.3548756 59867:7.3007858 62629:2.3808554 65140:12.337108 65212:2.3206097 71213:9.3907563 72212:10.374042 73309:6.2891849 78848:6.2891849 81643:4.369592 84991:7.3007858 89020:11.600731 89364:9.3736753 91611:4.5736454 94671:5.9799733 96221:11.237377 100784:15.393612 100786:15.393612 
0 0 0 0 0 0 0 0 0 0 3.429257303463531e-05 0 0 4.3982635753891568e-05 0 0 0 0 0 0 0 0 0 0 0 0 0 0 8:70.211555 9:70.145659 12:67.366126 14:47.528607 17:68.297856 18:87.581651 19:7.5774892 20:87.298969 23:49.317607 25:49.34382 9463:117.641 12896:27.556414 15743:2.2070356 59838:3.2106166 60456:28.768375 62623:212.46558 62629:23.808554 72212:18.154573 92682:10.689349 94671:5.9799733 95155:16.957764 96221:16.856066 100784:8.9796073 100786:8.9796073 
0 0 0 0 9.5745803448502809e-06 0 0 0 0 0 0 0 0 0 0 0 -0 0 0 0 0 0 0 0 0 0 0 0 1:1.9441995 2:144.65232 3:3.7210699 6:4.5472424 8:178.60834 9:178.44071 11:25.444893 12:66.118605 13:1.3339982 14:892.24159 15:266.67683 17:415.85806 18:308.78146 19:261.42338 20:307.78483 5384:6.2891849 6861:2.4947177 9819:3.5337886 10191:2.3484861 10366:4.3176323 11503:2.9505079 15743:2.2070356 16427:6.199663 17283:23.220144 18097:5.1317321 22271:5.7967084 22616:7.0776422 23853:7.0776422 23855:31.975732 24122:2.8093444 25650:5.5090263 26734:5.97903 29180:22.732856 31566:1.8627065 33378:3.9508817 44813:3.6257633 51655:290.63075 53662:5.2213443 55220:6.2021735 56948:6.838444 58116:4.5439454 59788:2.285163 59838:3.2106166 60456:220.55754 61749:2.2509298 62567:5.4990879 62629:317.8442 63631:1.9418438 65576:3.7383203 65949:3.5631162 66549:6.8591696 66946:5.1035612 67022:4.4974254 71213:90.777311 71775:4.2327329 74830:5.1035612 76430:9.2190854 82519:3.073952 86562:26.631509 86651:3.796731 89364:3.7494701 89501:582.52021 91611:61.744213 93627:3.643655 94347:3.0776084 95170:4.5281971 96221:5.6186887 97896:2.3520259 100784:6.4140052 100786:6.4140052 
0 0 0 0 0.00015781240228687613 0 0 0 0 0 0 0 0 0 0 0 0 0 0 0 0 0 0 0 0 0 0 0 1:5.8325986 2:8.5089602 7:1.8285151 8:6.1589084 9:6.153128 10:21.280114 12:2.4950417 14:11.882152 15:5.1531755 16:4.8583176 17:19.730492 18:3.368525 19:2.5258297 20:3.3576527 21:2.1402947 23:4.9317607 25:4.934382 5749:7.0776422 7590:2.8121494 12852:4.4763815 14235:5.4289836 15743:2.2070356 24302:5.7426412 25588:4.6617285 29027:7.3007858 30059:2.829147 33378:3.9508817 33616:7.9120401 42421:5.8538668 51110:5.1317321 59838:3.2106166 61749:2.2509298 62567:5.4990879 65247:3.8272678 72212:12.967552 73926:4.1762206 76124:6.199663 79300:6.4898556 80744:8.272473 85937:6.5618793 89293:7.5884679 89364:1.8747351 89501:2.0656745 91611:4.5736454 93311:3.3543614 94671:14.949933 96879:3.7034735 97562:4.4385849 99890:10.092211 100784:7.6968062 100786:7.6968062 
4.2894363635530236e-05 0 0.00013345178152455935 0.00042136898337956976 0.00022292404157814205 0.0003759927692782809 0 0 0 0 0.00016649249480021826 0.0003929451524304828 0 0.00046208465586988594 0.00031672901934684826 0 0.00049443822462004689 0.00035899323989744842 9.6794144606726165e-05 0.00011618647253502496 0.00041341250523249965 0.00068713020579542258 0 0 0 0 0.0002673205539536903 4.2659614607240275e-06 8:9.8542534 9:9.8450048 12:1.2475208 14:9.7217606 16:3.6437382 17:9.1063808 18:6.7370501 19:5.0516595 20:7.8345229 23:3.2878405 25:3.289588 3931:3.603141 15743:2.2070356 16729:14.78659 31202:3.8748958 32951:10.211629 62629:3.5712832 64802:14.920524 71213:3.1302521 72212:5.1870208 94671:8.96996 96221:2.8093444 100784:2.5656021 100786:2.5656021 
0 0 0 0 0 0 0 0 0 0 5.5588544431248157e-06 0 0 0 0 0 0 0 0 0 0 0 0 0 0 0 0 0 1:1.9441995 2:8.5089602 6:4.5472424 8:12.317817 9:12.306256 12:1.2475208 13:1.3339982 14:11.882152 15:99.198629 16:6.0728971 17:9.1063808 18:23.579675 19:3.7887446 20:23.503569 3931:5.4047115 9819:7.0675771 12896:13.778207 13439:15.987866 15743:2.2070356 17843:5.7045388 17917:8.0472821 21938:4.1984438 31566:3.725413 44539:5.34673 44813:1.8128817 45765:9.7600745 47950:3.9999431 56691:9.5452459 59838:3.2106166 60456:2.3973646 61749:2.2509298 62629:4.7617109 63271:2.9832977 63631:1.9418438 65949:7.1262324 66574:4.0621073 70515:4.3563468 71775:4.2327329 72212:15.561062 76680:1.8139163 76714:6.3880374 83600:47.963598 84284:4.9982007 85937:4.3745862 86562:62.140189 86651:3.796731 89364:1.8747351 89621:3.8507982 90141:1.7883656 94347:3.0776084 94671:5.9799733 94924:4.1123692 94999:5.1905726 96221:2.8093444 100784:8.9796073 100785:4.805892 100786:8.9796073 
0.001385285804430994 0.0019055262398970552 0.0018932952448189385 0.0019299119414183253 0.00043368361960884722 0.0019821175769501515 0.001912564352444734 0.0018992326439786142 0.0019801005191380215 0.001682207692191898 0.00030277732519272589 0.00091710909351785594 0.0015157788943180488 0.00039386506688739549 0.0020152092253839294 0.00094541262116569502 0.0023413083095328458 0.0018304253078861707 0.0017106174757535141 0.0013227318376792814 0.0012418306765832089 0.0021710568251472797 0.0013038407828682183 0.0010357910113370243 0.0011802341246246165 0.0011905383525632484 0.0020063083192976431 0.00037111939905285846 2:2.8363201 6:4.5472424 8:1.2317817 9:1.2306256 13:2.6679965 14:3.2405869 15:12.882939 16:1.2145794 17:4.5531904 18:7.8598918 20:7.8345229 23:1.6439202 25:1.644794 3930:12.266717 4133:5.1035612 8428:6.4898556 15743:2.2070356 32217:2.1078289 42089:4.6440289 44418:4.2682395 54345:4.7358364 59838:3.2106166 62629:4.7617109 63631:1.9418438 72212:2.5935104 86562:8.8771698 88055:6.2891849 92076:2.4487555 94671:2.9899867 100784:2.5656021 100786:2.5656021 
0 0 0 0 0.00033809313838923765 0 0 0 0 0 0 0 0 0 0.00040471574146808229 0 0 0 0 0 0 0 0 0 0 0 0 0 8:1.2317817 9:1.2306256 14:5.4009781 17:13.659571 23:1.6439202 25:1.644794 59838:3.2106166 72212:20.748083 86092:3.4400561 92682:10.689349 94671:5.9799733 100784:2.5656021 100786:2.5656021 
0.0025504398996108444 0.0032115284760236549 0.0028918515099749147 0.0056625572132863802 0.0047767894892820108 0.0050628611923807252 0.0035756803348746822 0.0054807310767220011 0.0032975521300864594 0.0044370339590337022 0.00032998680005369153 0.0024326565620678003 0.0046788547150090785 0.00095299615201922003 0.0043980918837132829 0.0036017393680204163 0.0034719390222154047 0.002949309809767041 0.0053013031974083078 0.0038500409588206035 0.0015031405840122941 0.0040970267806564728 0.00238597177226859 0.001227538321591678 0.0029992007683467517 0.0039521654906790032 0.0019247763338921312 0.00074360585564100558 8:1.2317817 9:1.2306256 14:7.5613694 16:1.2145794 17:4.5531904 18:2.2456834 20:2.2384351 23:1.6439202 25:1.644794 15743:2.2070356 59838:3.2106166 62629:2.3808554 72212:5.1870208 94671:8.96996 96221:2.8093444 100784:3.8484031 100786:3.8484031 
0 0 0 0 6.5952743711079748e-05 0 0 0 0 0 5.5402308550955764e-05 0 0 0.00010208757004539316 0 0 0 0 0 0 0 1.7050654278406713e-05 0 0 0 0 0 4.4432658310707507e-06 6:13.641727 8:29.56276 9:29.535014 12:3.7425625 13:2.6679965 14:18.363326 15:5.1531755 17:37.943253 18:20.21115 19:18.943723 20:24.622786 2012:31.975732 2497:31.975732 3093:22.765404 7590:2.8121494 11503:5.9010157 15743:2.2070356 17843:11.409078 24470:8.0285026 33616:2.6373467 43084:3.7744253 44813:1.8128817 47086:26.979364 54047:3.9249062 59838:3.2106166 60456:4.7947292 62629:14.285133 63631:1.9418438 65362:9.6738651 71213:34.432773 72212:10.374042 72639:16.884688 74089:14.325171 76680:3.6278326 79439:6.2891849 85251:6.2916332 89697:30.353871 94671:5.9799733 95155:14.13147 96221:8.4280331 97610:3.4140806 100784:12.82801 100786:12.82801 
0 0 0 0 0 0 0 0 0 0 1.7142633246781488e-05 0 0 0 0.00011197089636638056 0 0 0 0 0 0 0 4.6910630824675031e-05 0 0 0 0 1.5544162329985271e-05 2:5.6726401 8:1.2317817 9:1.2306256 13:1.3339982 14:4.3207825 15:32.207347 17:10.624111 18:6.7370501 19:2.5258297 20:6.7153053 24:2.5645873 3931:3.603141 4090:4.0719596 4760:2.9063366 7247:4.0049489 10800:4.4529737 15743:2.2070356 18332:4.6266371 19427:13.215277 20749:2.5980353 23541:4.369592 32217:2.1078289 33616:7.9120401 45530:3.802985 45941:3.7383203 47362:3.4613335 50752:4.1437854 56948:3.419222 59838:3.2106166 63271:2.9832977 72212:10.374042 74957:5.5090263 75275:12.244262 79846:6.8906663 80744:8.272473 85937:4.3745862 86562:8.8771698 89364:7.4989402 90141:1.7883656 94671:2.9899867 100784:6.4140052 100786:6.4140052 
0 0 0 0 6.1699067440254236e-06 0 0 0 0 0 0 0 0 7.6566262566954793e-06 0 0 0 0 0 0 0 0 0 0 0 0 0 0 2:1032.4205 3:3.7210699 8:564.156 9:563.62653 12:82.336376 13:1.3339982 14:625.43327 15:3.8648816 16:12.145794 17:312.65241 18:180.77751 19:36.624531 20:212.65133 21:2.1402947 23:6.575681 25:6.5791759 8943:3.8350499 9463:557.39425 10758:6.0480228 10938:46.818897 11503:32.455586 15743:2.2070356 21028:39.788065 21033:6.8953207 23521:4.5439454 33378:3.9508817 47086:68.674744 54047:3.9249062 55828:113.45416 59838:3.2106166 62567:16.497264 62629:63.092669 62866:447.7196 65949:3.5631162 66946:5.1035612 70505:7.7825792 71775:4.2327329 76535:5.253093 85937:153.11052 92196:4.92588 93223:15.176936 94671:17.93992 96221:2.8093444 96843:8.8771698 100784:41.049633 100786:41.049633 
0 0 0 0 0 0 0 0 0 0 0 0 0 0 0 0 0 0 0 0 0 0 0 0 0 0 0 1.1668079207756254e-05 1:11.665197 2:2.8363201 6:4.5472424 7:3.6570302 8:36.95345 9:36.918768 11:10.602039 12:8.7326459 13:10.671986 14:39.967238 15:73.432751 16:1.2145794 17:89.546078 18:29.193884 19:55.568254 20:26.861221 21:14.982063 3931:1.8015705 4133:10.207122 4474:3.5165962 4526:4.4675725 6559:6.1534008 6698:5.4682043 7590:2.8121494 7851:2.3327101 9651:7.993933 10191:2.3484861 10241:4.1332033 10499:5.4682043 11503:2.9505079 12852:2.2381908 13171:9.4335765 13183:6.3844951 13191:3.9957323 13667:3.3887628 14531:4.0236411 15743:2.2070356 15856:4.1984438 17468:6.2021735 18565:6.74117 18681:8.5607218 22611:5.7967084 23232:6.0480228 24122:2.8093444 25074:34.341048 26188:2.4645039 28017:4.6617285 28238:18.175782 28253:5.4289836 28273:5.8538668 28326:4.7552545 28951:8.2965052 29180:15.155237 30662:7.0776422 31202:11.624687 32037:9.2532743 33616:5.2746934 44813:19.941698 45530:3.802985 47086:2.4526694 47322:6.74117 47323:6.8953207 47950:3.9999431 48979:5.085789 52902:3.8830591 52908:5.2858828 54119:6.8953207 55212:5.5960377 56335:4.679747 59838:3.2106166 60456:2.3973646 61749:4.5018596 62567:76.987231 62629:5.9521386 64240:2.46848 65026:5.97903 65212:2.3206097 65609:4.6440289 65615:3.0812781 67574:4.7552545 70371:6.6076386 70503:7.0776422 71213:12.521008 71775:29.62913 72212:12.967552 74487:5.9144914 76680:1.8139163 78028:48.98271 78404:3.7383203 80744:5.514982 85174:3.4038764 86562:26.631509 87350:5.2006109 88298:6.8953207 89358:2.5493531 89364:18.747351 89501:20.656745 89670:5.5515859 89781:9.9493264 90141:3.5767312 91469:6.8953207 91611:2.2868227 94671:11.959947 95052:2.5364774 96221:8.4280331 96879:3.7034735 97129:6.3153021 97583:3.0960932 97610:3.4140806 97732:5.9799733 98245:5.3548756 99756:5.4289836 100784:24.37322 100786:24.37322 
0.00032983110104949141 0.00028074473611847605 0.00034292165445127485 0.00048450187313684936 0 0.00025486830975221075 0.00029537131378208072 0.00029807337431073615 0.00023808776971208939 0.00038600991804827107 8.7786984204315366e-05 0.00078744292462021152 0.00029327410031242563 0 0.0002210549329654877 4.4401729246007118e-05 0.0014906631362142841 0.00056949307472172394 0.00040461325352344856 0 0.00014128043255138572 0.00016826103666502614 0.0020870393794204631 0.00046283144237063895 0.00035021978634439642 0.00025709248455166751 4.2895422032697055e-06 0.000148565813266084 8:4.9271267 9:4.9225024 12:2.4950417 14:8.641565 15:2.5765878 16:1.2145794 17:4.5531904 18:14.596942 19:1.2629149 20:14.549828 23:4.9317607 24:17.952111 25:4.934382 12896:4.5927356 12954:2.5800573 20459:5.4885616 30168:3.59333 42342:2.7260748 45637:3.0923688 50943:7.993933 59838:3.2106166 62629:15.47556 66946:5.1035612 71480:4.8369326 72212:5.1870208 86092:3.4400561 92825:6.3844951 94671:5.9799733 97799:4.679747 98752:2.6563949 100784:2.5656021 100786:2.5656021 
0 0 0 0 0 5.9050931834955388e-06 0 0 0 0 1.6442799025410946e-05 1.8379045146412506e-05 0 0 7.4334429645474072e-06 0 0 9.588996146040989e-06 0 0 0 5.2921584036081187e-06 0 2.099672556205649e-06 4.5865155429980968e-05 0 2.9729546710626209e-06 0 1:1.9441995 2:873.58658 8:198.31685 9:198.13072 12:174.65292 13:1.3339982 14:155.54817 16:114.17046 17:145.70209 18:87.581651 19:87.141126 20:87.298969 22:17.065174 23:72.332491 25:72.370935 7851:2.3327101 9819:3.5337886 15743:2.2070356 18161:14.472704 28763:30.776345 29180:7.5776185 31638:29.081365 44813:1.8128817 45530:13.310448 46952:15.803527 59838:3.2106166 60456:76.715667 62567:35.744071 62629:78.568229 63271:8.949893 65729:7.5636108 71761:35.346458 72212:57.057228 85937:6.5618793 91114:31.975732 91611:2.2868227 92196:29.55528 94671:20.929907 95155:172.40393 96221:56.186887 100784:85.94767 100786:85.94767 
0 0 0 0 0 0 0 0 0 0 0 0 0 0 0 0 0 0 0 0 0 0 0 0 0 0 0 3.0677851889056194e-06 2:85.089602 8:48.039485 9:47.994398 10:24.826799 11:27.5653 12:64.871084 13:46.689938 14:81.014672 15:349.12764 17:94.099269 18:257.13074 19:90.929871 20:252.94317 23:143.02106 25:143.09708 5767:3.6056758 6069:8.042181 6311:145.64098 6559:2.0511336 7241:3.5750924 7590:2.8121494 9856:4.2097433 10525:142.71883 10526:7.993933 12852:2.2381908 14153:11.879077 14262:4.9494105 15743:2.2070356 17263:9.2190854 17855:4.5439454 22321:13.215277 22513:13.48234 23624:7.993933 24470:72.256524 24931:113.21611 25992:3.4089655 27217:26.96468 28701:3.2665452 28763:4.3966207 31249:21.902357 31566:39.116836 33056:94.37638 33616:5.2746934 45409:3.1981424 45530:17.113433 45688:7.993933 47086:36.790041 52041:3.5811347 52483:4.1762206 58212:14.601572 59788:68.554889 59838:3.2106166 60456:16.781552 62567:8.2486319 62629:160.70774 63631:15.53475 65212:4.6412194 65247:3.8272678 66549:198.91592 66621:7.0776422 70854:7.993933 70967:18.576116 71213:6.2605042 72212:28.528614 76124:3.0998315 76566:13.192034 76680:3.6278326 76714:12.776075 78750:6.4898556 78953:12.57837 80744:8.272473 83840:3.0666793 83895:7.5884679 84151:4.410414 85489:4.7952599 85514:39.839435 86562:79.894528 88147:7.0776422 89364:9.3736753 89453:7.993933 89781:33.164421 90141:5.3650969 93521:7.993933 94671:20.929907 95181:4.7750572 96221:14.046722 97603:3.2274946 98545:3.5280249 100784:15.393612 100786:15.393612 
0 0 0 0 0 0 0 0 0 0 8.8974823075554946e-06 0 0 0 0 0 0 0 0 0 0 0 0 0 0 0 0 0 2:17.01792 8:35.721668 9:35.688142 11:6.3612232 12:22.455375 13:4.0019947 14:30.245477 15:126.2528 16:7.2874765 17:47.049634 18:37.053775 19:23.995383 20:41.411049 23:8.2196012 25:8.2239699 3931:1.8015705 5514:7.3007858 6559:2.0511336 8346:3.2490008 9819:7.0675771 10743:7.993933 11503:2.9505079 11910:11.72387 12896:9.1854712 12914:35.717232 13667:10.166288 14531:4.0236411 14929:3.42439 15257:5.5960377 15743:2.2070356 19981:3.5222942 20133:14.447637 24283:3.7383203 25255:2.8262939 31566:1.8627065 32951:3.4038764 33616:5.2746934 42869:15.176936 44813:12.690172 45530:3.802985 47086:14.716017 47245:3.6244851 54695:103.92113 54737:53.119275 56982:8.5607218 59788:6.8554889 59838:3.2106166 60456:7.1920938 60864:3.7383203 61749:2.2509298 62567:13.74772 62629:7.1425663 63631:1.9418438 63688:62.809057 65362:19.34773 66549:20.577509 69950:4.5439454 70245:11.80047 71213:12.521008 72212:18.154573 74052:40.977068 74089:14.325171 74211:37.735109 74389:13.231242 75919:6.74117 76680:16.325247 76714:22.358131 80679:4.3176323 83183:3.0001048 83329:4.5599458 84266:8.1839206 84276:8.4194867 84575:4.9982007 85817:23.398735 85937:4.3745862 86562:62.140189 86995:3.97755 89364:1.8747351 89501:6.1970235 89621:7.7015965 90141:5.3650969 92682:17.815581 92955:4.6266371 94285:2.5536821 94671:8.96996 95052:2.5364774 96221:2.8093444 100784:21.807618 100786:21.807618 
1.2058245603646711e-05 0 0 0 0 3.685743003537692e-05 0 0 0 0 0 3.0754191165730629e-05 0 0 0 0 0 0 0 0 0 0 0 5.3862088059792385e-06 0 0 0 0 1:1.9441995 2:263.77777 7:14.628121 8:59.12552 9:59.070029 11:4.2408155 12:276.94963 13:41.353945 14:72.373107 15:216.43337 17:33.390063 18:231.30539 19:178.071 20:230.55882 23:46.029767 25:46.054232 3931:14.412564 4760:2.9063366 5185:4.9494105 6559:4.1022672 12896:128.5966 15743:4.4140712 16427:27.898483 18161:39.799935 18927:3.0703091 21724:5.5256487 26929:5.1607196 31566:7.4508259 43041:4.92588 44243:10.904299 44539:16.04019 45530:5.7044775 46952:7.9017634 47086:9.8106777 48979:2.5428945 53107:9.072359 56982:4.2803609 59788:61.6994 59838:3.2106166 60456:148.6366 62629:165.46945 63631:9.709219 66549:102.88754 66946:5.1035612 71542:8.1047023 71855:4.92588 72212:20.748083 73129:18.867555 73558:4.4675725 76680:12.697414 76714:44.716262 78229:4.7652627 84276:8.4194867 85251:28.312349 85333:56.289093 85937:13.123759 86562:71.017359 88346:2.993348 89364:5.6242052 89381:4.292631 89501:6.1970235 90141:7.1534625 91611:22.868227 94671:14.949933 95155:14.13147 97986:4.7167882 98316:33.038193 100784:128.2801 100786:128.2801 
0 0 0 0 0 0 0 0 0 0 0 0 0 0 0 0 0 0 0 0 0 0 0 5.2602213104724048e-05 0 0 0 0 2:266.61409 8:64.052647 9:63.992531 12:39.920667 14:89.656237 15:6.4414694 16:31.579065 17:48.567364 18:38.176617 19:26.521212 20:44.768702 22:8.532587 23:16.439202 25:16.44794 3931:7.2062819 6772:9.3234569 8323:17.373099 9240:19.521671 15743:2.2070356 22568:13.101736 32217:4.2156579 47668:3.5165962 47950:3.9999431 54573:20.640337 57980:15.987866 59788:9.1406518 59838:3.2106166 60456:31.16574 62029:7.993933 62567:2.749544 62629:17.856416 63326:9.0253858 63631:3.8836876 66065:12.237836 66135:22.102595 66175:14.848232 72212:12.967552 74957:5.5090263 76461:25.057324 76566:13.192034 76605:4.3432747 79030:19.797642 79303:8.1439193 85937:15.311052 86805:60.707743 89364:7.4989402 89501:4.131349 90754:13.06904 93472:31.975732 94671:29.899867 95155:22.610351 95566:11.625347 98752:5.3127898 100784:24.37322 100786:24.37322 
0 0 0 0 0.00032607977721468276 0 0 0 0 0 2.7807766679688678e-05 0 0 0.0003170176838879652 0.00016597688889531564 0 0.00044505854361831526 0 0 0 7.8074302035563401e-05 5.7299450660610658e-05 0 0 0 0 0 0 1:3.888399 6:4.5472424 8:22.17207 9:22.151261 10:1.7733428 12:3.7425625 14:16.202934 16:2.4291588 17:15.177301 18:2.2456834 19:2.5258297 20:2.2384351 21:2.1402947 26:3.4453331 9819:7.0675771 11503:5.9010157 15743:2.2070356 29180:5.0517457 33616:2.6373467 44813:5.438645 47086:2.4526694 59838:3.2106166 62567:5.4990879 62629:2.3808554 63248:24.514453 63271:2.9832977 65549:9.7210284 65949:7.1262324 71775:4.2327329 72212:10.374042 76680:10.883498 80744:2.757491 85937:4.3745862 89501:4.131349 91611:2.2868227 92914:6.4898556 94671:5.9799733 100784:8.9796073 100786:8.9796073 
0.0033869020585479115 0.0047244466131480117 0.0054045284853140802 0.0069093371466781312 0.0052285190764855983 0.0065099962741900939 0.0052467494433132171 0.0063762767864878299 0.0059271430485429381 0.0044311931402698365 0.0024989134181265457 0.003769943580105144 0.0061107311167785342 0.0034112565605842401 0.00734557238113402 0.0046998235896796269 0.0061347233777731816 0.0054420886925535495 0.0055655878712268375 0.0069587505836501392 0.0062379422698500856 0.0078431148720129913 0.0042086884293047518 0.0021715218462603643 0.0034254546951421514 0.0048097289262561196 0.0044368961131749539 0.00047930103885662333 8:2.4635633 9:2.4612512 14:5.4009781 15:2.5765878 16:1.2145794 17:3.0354603 15743:2.2070356 19587:4.4529737 59838:3.2106166 66946:5.1035612 72212:5.1870208 94671:2.9899867 98866:6.3844951 100784:3.8484031 100786:3.8484031 
0 0 0 0 0 0 0 0 0 0 1.9088178326741053e-05 0 0 0 0 0 0 0 0 0 0 0 0 0 0 0 0 0 1:15.553596 2:5.6726401 8:55.430175 9:55.378152 12:17.465292 13:4.0019947 14:28.085086 15:167.4782 17:77.404237 18:30.316725 19:56.831169 20:33.576527 21:4.2805895 2847:47.963598 3931:9.0078524 4133:10.207122 4646:4.9982007 5707:10.152324 6344:3.97755 6354:7.9550999 6559:10.255668 6861:2.4947177 7590:5.6242988 7790:7.5884679 8323:13.029824 8346:6.4980017 9240:34.162924 9973:5.4289836 9984:6.74117 10191:2.3484861 11503:11.802031 12663:3.1940187 12852:2.2381908 14469:5.4682043 14929:3.42439 15096:4.7750572 15743:2.2070356 15776:4.7167882 17055:6.74117 17873:7.993933 18191:6.8953207 19096:3.643655 19981:21.133765 20069:9.3234569 20405:96.768365 21929:3.8830591 22522:5.0761622 24122:2.8093444 24283:3.7383203 24302:5.7426412 24470:4.0142513 25085:4.6095427 25291:3.6764449 26188:17.251527 26625:2.7031439 28097:5.253093 28275:5.4682043 28318:4.4675725 29180:5.0517457 29964:4.1123692 30345:5.1607196 31566:22.352478 42545:6.4549893 42764:3.3640702 43084:3.7744253 44679:13.215277 44813:39.883397 45530:3.802985 45848:5.8538668 47245:3.6244851 47950:23.999659 48979:10.171578 51110:5.1317321 52023:7.5884679 52471:6.0480228 53732:39.985606 56484:5.2213443 58324:17.936069 59400:3.643655 59788:4.5703259 59838:3.2106166 60231:11.301298 60238:4.3830151 60456:7.1920938 60864:26.168242 61270:2.7158183 61538:4.0426893 61749:6.7527894 61987:22.917274 62567:54.990879 63271:5.9665954 63631:5.8255314 64240:4.9369601 64519:3.1302521 65212:2.3206097 65615:6.1625562 65867:5.6913479 66549:6.8591696 66621:7.0776422 70927:5.3548756 71213:31.302521 71637:11.382696 71775:4.2327329 72212:15.561062 74067:5.6913479 74089:4.7750572 75365:3.7034735 76095:4.7167882 76680:3.6278326 76714:6.3880374 77958:6.4893249 78037:5.6425577 78326:5.253093 78404:7.4766405 78884:6.2021735 78894:12.404347 79846:3.4453331 80744:2.757491 82818:21.012372 82832:7.3007858 82835:6.3844951 83778:9.8263023 83912:6.0480228 84276:4.2097433 85009:6.7379203 85071:4.8158791 85091:4.9735081 85129:5.4289836 85725:4.4675725 86562:71.017359 87350:2.6003054 87552:4.92588 87813:25.396397 89358:25.493531 89364:52.492582 89419:3.1817486 89436:21.979198 89501:10.328373 89781:9.9493264 90141:19.672022 91611:9.1472908 91650:3.4996943 92955:4.6266371 93485:15.987866 93627:3.643655 94285:2.5536821 94671:5.9799733 95052:2.5364774 95155:2.8262939 96221:14.046722 96235:25.15674 96674:18.576116 96688:15.176936 96706:31.975732 96707:31.975732 96712:10.857967 97129:18.945906 97562:13.315755 97583:3.0960932 98288:96.567385 98305:29.572457 99696:4.7358364 100784:47.463638 100785:14.417676 100786:47.463638 
0 0 0 0 0 0 0 0 0 0 5.8021308350559115e-05 0 0 0 0 0 0 0 0 0 0 0 0 0 0 0 0 0 2:28.363201 7:3.6570302 8:13.549598 9:13.536882 10:3.5466856 14:19.443521 15:33.495641 16:15.789532 17:6.0709206 18:11.228417 20:11.192176 23:18.083123 25:18.092734 4090:4.0719596 6069:2.680727 6505:8.2249786 6559:2.0511336 7851:2.3327101 8071:76.005771 8237:4.4244003 8526:4.7952599 8550:4.4675725 10399:4.5126929 12852:2.2381908 13296:5.869015 17825:6.2021735 18273:6.2891849 21724:2.7628244 29180:2.5258728 31471:7.3396006 31566:1.8627065 31943:5.6913479 45941:7.4766405 47950:1.9999715 58116:4.5439454 62629:11.904277 63631:3.8836876 65212:2.3206097 80744:2.757491 82648:5.9144914 84284:4.9982007 89364:11.24841 89456:4.0331198 89615:4.6440289 90141:1.7883656 94671:14.949933 95116:10.196439 97896:2.3520259 99890:3.3640702 
8.5858627767023373e-05 0 4.7934210737322238e-07 0.00038047300665715024 0.00029824531368195616 0.00052820798545697963 0 0 0.00029281163273172896 0 0.0001089727532074116 0.00026256477927453766 5.9168267033673446e-05 2.8995908766094324e-05 0.00030593566539312056 0.00015249102833147273 0.00032690737971448282 8.5343939900246337e-05 0.00016295864899937894 0.0002495473974746119 0.00013609317078761953 0.0004603034836487922 3.6455458722934227e-05 0.00013687738909599147 0 0.0001595647071897498 0.00020205516824557318 0 2:5.6726401 8:2.4635633 9:2.4612512 12:3.7425625 14:9.7217606 16:2.4291588 17:6.0709206 18:2.2456834 19:6.3145744 20:3.3576527 12954:5.1601145 13560:10.782487 13569:23.981799 13613:6.4898556 15743:2.2070356 52917:4.2097433 59838:3.2106166 60456:2.3973646 62629:1.1904277 72212:5.1870208 85937:2.1872931 94671:5.9799733 100784:6.4140052 100786:6.4140052 
0 0 0 0 0 0 0 0 0 0 0 0 0 0 0 0 0 0 0 0 0 0 0 0 0 0 0 2.30908219117777e-05 14:7.5613694 15:25.765878 16:1.2145794 17:7.5886507 18:4.4913667 20:4.4768702 21:4.2805895 15743:2.2070356 24470:4.0142513 33616:5.2746934 59838:3.2106166 72212:7.7805312 80744:5.514982 86562:17.75434 94671:2.9899867 100784:5.1312042 100786:5.1312042 
0 0 0 0 0 0 0 0 0 0 4.539751205693111e-06 0 0 0 0 0 0 0 0 0 0 0 0 0 0 0 0 0 2:25.52688 8:11.086035 9:11.07563 12:14.97025 14:35.646456 15:211.2802 16:3.6437382 17:21.248222 18:76.353234 19:11.366234 20:76.106793 3931:3.603141 4373:18.867555 6559:2.0511336 7851:6.9981303 11503:5.9010157 11762:12.76899 12852:8.952763 16668:24.991004 29180:5.0517457 31566:5.5881195 44813:7.2515266 45530:3.802985 47210:21.523282 47950:7.9998862 52332:10.432782 52947:15.156961 59788:20.566467 59838:3.2106166 62629:3.5712832 64240:9.8739201 65576:7.4766405 65711:16.654758 66549:61.732526 69943:64.764485 72212:7.7805312 76714:44.716262 77037:10.618757 84266:4.0919603 85489:4.7952599 86092:10.320168 86562:88.771698 88346:5.986696 89364:13.123145 90141:3.5767312 91611:4.5736454 94671:14.949933 97592:10.151326 98752:23.907554 99515:26.384067 100542:6.0480228 100784:5.1312042 100786:5.1312042 
0 0 0 0 0 0 0 0 0 0 0 0 0 0 0 0 0 0 0 0 0 0 0.00022356284505639063 0 0 0 0 0.00010574524284421697 14:1.0801956 17:22.765952 11503:5.9010157 15743:2.2070356 33616:18.461427 59838:3.2106166 72212:20.748083 80744:19.302437 85937:6.5618793 94671:2.9899867 100784:11.545209 100786:11.545209 
0.00018768209419131124 0.00016069475798005222 0.0002881279244259724 0.00026462821254424738 1.5379745222176292e-05 0.00023558676088828443 0.00015792646460409309 0.00017473261019029121 0.00030234862569405183 9.1184990675851073e-05 0 0.00019216241051986976 0.00023051759552596553 5.8218054014175718e-05 0.00017463421398230901 0.00014899500968866647 0.00029375099698021546 0.00030765160112940899 0.00018393151257438113 0.00018359144310042919 0.00022736711956885739 0.00026596515467996914 2.4175047474637663e-05 0.00012564168585658429 0.00013214824955387158 0.00017281898386211448 0.0001872628959926172 2.9689840485055224e-05 2:14.1816 8:7.39069 9:7.3837536 12:1.2475208 13:5.3359929 14:8.641565 15:18.036114 16:7.2874765 17:3.0354603 18:12.351258 20:12.311393 23:9.8635214 25:9.8687639 3931:3.603141 4090:4.0719596 4246:4.2682395 6505:5.4833191 8071:54.289836 8237:4.4244003 8526:9.5905197 8550:4.4675725 9463:5.6019522 17283:4.6440289 18273:6.2891849 25775:7.993933 28691:6.2891849 28951:5.5310035 29180:5.0517457 29546:4.8369326 31471:7.3396006 31566:1.8627065 32217:2.1078289 44813:1.8128817 45530:3.802985 45941:3.7383203 47950:5.9999146 55156:5.2213443 58116:4.5439454 60231:3.7670992 61749:2.2509298 62629:13.094705 63631:3.8836876 64240:2.46848 71542:4.0523512 80744:5.514982 89358:2.5493531 89364:11.24841 89456:4.0331198 89501:6.1970235 89615:4.6440289 90141:10.730194 91611:2.2868227 92076:4.8975111 92186:7.993933 92206:3.6698003 94671:5.9799733 95116:3.3988131 95973:4.8804177 97896:2.3520259 99890:3.3640702 
0.00028479152431011443 6.0412084849265428e-05 7.4426079619778634e-05 0.00014288532862952663 1.4537797762668493e-05 7.881013363115833e-05 5.3851091662244787e-05 2.9324431733600787e-05 3.6148036036325413e-05 4.1518294573835015e-05 3.152993587578439e-05 8.8816390200370168e-05 9.1044195273395386e-05 0 2.0022389006556394e-05 2.7067312159673216e-05 8.5564317171928013e-05 9.011524700656341e-05 8.3687726204832e-05 1.9428949377376085e-05 0 6.2293737210592941e-05 6.6540651825376819e-05 0.00016475127247291113 0.00013052121694312222 7.3012072813469133e-05 1.3587302899529369e-05 9.1395990824957561e-06 2:102.10752 8:3.695345 9:3.6918768 13:58.695922 14:5.4009781 15:30.919053 17:1.5177301 18:66.247659 19:45.464935 20:66.033835 22:10.665734 3931:7.2062819 4474:10.549788 8026:77.854065 11434:3.4348067 12167:31.328066 12667:8.2664065 13560:32.34746 15743:46.347747 16565:35.533136 18260:8.7660301 18275:4.8804177 20664:12.979711 23541:4.369592 23935:84.030006 26188:2.4645039 31525:4.7552545 31566:9.3135324 31638:4.1544807 31708:35.79795 41904:11.774719 42342:21.808599 42888:3.942148 44813:1.8128817 45530:1.9014925 46384:6.8487799 51655:22.646552 56948:3.419222 58022:3.9249062 62629:15.47556 65711:5.5515859 69585:5.0235185 70285:4.3432747 71040:13.402717 77587:5.5090263 77644:13.029824 83597:28.713206 84164:8.6607427 86299:5.2858828 86562:4.4385849 89020:5.8003655 89975:6.6422083 92076:2.4487555 94406:6.5330903 94999:10.381145 95155:2.8262939 100784:5.1312042 100786:5.1312042 
6.1356582377675246e-05 2.9248457926717262e-05 0.0001878132624229192 0 0 0 0 0 4.527400932429756e-05 0 3.0156392047237469e-05 0 0 0 0 0 0 8.3673323773572036e-05 0 7.1778789441178276e-06 0.0001999878673751075 2.2642740550384152e-05 0 7.784522011692585e-05 0 0 0 0 2:11.34528 8:4.9271267 9:4.9225024 12:7.4851251 13:1.3339982 14:6.4811737 15:72.144457 17:1.5177301 18:24.702517 19:5.0516595 20:24.622786 23:6.575681 25:6.5791759 3931:1.8015705 6069:5.361454 7590:8.4364483 11917:7.5884679 12852:2.2381908 12954:5.1601145 14929:3.42439 20749:2.5980353 22458:5.1317321 26589:7.3007858 27021:4.0523512 29115:7.3007858 29294:7.0776422 29964:4.1123692 31566:1.8627065 41705:7.993933 42954:6.1221308 44813:1.8128817 45530:1.9014925 47046:7.5884679 47950:3.9999431 51990:4.6440289 52676:4.0523512 55051:7.993933 58324:3.5872137 59838:3.2106166 63271:2.9832977 63631:5.8255314 64519:3.1302521 66534:62.891849 69766:4.5599458 71855:4.92588 72212:2.5935104 76095:14.150365 76708:4.5281971 83899:3.59333 86466:10.857967 86562:44.385849 89364:5.6242052 89436:3.6631996 89501:2.0656745 92953:4.8584388 93296:4.5439454 95116:3.3988131 95566:2.9063366 97603:3.2274946 99890:3.3640702 100784:1.282801 100786:1.282801 
0 0 0 0 0 0 0 0 0 0 0 0 0 0 0 0 0 0 0 0 0 0 0 2.0851580699878314e-05 0 0 0 0 1:3.888399 2:99.271202 3:11.16321 8:23.403852 9:23.381886 10:17.733428 12:36.178105 13:5.3359929 14:93.977019 15:249.92901 16:23.077009 17:13.659571 18:86.458809 19:39.150361 20:86.179751 23:8.2196012 25:8.2239699 3931:5.4047115 4090:20.359798 4312:4.4823875 6407:6.2021735 6505:2.7416595 6950:5.049494 7590:2.8121494 9273:5.6425577 9819:24.73652 10366:8.6352646 15743:6.6211068 16452:7.5884679 16851:2.5216623 17727:4.08191 18045:7.4484711 18161:21.709056 18178:14.601572 19427:59.468748 20749:7.7941058 22665:10.571766 25992:3.4089655 26590:6.4898556 26696:11.279479 27451:5.5908719 28141:37.585986 29180:2.5258728 30059:5.658294 31566:1.8627065 31728:3.59333 32217:2.1078289 33378:3.9508817 36140:6.74117 43548:12.404347 43913:3.0776084 44813:5.438645 45530:1.9014925 45923:28.363333 45941:11.214961 46952:19.754409 47453:4.1762206 47950:11.999829 49917:3.6966476 56691:41.362732 56948:3.419222 58022:3.9249062 58116:4.5439454 59788:52.558748 59838:3.2106166 60456:4.7947292 61674:4.4385849 61749:2.2509298 62567:8.2486319 62629:10.713849 63271:5.9665954 63631:11.651063 64240:2.46848 65212:6.9618291 65949:3.5631162 66549:130.32422 66574:8.1242147 66621:14.155284 66946:5.1035612 70266:7.3007858 71775:4.2327329 72212:18.154573 74645:4.2682395 77949:4.7952599 79846:20.671999 80507:17.5616 80618:4.2444289 84034:6.3153021 84276:8.4194867 85937:17.498345 86562:71.017359 89358:10.197412 89364:24.371556 89501:4.131349 89636:12.096046 94671:23.919893 96221:2.8093444 97896:7.0560777 100273:4.2562634 100784:11.545209 100786:11.545209 
0 0 0 0 2.53282068032525e-05 0 0 0 0 0 0 0 0 0 0 0 0 0 0 0 0 0 0 0 0 0 0 0 1:7.7767981 8:62.820865 9:62.761906 10:23.053456 12:31.188021 14:45.368216 15:7.7297633 16:2.4291588 17:69.815586 18:10.105575 19:22.732468 20:12.311393 21:10.701474 23:9.8635214 25:9.8687639 2263:55.957531 3271:30.353871 3721:20.685962 7633:8.1638199 8323:17.373099 9240:19.521671 11503:8.8515236 13723:3.9957323 15743:2.2070356 16851:2.5216623 17843:2.8522694 18192:8.5364791 25255:11.305176 28951:2.7655017 29180:5.0517457 30345:5.1607196 31202:3.8748958 31265:15.664033 33616:2.6373467 36095:3.3495421 43978:2.8910224 44813:7.2515266 45530:3.802985 47086:7.3580083 47245:3.6244851 47950:3.9999431 56691:25.453989 59838:3.2106166 60456:11.986823 62567:5.4990879 62629:3.5712832 63271:17.899786 65615:3.0812781 66622:4.1762206 71213:25.042017 72212:18.154573 74052:11.707734 74089:23.875286 76680:3.6278326 85937:4.3745862 86092:3.4400561 89621:3.8507982 90412:16.408451 91611:6.8604681 91650:3.4996943 94671:14.949933 95155:16.957764 96221:5.6186887 97583:3.0960932 97610:3.4140806 100784:23.090419 100785:4.805892 100786:23.090419 
0 0 0.00013536272316600964 0 0 -0 0 0 1.7895728989160358e-05 0 8.001750480350026e-05 0 0 0 0 0 0 1.6774300135047741e-05 0 0 8.9052749732339837e-05 0 0 0 0 0 8.5009856380787124e-06 0 1:1.9441995 2:8.5089602 8:12.317817 9:12.306256 10:7.0933712 12:12.475208 14:9.7217606 15:56.684931 16:2.4291588 17:9.1063808 18:16.842625 19:5.0516595 20:16.788263 21:2.1402947 23:4.9317607 25:4.934382 3930:18.400076 3931:3.603141 4565:4.1652916 6010:4.8804177 6354:3.97755 6505:2.7416595 6559:2.0511336 6651:17.5616 7304:5.4289836 7592:5.3548756 7710:4.9982007 9325:35.486949 9856:4.2097433 10191:9.3939443 11503:8.8515236 12667:4.1332033 12852:2.2381908 13296:8.8035226 14608:5.2213443 15187:4.92588 15743:2.2070356 16668:4.9982007 18260:4.3830151 18273:12.57837 19533:7.993933 21379:7.993933 25788:5.4289836 26451:4.3830151 26865:4.5762063 28103:7.4484711 28951:8.2965052 31202:27.124271 42545:6.4549893 44813:3.6257633 47950:9.9998577 53717:6.2021735 55981:4.8584388 58108:5.7426412 59330:6.8953207 59838:3.2106166 62629:10.713849 63271:2.9832977 63631:5.8255314 64240:2.46848 64372:3.3164421 64519:3.1302521 65949:3.5631162 70245:3.93349 70847:6.0480228 71775:8.4654657 72212:7.7805312 75275:12.244262 76680:1.8139163 77512:5.7426412 77518:7.3007858 77530:10.857967 79157:11.257819 83012:6.8953207 83569:7.993933 83668:6.74117 84304:5.5090263 86562:8.8771698 89358:5.0987062 89364:26.246291 90141:5.3650969 90846:7.5884679 91348:14.601572 91884:7.3007858 92955:4.6266371 93627:3.643655 94347:3.0776084 94406:6.5330903 94671:2.9899867 95358:4.08191 95948:4.7358364 96221:2.8093444 96786:7.993933 97583:6.1921864 97896:2.3520259 100784:6.4140052 100785:4.805892 100786:6.4140052 
-0 0 0 0 0 0 0 0 0 0 1.4420296963643686e-05 0 0 0 0 0 0 0 0 0 0 0 0 0 1.0772941136161807e-07 0 0 0 1:1.9441995 2:36.872161 3:1.8605349 13:17.341977 14:7.5613694 15:19.324408 16:25.506168 17:28.836873 18:37.053775 19:16.417893 20:36.934179 22:2.1331468 3931:1.8015705 6069:8.042181 6559:2.0511336 8883:3.7526062 8943:3.8350499 9532:19.624531 15319:6.8953207 16814:25.830321 16837:15.070556 19656:4.221172 23935:45.834548 30209:5.049494 30215:12.096046 33067:14.601572 41785:31.518558 43008:17.668943 43037:4.3830151 43781:12.62923 43854:3.5109304 43978:2.8910224 44813:1.8128817 47950:1.9999715 53015:11.435648 54956:6.74117 55696:3.8912896 59134:7.993933 59282:7.993933 61270:2.7158183 62629:15.47556 65312:6.1699227 66065:6.1189181 67037:5.8538668 72524:28.503717 74517:9.2532743 74633:4.4974254 74645:4.2682395 75069:14.150365 84164:12.991114 84187:7.5884679 84643:11.018053 86066:10.152324 86184:22.018802 89436:3.6631996 89975:3.3211041 96639:3.5872137 97688:3.4453331 98692:3.7312531 99063:7.993933 
-0 0 0 0 0 0 0 0 0 0 0 0 0 0 0 0 0 0 0 0 0 0 6.7902927578422886e-05 0 0 0 0 0 1:1.9441995 2:5.6726401 5:44.682837 6:4.5472424 7:32.913272 8:4.9271267 9:4.9225024 12:2.4950417 13:4.0019947 14:10.801956 15:18.036114 16:2.4291588 18:25.825359 19:13.892064 20:26.861221 3931:3.603141 7851:2.3327101 14153:3.9596923 15743:11.035178 16668:4.9982007 18059:3.3399726 20696:5.1035612 23935:38.195457 26188:2.4645039 42888:3.942148 43781:4.2097433 43854:3.5109304 44539:2.673365 44813:1.8128817 45637:3.0923688 52420:3.4885831 53905:15.176936 58324:3.5872137 59990:5.97903 62629:1.1904277 66065:6.1189181 66455:6.1221308 66946:10.207122 75858:26.430554 75860:5.97903 82754:5.5090263 90633:6.0480228 92196:4.92588 92953:4.8584388 94406:9.7996355 100784:3.8484031 100786:3.8484031 
-0.00045070678562118756 8.5635667708856876e-05 0.00013451928809989086 0.00070690148706131382 0 0.00053319159529129968 4.1437736171228662e-05 0 0.00011916418860765983 0 0.00015355724575309509 0.00039668881715346379 0.00024777011008835089 0.00013669224073711804 0.00020988104852092272 0.00021225948342110945 0.00052293247761911498 0.00029340723560136516 0.00025707084887458052 0.00020026033202152956 2.5018355811835206e-05 0 0.0004439322906580744 0.00017048512502419082 0.00056246317717228013 0.00028179449065536674 4.0415390751465871e-05 0 2:22.69056 3:3.7210699 5:16.756064 7:10.971091 8:6.1589084 9:6.153128 13:4.0019947 14:4.3207825 15:6.4414694 18:15.719784 19:6.3145744 20:15.669046 27:5.5043719 3931:3.603141 9716:7.993933 9717:7.993933 9718:7.993933 9719:7.993933 9720:7.993933 10474:7.993933 11161:3.6372241 12167:10.442689 15743:6.6211068 18059:3.3399726 26656:7.3007858 28756:3.8118828 42342:10.904299 42888:7.8842961 43781:4.2097433 43854:3.5109304 44539:2.673365 52081:4.8584388 55721:7.993933 62629:4.7617109 66264:8.2664065 71040:4.4675725 75643:9.6317583 79713:17.586483 87928:7.993933 94192:7.993933 100784:17.959215 100786:17.959215 
-0 0 0 0 0 0 -0 0 0 2.1608109222023916e-05 0 0 0 0 0 0 4.7193823115847161e-06 0 0 0 0 0 0 0 0 0 0 9.0089209196197058e-06 1:1.9441995 2:62.399041 3:26.047489 5:19.548741 6:13.641727 7:7.3140605 10:19.506771 11:116.62242 12:23.702896 13:170.75177 14:75.613694 15:94.045453 16:191.90355 17:212.48222 18:631.03702 19:23.995383 20:629.00026 3931:12.610993 4565:4.1652916 5670:7.0218608 6026:43.830151 6055:31.975732 6559:6.1534008 7590:2.8121494 7851:6.9981303 8943:3.8350499 9463:8.4029284 9532:19.624531 9734:39.645832 9819:3.5337886 10191:2.3484861 11063:4.9735081 11161:7.2744483 11434:10.30442 11469:20.094074 11590:41.123692 11723:57.007435 11846:19.100229 11881:7.5884679 12852:2.2381908 12954:2.5800573 14191:8.2875707 14589:36.741885 14808:4.4675725 14986:11.485282 15010:20.094074 15155:13.492276 15436:7.5884679 15437:5.5515859 15706:7.3007858 15743:22.070356 16427:6.199663 16624:21.419503 16729:22.179885 16851:5.0433246 17066:6.8953207 17180:5.2213443 18045:3.7242355 18059:6.6799453 18477:3.4506382 18722:6.1221308 20459:5.4885616 20749:2.5980353 21287:4.410414 21311:13.48234 22917:5.0235185 23483:8.585262 23592:12.979711 23775:15.3402 23935:53.47364 24001:10.442689 24931:5.3912433 25429:7.3007858 26203:65.016404 26443:4.1332033 28119:5.0761622 28951:5.5310035 29092:6.6076386 29194:18.718988 29483:7.993933 29818:7.993933 29839:11.707734 31202:7.7497916 31480:121.1104 31525:4.7552545 31566:1.8627065 32881:7.993933 32926:7.993933 32951:3.4038764 33212:6.6076386 35983:7.0776422 42027:6.6076386 42241:7.5884679 42342:35.438973 42883:8.1439193 43008:10.601366 43204:20.642879 43714:9.7168775 43774:5.1905726 43781:12.62923 43854:17.554652 43913:3.0776084 44107:7.993933 44243:8.1782244 44539:2.673365 44573:7.993933 44630:7.993933 45174:7.7175328 45308:4.5439454 45530:5.7044775 45755:5.2858828 45765:6.5067163 45998:27.75793 46266:7.7015965 46384:23.97073 47141:6.3844951 48989:5.6913479 49129:7.993933 49266:21.163664 50166:7.993933 50219:11.481803 51587:7.3007858 51639:3.6501276 51829:6.74117 51840:11.481803 52210:7.993933 52332:73.029474 52574:8.8208281 52947:11.367721 53107:6.0482394 53942:21.143531 54573:10.320168 55481:119.51071 55728:5.2213443 56070:3.5750924 56099:5.5515859 56901:4.1984438 57133:4.2682395 57156:5.253093 58096:4.8584388 58273:12.57837 58515:5.5090263 58960:6.74117 59039:7.993933 59114:7.993933 59519:7.993933 59705:2.940877 59832:4.3176323 60096:11.828983 60999:7.993933 61241:7.993933 61325:15.176936 61569:20.60884 61674:4.4385849 61783:3.6698003 62629:609.49899 63146:7.4206928 63631:3.8836876 63668:13.790641 64087:5.97903 65089:5.0235185 65212:2.3206097 65549:3.2403428 65572:5.7426412 66065:24.475672 66225:111.88221 66645:4.2327329 69887:4.4675725 70245:3.93349 70515:4.3563468 71696:3.9685813 72118:33.309516 72524:195.45406 72791:7.3007858 73360:7.993933 73426:6.5242603 74080:5.6425577 74650:6.1221308 74774:18.144068 75104:4.6617285 77037:24.7771 78150:6.2021735 78229:7.1478941 78469:10.506186 78931:5.0235185 79288:7.993933 79292:7.993933 79293:7.993933 80023:11.192075 80490:6.2891849 80526:10.857967 82570:17.220214 83058:4.2327329 83183:57.001991 83603:14.325171 83840:3.0666793 83864:14.325171 84288:80.89404 84659:6.0480228 84668:3.5750924 85401:7.993933 86184:18.349002 86201:5.1905726 86224:15.987866 86423:7.993933 87154:7.993933 87186:5.3548756 87350:7.8009163 87394:3.3837752 87487:4.1652916 87918:7.5884679 88012:88.665841 89020:17.401097 89350:37.001179 89364:9.3736753 89781:6.6328843 89975:13.284417 90141:7.1534625 90601:47.621595 90940:13.447163 91060:7.3007858 91897:6.8953207 92076:9.7950221 92798:17.989702 94250:7.5884679 94258:4.4529737 94779:5.5515859 94847:7.3007858 94877:5.9074778 95612:24.184663 96510:7.993933 96639:3.5872137 97402:22.563464 97688:17.226666 98752:2.6563949 99119:7.0776422 99232:9.0878909 99479:7.993933 99515:3.2980084 100120:7.6390914 100784:70.554057 100786:70.554057 
-5.2406390271412898e-06 0 0 0 0 0 0 0 0 0 1.6155790026581376e-05 0 0 0 0 0 0 0 0 0 0 0 0 4.908012198038384e-05 0 0 0 0 2:45.381121 3:9.3026747 6:4.5472424 8:17.244943 9:17.228758 10:17.733428 12:14.97025 13:1.3339982 14:91.816628 15:81.162514 16:25.506168 17:50.085095 18:153.82931 19:39.150361 20:153.3328 6069:5.361454 6505:5.4833191 6559:8.2045344 6861:17.463024 7590:2.8121494 7666:4.3303713 7859:15.987866 7861:15.987866 7866:7.993933 7871:7.993933 8282:34.455847 9134:4.1123692 9856:4.2097433 10191:2.3484861 10618:6.3844951 12852:2.2381908 17727:4.08191 18477:6.9012764 20647:4.7358364 20749:2.5980353 22513:13.48234 22522:15.228487 23609:6.74117 27924:3.5994838 28702:6.4898556 29861:5.5515859 29968:22.765404 30018:18.718988 30850:4.1984438 31566:3.725413 32217:2.1078289 42089:9.2880578 43854:38.620235 44243:35.438973 44813:3.6257633 45396:9.4335765 45409:6.3962849 45530:5.7044775 45648:5.1317321 45670:3.8272678 47210:3.5872137 47950:3.9999431 49058:31.328066 52041:3.5811347 52576:5.0761622 54142:4.9982007 54573:24.080393 54862:10.442689 56618:7.993933 56948:10.257666 58092:5.253093 58132:7.2744483 61270:2.7158183 62629:89.282079 63146:22.262078 63631:13.592907 65212:16.244268 65576:3.7383203 65615:3.0812781 65949:10.689349 67611:5.4682043 67701:5.1905726 67745:9.5501143 70737:7.5884679 71291:12.096046 71475:5.2213443 71828:3.7892404 72379:4.0621073 76219:4.6980961 76447:6.8953207 76598:5.4682043 78404:3.7383203 80116:14.155284 82181:4.7358364 83601:23.981799 83840:18.400076 84668:17.875462 89364:3.7494701 89439:7.993933 89440:7.5884679 89501:10.328373 90027:19.822916 90141:3.5767312 90574:9.510509 91701:31.518558 92955:4.6266371 94112:5.2858828 94285:5.1073642 96872:6.4549893 97572:6.8953207 97601:3.7034735 97610:10.242242 97896:4.7040518 98288:4.0236411 98333:5.049494 98752:5.3127898 100784:1.282801 100785:4.805892 100786:1.282801 
-0.0021129459739484655 0.0034314385783418984 0.0035328450011479599 0.0047100267833488857 0.0019873582911459665 0.0038371280653382409 0.003817916277114441 0.004905994397234552 0.0036970597412366987 0.0032025670477785818 0.00078575227352478086 0.0018478756167373768 0.0041284842455934856 0.0014114226190071748 0.0027707390900803914 0.0032407601299449073 0.0038813240846676603 0.0036522320483945402 0.0041037253960694905 0.0029958569147297675 0.0024553536685274113 0.0043437702137487525 0.0020523884386492918 0.002523045637454608 0.0020107971779676579 0.0032639300733886488 0.0026378038883013606 0.00061338751048122713 14:1.0801956 15:5.1531755 18:8.9827334 20:8.9537404 3931:3.603141 11434:6.8696135 14775:4.8804177 42883:8.1439193 43854:7.0218608 47950:1.9999715 88346:2.993348 89975:6.6422083 93050:5.8538668 97896:2.3520259 
-0 0 0 0 0 0 0 0 0 0 0 0 0 0 0 0 0 0 0 0 0 0 0 1.9885087951910827e-05 0 0 0 0 1:5.8325986 2:124.79808 3:22.326419 5:11.170709 6:11.368106 8:2.4635633 9:2.4612512 12:1.2475208 13:30.681959 14:20.523717 15:124.96451 16:34.008224 17:30.354603 18:214.46276 19:56.831169 20:213.77055 21:2.1402947 3931:21.618846 6026:8.7660301 6356:9.6317583 9463:33.611713 10618:51.075961 11434:6.8696135 11590:69.910276 11846:47.750572 12852:2.2381908 12954:2.5800573 14177:6.2891849 14182:6.2891849 14808:4.4675725 14929:3.42439 16729:14.78659 16851:2.5216623 18059:3.3399726 19656:21.10586 22027:7.993933 22028:5.253093 22888:7.993933 24244:4.0142513 27226:5.5515859 28951:8.2965052 29092:6.6076386 29861:5.5515859 32743:5.0224258 33445:5.8538668 42342:5.4521496 42883:8.1439193 43008:7.0675771 43781:29.468203 43854:24.576513 43913:18.46565 44243:32.712898 45250:4.7552545 45308:9.0878909 45765:3.2533582 45773:7.993933 49592:15.987866 53015:3.8118828 56901:4.1984438 60096:29.572457 61270:2.7158183 62629:77.377802 65312:12.339845 66065:6.1189181 72212:5.1870208 72524:24.431758 74666:6.3844951 75069:4.7167882 77037:7.0791714 83864:19.100229 84668:7.1501847 86184:36.698003 86206:4.9028905 87394:40.605303 88012:177.33168 89020:5.8003655 89501:2.0656745 89781:3.3164421 89975:6.6422083 90940:62.753426 92076:2.4487555 94169:4.7952599 94725:3.5222942 94924:4.1123692 95013:17.227924 95155:5.6525879 95311:7.993933 95566:2.9063366 96639:14.348855 97688:37.898665 98692:7.4625062 100785:2.402946 
-6.3482219823375695e-07 0 0 0 0 0 0 0 0 0 0 0 0 0 0 0 0 0 0 0 0 0 0 0 0 0 0 0 2:425.44801 3:5.5816048 5:2.7926773 6:759.38948 7:7.3140605 12:158.43515 13:308.15359 14:150.14719 15:362.01058 16:8.5020559 17:514.51052 18:465.9793 19:161.6531 20:464.47528 21:2.1402947 23:3.2878405 25:3.289588 2070:12.57837 3931:21.618846 4004:39.595284 4378:63.951464 4379:63.951464 4676:37.886691 5029:5.4289836 5327:63.951464 5328:63.951464 5800:44.691465 6010:29.282506 6026:74.511256 6033:34.476603 6043:5.7426412 6059:63.951464 6060:63.951464 6366:6.1221308 6434:58.406286 6559:20.511336 6670:56.621138 6723:63.951464 6972:63.951464 7083:57.409016 7552:63.951464 7590:14.060747 7851:2.3327101 8031:47.963598 8032:63.951464 8445:63.951464 8822:303.53871 8823:63.951464 8824:47.963598 9463:61.621475 10220:63.951464 11091:63.951464 11590:20.561846 11723:16.287839 11761:6.74117 12167:10.442689 12667:78.530862 12852:2.2381908 13560:53.912433 14191:91.163278 15398:63.951464 15743:103.73067 15776:9.4335765 16427:37.197978 16565:30.456973 16851:7.5649869 17011:60.707743 17263:9.2190854 17283:4.6440289 17588:11.285115 17797:63.951464 17805:63.951464 17806:47.963598 17810:63.951464 18059:40.079672 18097:5.1317321 18610:63.951464 19867:127.90293 19876:60.707743 19879:63.951464 19896:63.951464 19897:63.951464 20459:27.442808 20681:45.530807 20744:74.426082 21418:47.963598 21724:8.2884731 21938:4.1984438 22026:47.963598 22047:63.951464 22271:17.390125 22609:127.90293 23141:63.951464 23326:63.951464 23889:63.951464 23935:359.0373 23950:502.37605 24122:22.474755 24143:19.181039 24244:4.0142513 24324:121.41549 24325:127.90293 24326:63.951464 24327:127.90293 24328:47.963598 24329:63.951464 24461:25.959422 24985:63.951464 25281:39.985606 25336:63.951464 25361:47.963598 25588:9.3234569 25829:47.963598 25830:47.963598 25994:63.951464 25995:63.951464 26083:47.634085 26135:63.951464 26145:63.951464 26203:4.6440289 26255:6.3844951 26472:4.1984438 26821:127.90293 27131:121.41549 27451:22.363488 27696:60.707743 27703:255.80586 27740:453.03768 27811:45.941129 27919:47.963598 28092:41.285757 28154:63.951464 28305:63.951464 28526:63.951464 28595:63.951464 29038:63.951464 29624:4.6095427 29964:16.449477 31155:52.53093 31261:13.215277 31566:13.038945 32217:2.1078289 32646:63.951464 32647:63.951464 32648:63.951464 36095:6.6990842 41858:11.192075 42089:761.62074 42342:103.59084 42541:63.951464 42545:3.2274946 42888:11.826444 43008:3.5337886 43198:47.963598 43634:36.54941 43781:12.62923 43978:8.6730672 44243:38.165047 44418:21.341198 44539:53.4673 44850:11.95806 45144:63.951464 45374:63.951464 45387:4.08191 45420:2.2573607 45530:66.552238 45635:63.951464 46266:11.552395 46384:13.69756 46852:5.1607196 47402:6.74117 47409:6.8953207 47572:63.951464 47850:63.951464 47851:63.951464 47852:106.23855 47945:63.951464 47950:19.999715 48901:63.951464 49154:63.951464 49419:27.581283 51655:56.616379 51690:63.951464 51691:63.951464 51693:127.90293 51745:26.217552 52012:63.951464 52081:72.876581 52332:34.77594 52620:63.951464 53107:3.0241197 53719:3.8995884 54345:795.62052 54417:47.963598 54902:111.91506 54909:63.951464 55041:47.963598 55481:4.2682395 55571:33.70585 55665:4.7750572 57393:63.951464 57507:46.373667 58013:3.8667986 58089:63.951464 58205:47.963598 58206:63.951464 58207:63.951464 58208:63.951464 58974:18.144068 59979:63.951464 60223:47.963598 60329:63.951464 60984:12.096046 61092:63.951464 61126:63.951464 61323:63.951464 61538:121.28068 61569:3.4348067 61743:63.951464 62567:8.2486319 62572:60.707743 62629:77.377802 62801:63.951464 62818:47.963598 63271:2.9832977 63427:63.951464 63428:63.951464 63585:111.91506 63586:63.951464 63631:13.592907 63673:127.90293 63677:47.963598 64233:63.951464 64240:2.46848 65139:63.951464 65162:11.257819 65349:5.5960377 65354:7.5884679 65549:6.4806856 65712:21.902357 66065:657.78369 66264:4.1332033 66691:63.951464 67059:26.631509 67605:47.963598 67763:63.951464 69302:88.825375 69584:6.1221308 69848:10.709751 70272:7.993933 70364:47.963598 70504:63.951464 71063:7.993933 71066:31.975732 71538:63.951464 71696:15.874325 71832:63.951464 72524:4.0719596 73099:63.951464 73149:63.951464 73150:60.707743 73275:255.80586 73276:191.85439 73277:47.963598 73295:63.951464 73302:63.951464 73312:58.406286 73315:63.951464 73705:63.951464 74493:47.963598 75029:47.963598 75254:47.315931 75663:6.4898556 75799:47.963598 75956:63.951464 75981:47.963598 76172:159.87866 77037:31.856271 78321:47.963598 78483:47.963598 78484:47.963598 79303:12.215879 79713:13.189862 79844:137.82339 80418:5.4682043 80465:63.951464 81769:4.369592 82600:7.5884679 82957:63.951464 83105:175.86653 83135:169.86341 83864:23.875286 83882:63.951464 84164:43.303713 84668:7.1501847 84898:23.981799 85937:6.5618793 86115:7.3007858 86184:22.018802 86458:8.1839206 86591:191.85439 86716:10.639569 87394:20.302651 87448:15.987866 87487:12.495875 87689:7.4766405 87949:23.415467 88012:413.77392 88154:8.5607218 88196:63.951464 88208:63.951464 88236:47.963598 89020:5.8003655 89350:63.430593 89364:26.246291 89367:24.488523 89417:21.902357 89935:47.963598 90141:10.730194 90601:14.652799 90822:63.951464 90940:161.36595 91374:4.6980961 91978:4.0331198 92076:36.731333 92208:6.6076386 92804:63.951464 92945:63.951464 94347:3.0776084 94406:16.332726 94560:18.438171 94712:277.52082 94924:4.1123692 95116:6.7976263 95394:42.465853 95397:127.90293 95414:63.951464 95522:63.951464 95551:63.951464 95612:72.553988 95889:15.987866 95979:5.8538668 96016:111.91506 96268:63.951464 96269:63.951464 96270:191.85439 96271:47.963598 96272:47.963598 96273:63.951464 96275:47.963598 97594:6.8953207 97688:3.4453331 97896:35.280389 97986:4.7167882 
-4.6851225474259397e-05 4.722146435623085e-05 0 0.00015922879681790536 0 3.6779699546119878e-05 1.035663787582907e-05 3.9917591834594403e-06 0 0 0 9.6999744646856991e-05 0 0 0 0 6.0262660640927502e-05 0.00012453501293658897 0 0 0 0 0 0.00020681246044400973 8.4677628927297817e-05 0 0 0 2:8.5089602 12:1.2475208 13:6.6699912 14:5.4009781 15:6.4414694 18:22.456834 19:3.7887446 20:22.384351 3931:10.809423 4474:10.549788 6505:5.4833191 6559:2.0511336 7590:2.8121494 8346:3.2490008 10499:5.4682043 11434:6.8696135 11846:14.325171 12879:18.867555 19391:7.993933 26197:23.981799 30325:3.7598265 41780:7.3007858 42342:8.1782244 43853:12.979711 43854:7.0218608 47950:1.9999715 62629:8.332994 63435:7.993933 63631:3.8836876 70407:7.0776422 84932:6.0480228 86574:7.993933 89364:7.4989402 89379:4.2562634 89464:4.1332033 90141:1.7883656 94285:2.5536821 94671:2.9899867 95211:5.5960377 
-0 0 0 0 0 0 0 0 0 0 7.2682168226200026e-05 0 0 0 0 0 0 0 0 0 0.00012828683254333836 0 0 0 0 0 0 0 1:3.888399 2:17.01792 3:1.8605349 4:2.4886014 7:36.570302 8:18.476725 9:18.459384 12:26.197938 13:8.0039894 14:12.962347 15:68.279576 16:13.360374 18:25.825359 19:11.366234 20:26.861221 23:1.6439202 25:1.644794 3930:24.533434 7083:11.481803 11434:6.8696135 16851:5.0433246 17263:4.6095427 17610:5.6425577 17829:28.771559 17843:8.5568083 23869:10.782487 23935:15.278183 26030:5.6913479 31511:14.150365 32217:12.646974 42883:8.1439193 43854:10.532791 43978:5.7820448 44539:5.34673 49392:4.679747 49882:8.2875707 53015:7.6237657 53787:21.900765 59788:6.8554889 60456:4.7947292 60864:29.906562 62629:2.3808554 66622:4.1762206 67148:3.1940187 77587:5.5090263 77613:50.364339 77628:5.6913479 79157:22.515637 84668:7.1501847 88154:4.2803609 89020:2.9001828 89501:6.1970235 90141:14.306925 92076:2.4487555 93409:15.176936 94406:6.5330903 95808:7.4625062 96110:11.593417 96541:26.96468 100784:12.82801 100786:12.82801 
-0.00012627235600080422 0.00024778792160805925 0.00023020373896770436 0.00024199541566609397 0.0001496148147847985 0.00062740855297129818 0.00017430586374848789 0.00011511336470804354 0.00022481272283997488 0.00015451754464135606 0.00010466310448756671 0.0004471420262172341 0.00022687338031565879 8.7253299743225899e-05 0.00021946880370820343 0.0004129377213368448 0.00047261620729876857 8.8976361582135472e-05 0.00024949065399204411 0.00021145948554169474 0.00034027153505814857 0.00035363219910466802 0.00048501705182011652 4.1698575124705621e-06 0 0.00036741736024397916 0.000211639812046946 2.5664098353105415e-05 1:1.9441995 2:5.6726401 6:2.2736212 7:32.913272 8:11.086035 9:11.07563 11:6.3612232 12:14.97025 13:2.6679965 14:17.28313 15:11.594645 16:7.2874765 17:7.5886507 18:10.105575 19:15.154978 20:10.072958 21:6.4208842 23:8.2196012 25:8.2239699 8323:4.3432747 16851:5.0433246 20459:8.2328423 23775:3.8350499 24001:10.442689 24237:4.1984438 27924:3.5994838 28951:8.2965052 32743:2.5112129 41517:13.48234 42118:21.902357 43854:3.5109304 43978:5.7820448 44243:5.4521496 44539:5.34673 44850:11.95806 49266:16.930931 49882:8.2875707 51639:25.550893 60456:2.3973646 61569:3.4348067 61727:11.95806 62244:5.5090263 62629:3.5712832 72386:4.2327329 78229:7.1478941 79157:11.257819 84668:7.1501847 85009:3.3689602 86184:3.6698003 91611:2.2868227 95155:2.8262939 96639:14.348855 97762:4.3563468 98692:7.4625062 100784:2.5656021 100785:4.805892 100786:2.5656021 
-5.2907885056330152e-05 0 0 0 0 7.3952061910631819e-06 0 0 0 0 4.0855013744787021e-05 3.4246324841192523e-05 0 2.9689261033362145e-05 1.8347941370715221e-05 0 2.3510155569452726e-05 0 0 0 2.6418817635765301e-06 0 1.0514343939674058e-06 0 0 0 0 1.1771363262172453e-05 1:1.9441995 2:42.544801 3:3.7210699 5:8.378032 7:62.169514 8:92.383625 9:92.29692 10:21.280114 11:21.204077 12:63.623563 13:32.015958 14:136.10465 15:74.721045 16:25.506168 17:133.56025 18:122.38974 19:84.615297 20:119.75628 21:2.1402947 23:27.946644 25:27.961498 26:3.4453331 2070:6.2891849 2557:23.981799 3931:16.214134 4113:4.6440289 4309:5.0761622 4760:5.8126733 5670:3.5109304 6026:4.3830151 6311:23.490481 6327:39.969665 6559:4.1022672 6672:20.22351 7304:5.4289836 7659:5.5515859 7710:4.9982007 7726:3.4996943 7777:5.7426412 8027:6.74117 8526:9.5905197 8550:4.4675725 9463:11.203904 9532:11.774719 10191:2.3484861 11210:15.987866 11434:17.174034 12302:4.3966207 12365:3.4996943 12439:5.1905726 13258:51.683771 13772:5.4289836 14191:4.1437854 14531:4.0236411 14808:4.4675725 16065:11.382696 16729:7.3932951 16851:2.5216623 16863:6.0480228 17829:4.7952599 18059:3.3399726 18301:37.001179 18900:4.8369326 18927:6.1406181 19370:4.6617285 19825:7.0776422 20173:4.5126929 22835:4.2562634 23775:3.8350499 23871:23.415467 23935:7.6390914 24237:20.992219 24283:3.7383203 24374:4.1762206 26443:4.1332033 28238:4.5439454 29180:2.5258728 29194:4.679747 29251:6.0480228 29861:5.5515859 31202:15.499583 31480:4.1762206 31566:5.5881195 32023:5.5960377 32032:15.987866 32370:7.5884679 32743:15.067277 33378:3.9508817 33544:6.2021735 36040:5.7967084 36095:3.3495421 42883:8.1439193 43008:3.5337886 43202:4.3966207 43296:7.0776422 43781:4.2097433 43854:14.043722 43978:2.8910224 44243:10.904299 44539:8.020095 44813:3.6257633 45121:13.48234 45530:5.7044775 45923:7.0908332 46021:7.2616687 47059:12.404347 47950:3.9999431 48979:2.5428945 49839:33.576226 49882:20.718927 50466:6.74117 50490:31.975732 51745:4.369592 52420:3.4885831 53452:7.9371626 53787:3.6501276 54152:6.1221308 54957:6.7875507 55060:3.5690863 55285:7.993933 55481:4.2682395 55981:4.8584388 56071:5.7967084 56901:8.3968876 57407:5.1035612 59226:5.4289836 59788:2.285163 60208:42.465853 60296:31.975732 60456:52.742021 61270:5.4316366 61625:7.5884679 61749:2.2509298 62629:92.853362 63083:6.74117 63110:6.4898556 63130:6.8953207 63248:4.9028905 63271:11.933191 63631:3.8836876 65609:4.6440289 65909:4.8369326 66225:4.1437854 66983:39.969665 70229:4.8804177 70245:31.46792 70259:48.384183 70384:24.192091 72524:8.1439193 72539:4.8804177 72627:7.3007858 73426:9.7863904 73558:13.402717 75069:4.7167882 75643:4.8158791 75671:42.854916 76309:5.1035612 76680:1.8139163 78426:7.0776422 78749:6.8953207 78761:8.610107 78848:31.445924 79157:45.031275 79303:4.0719596 80167:7.993933 80359:6.2891849 80744:2.757491 82155:21.232927 83430:15.176936 83994:7.0776422 84549:14.155284 84643:5.5090263 84668:10.725277 86184:7.3396006 87350:2.6003054 87552:4.92588 87609:5.253093 87689:3.7383203 89010:18.867555 89020:2.9001828 89233:5.5960377 89247:13.48234 89364:24.371556 89594:20.304649 89781:3.3164421 89975:6.6422083 90141:3.5767312 91313:5.0761622 91374:4.6980961 91611:4.5736454 91701:15.759279 91880:5.253093 92076:4.8975111 92154:6.74117 93159:12.404347 93173:7.5884679 93642:6.7976263 94285:2.5536821 94406:3.2665452 94725:3.5222942 95052:5.0729548 95155:62.178467 95225:14.155284 95351:9.7608353 95601:6.8953207 95608:15.987866 95808:7.4625062 95867:5.3197843 96221:5.6186887 96800:4.4974254 96879:3.7034735 97129:6.3153021 97239:23.981799 97443:4.8369326 97616:4.4385849 97688:13.781333 97732:2.9899867 97762:43.563468 97896:4.7040518 98752:31.876739 99515:3.2980084 99890:3.3640702 100120:7.6390914 100552:11.103172 100784:21.807618 100786:21.807618 
-0.00010017768249805228 0 0 0 0 0 0 0 0 0 3.5528093011553987e-05 0 0 0 0 0 0 0 0 0 0 0 8.4468950319026615e-05 0 0 0 0 1.6612165385398345e-05 1:1.9441995 2:14.1816 3:5.5816048 7:36.570302 8:12.317817 9:12.306256 12:3.7425625 13:16.007979 14:29.165282 15:32.207347 16:19.433271 17:30.354603 18:33.68525 19:11.366234 20:34.695744 22:2.1331468 3931:1.8015705 4113:4.6440289 6505:5.4833191 7851:2.3327101 9496:13.584591 9532:7.8498124 12663:3.1940187 15743:8.8281424 18777:15.310684 19656:4.221172 19687:7.993933 22568:6.5508682 22809:3.93349 23935:42.015003 24235:4.6440289 24237:4.1984438 25992:3.4089655 26203:32.508202 26886:5.5960377 28092:41.285757 29012:6.1221308 29194:9.3594939 31480:25.057324 31505:5.5515859 31566:1.8627065 32743:5.0224258 41785:5.253093 42396:12.096046 42545:3.2274946 43008:14.135154 43854:3.5109304 43913:3.0776084 44539:5.34673 45941:3.7383203 47950:3.9999431 49882:8.2875707 52332:6.955188 52427:7.0776422 53452:3.9685813 55481:4.2682395 61270:2.7158183 61749:2.2509298 62629:15.47556 63631:3.8836876 64372:9.9493264 64508:6.4898556 65212:4.6412194 65312:3.0849613 70245:3.93349 72524:20.359798 74517:4.6266371 75104:4.6617285 76430:9.2190854 76680:1.8139163 79157:15.010425 82519:3.073952 83183:6.0002096 84668:7.1501847 86184:7.3396006 87168:6.8953207 87169:7.3007858 88346:11.973392 89358:2.5493531 89364:7.4989402 90141:3.5767312 90601:7.3263993 91367:5.8538668 91611:2.2868227 91783:6.6076386 91978:12.099359 93234:14.265764 94187:3.4667243 94285:2.5536821 95116:3.3988131 96639:3.5872137 96674:4.6440289 97583:3.0960932 97688:10.335999 97762:8.7126936 98752:5.3127898 100784:14.110811 100786:14.110811 
