svm_type c_svc
kernel_type linear
nr_class 28
total_sv 1323
rho -0.74053935010381355 -0.16468241516936075 -0.58556209081379895 -0.096460017292968533 0.7007822000621855 0.7090526716178136 -0.59779793077368104 -0.19690588639385312 0.12257119011419634 -0.27118234447940887 -0.14242355961911055 -0.85131272052878282 -0.32381148890645162 0.40806592542451137 -0.54176531569356134 -0.32612125057548141 0.093489570858954513 0.46024843309349661 -0.75854070290178166 0.06526929995060797 -0.053077592579920521 -0.28548474017475689 -0.6010633932145667 -0.49381991384182244 -0.58090351753300795 -0.93654885194383819 -0.52664778095187226 0.5993941625610314 0.2792555537056578 0.55587840241879694 0.92197359502110265 0.94079471954623772 0.32321215645168366 0.68068801267642653 0.75537883243536397 0.7070113367394858 0.68511567820720898 -0.49152156390026042 0.63107592096145182 0.90140001148316828 0.41208549312474191 0.63438390496915154 0.808475328847714 0.92562812420119855 0.068776945653892446 0.82745451499099953 0.72543057039142023 0.43666595451109624 0.16072476754943685 0.38104840819917035 0.36828380495269325 -0.5537746693605321 0.3727486615380306 -0.27531090247607815 0.14630014575973024 0.815151670768682 0.91784762062032166 -0.40721508882938823 0.082215557132296294 0.32547125884634309 0.025767528679174204 0.16573497458930286 -0.91628609581453657 -0.13670205752742859 0.705020304156045 -0.34577706068157577 -0.085679112599378118 0.33974237675323282 0.60323318877653964 -0.68855860900494292 0.3436709513150572 0.087641499828192193 -0.16296427232515079 -0.50425779011581573 -0.40156049845028041 -0.41443492878783428 -0.90760829469183613 -0.36542136083924076 0.44397202845577022 0.85092354584547958 0.90236449905606864 -0.049315425127439229 0.40348084743510032 0.52059918316362908 0.38919811422982864 0.48880310168178986 -0.65393338615720686 0.44436260009950351 0.80268241144798291 0.0098455505363645238 0.29518828650847045 0.59154533099167916 0.79906735978093912 -0.32966798038751233 0.64506937134451192 0.5970838633105241 0.15812242069906285 -0.040568524375599255 0.047866154592545056 -0.13167816893718906 -0.77920029323844153 0.04369601384606478 0.85853180355705649 0.90833055173124133 -0.50419439835542712 -0.11442597353016737 0.18865796585824515 -0.058589057599566868 0.026935296776875214 -0.79458771120287719 -0.20997803760966136 0.56289980008179075 -0.44995848965067009 -0.26143190889803652 0.3026208403652384 0.53988952488394881 -0.7832960556079821 0.17296475310993178 -0.0077023261560379619 -0.29989285642317964 -0.53388432695273469 -0.46442667634935009 -0.43211844875235284 -0.90104580927963474 -0.44117053741086892 -0.035067831975399213 -1.0071474205335906 -0.89282215505985352 -0.65946106667349003 -0.80734147351440921 -0.77041750702406553 -0.99801756784350337 -0.80610637816924635 -0.91081535964065008 -1.1009786797980299 -0.84344366815636085 -0.72335474942313382 -0.60690766504273885 -1.0381993259715565 -0.82302033942328623 -0.71499999351424481 -0.85006870119545863 -0.87679388036906336 -1.0426145476259032 -0.91630984472739541 -0.97980494572342924 -0.9515542694216802 -1.0386594196940964 -0.76755248845581092 -0.79577539167456401 -0.77552870777624483 -0.82986987419777747 -1.0334970140509807 -0.88390319200574119 -0.92476220786841945 -1.212371753218584 -0.80854830340513462 -0.83970242832406738 -0.66857860859204843 -1.0841986261313599 -0.69470618232994352 -0.77978721354711933 -0.71746651426954167 -0.93240019527966478 -1.0526899539876406 -0.89605717973855004 -0.99077568289534212 -0.95878225222120195 0.41122983191672019 0.57213127196466884 0.47975019575462324 0.52654314330383845 -0.61333159958301253 0.32498506346124978 0.9057610350555716 0.10602100729903063 0.31052333640732377 0.63976243949957867 0.78819323797992269 -0.2375839563051243 0.65659544861207841 0.49939110426872868 0.10736567780572046 -0.12233503158051308 0.051707671011292332 -0.074224659317492878 -0.73424975482126498 0.090976028104163775 0.3598968717503539 -0.044655667639899213 0.19175749925225571 -0.89743537965213305 -0.22294339127216017 0.59136985526660146 -0.17743111884306698 -0.13508165131957589 0.28099569943184588 0.58357546578024733 -0.64726246662047893 0.21526018084949777 0.1269926260480696 -0.48081421605918701 -0.52720450113819461 -0.3868020420276142 -0.42182253442447587 -0.91529054030570967 -0.38611378792182571 -0.30404533850819587 -0.28358090842630795 -0.87997368516233176 -0.29348615456882859 0.35871299520897082 -0.36738610068091843 -0.45009274233190844 -0.41659312767872658 0.31681982918455376 -0.72278614692917398 0.0091190013237982502 -0.092203459573086941 -0.39492990674586315 -0.60124087695919426 -0.60531986369309798 -0.6894651809101161 -0.9439216139140596 -0.6389833196308452 0.14543518900103936 -0.83588839649640823 -0.17640045510493971 0.60535585872372988 -0.45793801839396658 -0.10776087919945132 0.28290183760982318 0.61493570685442256 -0.67787477002558283 0.36612250937365798 0.20372851539055503 -0.4099135289888664 -0.49038857806549896 -0.43822379301660824 -0.45179510038574694 -0.9216053643168689 -0.37795056231737134 -0.86506074960405066 -0.24201259271314371 0.60687377734501435 -0.42460965498540248 -0.30703190579911904 0.20099933714870116 0.49612234723695431 -0.74788349289951195 0.2101747064291912 0.067220069247896627 -0.29941030088951154 -0.60258217915670298 -0.41538941664857831 -0.43352156591993624 -0.93410863262697619 -0.44699275002397437 0.85985957828115167 1.0299032792671294 0.76582580715325244 0.83233031375349642 0.90017501362713637 0.95067021096573245 0.41699512298307945 0.94142411209589949 0.8879912630948491 0.76760492635562205 0.69760446965278655 0.70599829903702827 0.60487997718338793 -0.27771624269752609 0.62319072408323029 0.72218141359925092 -0.41104076296117542 0.032046908990444607 0.45862899793621609 0.64462125579037932 -0.58778699615729546 0.49767753840694073 0.22775011385999466 -0.1486416410423067 -0.58330020857916753 -0.41032060615825072 -0.47390778260255528 -0.91891639563285921 -0.27008756240917292 -1.0071070591664737 -0.64616937947553421 -0.50120834317808449 -0.061200209108656603 -1.0422380628738588 -0.35510711830400582 -0.54064261771871658 -0.78297515669293627 -0.92042496011165198 -0.96401681538819295 -0.8036753709245581 -0.99630593723266481 -0.8272878353934201 0.15296604500837135 0.17389822378496478 0.68350834441684705 -0.54882393078502012 0.45504462384944516 0.21930348396661295 0.013578504563079864 -0.37288446244839685 -0.37896653181961576 -0.17299636245958994 -0.78891050982247091 0.026469886543876796 0.35691953350301031 0.71929355522379756 -0.50490129174117715 0.4481415401347375 0.30396165907007472 -0.24889797052830581 -0.40430903232439169 -0.27077727159732323 -0.24856475869565872 -0.88742948434650504 -0.2941101999314133 0.35050609905301222 -0.78411151133954293 0.11269832634783548 -0.14506986352205908 -0.47301683649762416 -0.77151242733534886 -0.42406450229372677 -0.63661677821028062 -0.95872513070892373 -0.64027079446319746 -0.87957365025389189 -0.35671606673091505 -0.49394149249185421 -0.67297663095158133 -0.81276669808923518 -0.79843110933461214 -0.80036570742010571 -0.97549588612447347 -0.79287577872521353 0.82085584126808497 0.66906885384814241 0.35065857778040582 0.13045527377451113 0.23212667957125729 0.24669736094423284 -0.56292568037502155 0.4254880468180906 -0.18109763203649507 -0.67631118374242405 -0.74027943870282609 -0.66304136639774869 -0.63605257407028959 -0.96519003709194717 -0.62261513632330656 -0.1374391608942466 -0.6263133469365687 -0.4543719154390477 -0.55793213087417548 -0.93073382882089084 -0.48266804230210786 -0.30280701589753789 -0.059487026595748831 -0.17851675829686611 -0.78928605129220153 -0.14247667868511479 0.15757505275683042 0.075923906225698265 -0.80802432721791373 0.11926648285080393 -0.025192862143183514 -0.76506809010717181 -0.034428691682256839 -0.76574523201508371 0.079161691707844775 0.80696668735514165
label 7 6 0 9 15 17 4 8 21 26 3 18 1 22 23 11 19 10 25 27 5 12 24 2 13 16 14 20
nr_sv 64 15 70 44 57 44 64 28 54 65 29 60 49 41 72 18 47 57 105 28 59 54 46 40 42 23 7 41
SV
0 0 0 0 0 0 0 0 0 0 0 0 0 0 0 0 0 0 3.5873800730811864e-05 0 0 0 0 0 0 0 0 2:137.39944 8:1.1947056 9:1.1941217 10:8.6518495 11:39.610559 12:40.205464 13:7.8308478 14:22.409224 15:83.439908 16:70.487631 18:26.579989 19:9.7707383 20:26.503025 23:6.391348 25:6.3983471 2527:7.946976 3926:175.35442 3927:3.5318494 5365:7.946976 5756:3.5587188 6290:9.3022783 6949:3.4984596 7000:19.328696 7019:10.924139 7210:3.5281354 9528:7.946976 9768:13.947326 11436:2.9035509 12771:6.5832101 18411:14.517952 21569:13.121363 22667:3.886533 25818:3.3620085 26279:7.946976 28508:3.2195882 33110:16.647242 33128:7.5415109 33160:3.9039247 33227:5.8069098 44282:5.26262 45142:3.1511854 45153:2.2104037 45260:1.8602013 45993:7.6076825 46811:2.4057124 46942:10.842495 47393:13.901349 47580:11.391368 47673:5.8891191 48764:4.1292637 49632:102.19134 49933:26.682666 51113:29.015315 51120:15.083022 51725:3.5341777 52784:5.9682627 53394:7.7052629 55005:3.4416261 56550:4.1514868 56557:8.9314718 56587:32.803408 59051:7.5415109 59402:11.19103 62234:28.256016 62872:5.8793592 62927:4.4657359 63231:3.796845 63803:170.57772 63831:2.4255151 64456:6.0751738 64729:47.548986 64797:4.5541901 65307:3.7348484 65707:2.7185448 68618:11.288782 69094:15.087616 70649:7.5415109 72712:7.946976 73098:7.946976 73101:7.946976 75607:3.0528745 75853:7.946976 76933:7.9533682 77522:9.0915572 77702:16.439878 79814:6.5606816 80005:7.946976 82859:15.083022 83272:3.0197223 83675:4.8789231 84604:3.3569194 84763:11.116948 85365:27.82437 85520:16.965496 85787:7.2538288 86951:9.3777589 88681:106.11787 88771:1.8321882 89542:1.7474815 91004:8.9594629 91465:14.410791 93170:4.7483029 94262:11.640094 96962:3.1805377 97904:3.4810679 100122:6.1792203 100124:6.1792203 
0 0 0 0 0 0 0 0 0 0 0 0 0 0 0 1.0029142062662515e-06 0 0 0 0 0 2.098663336520547e-06 0 0 0 0 2.1425449765586154e-07 1:108.81899 2:197.85519 3:9.1554193 5:345.29842 6:55.83108 8:436.06755 9:435.85441 10:55.371837 11:104.23831 12:587.24344 13:1.3051413 14:644.53197 15:42.984195 16:270.00347 17:10.306198 18:86.384965 19:289.45812 20:94.969173 23:276.4258 25:276.72851 27:40.858817 4466:3.4696392 4751:5.7187593 5756:3.5587188 7147:84.91348 7210:3.5281354 8206:26.242727 8208:7.2538288 8216:190.72742 8226:15.893952 8468:43.056213 8484:28.489817 8527:12.675076 9091:4.075775 10959:7.946976 10960:7.946976 10961:7.946976 10962:15.893952 10963:7.946976 10964:7.946976 11194:258.73881 11436:5.8071018 12287:6.9054747 12771:37.304857 16072:11.191201 16085:31.787904 16087:30.166044 16755:2.5002386 16767:6.0010658 16916:261.91959 16966:6.3375381 17359:334.44946 17369:83.065887 17445:47.681856 18057:35.71219 18086:29.548978 18576:13.657506 18814:12.10798 19691:30.175232 20619:35.715096 20961:25.04529 22613:13.397208 23748:4.4969884 26013:4.8350938 26200:3.5402567 27146:663.05187 27273:63.215016 27411:123.27055 28126:4.4206155 28913:119.01883 28986:7.4367476 29763:8.1308244 30034:15.615699 30319:49.553523 31135:39.031384 31359:49.261046 31707:30.18071 32009:8.265772 32519:63.398328 35877:3.3074044 42644:202.54993 43107:20.955703 43407:8.5161931 43418:15.893952 43665:48.60807 44282:10.52524 44554:150.27958 45153:2.2104037 45260:3.7204025 45494:77.164156 45652:6.9969192 46616:174.09189 46762:15.893952 46800:143.04557 46811:31.274262 46935:14.161027 47178:8.2585273 47673:1.9630397 50317:6.0613028 51725:3.5341777 52094:45.935266 52211:452.49065 53565:7.946976 54728:31.699164 54852:5.504629 55005:44.74114 55121:63.575808 56557:218.82106 57698:18.318721 59967:4.075775 60477:3.6984808 60708:273.57207 61356:19.864648 62234:89.477385 62849:14.567801 62872:17.638078 62962:14.061371 63660:57.207448 64432:3.8038413 64725:8.1308244 64797:9.1083803 65707:2.7185448 66117:115.00935 69311:7.5415109 71222:11.764873 72658:24.150016 73096:74.549366 75382:285.14461 75412:233.89823 75465:21.377145 75607:3.0528745 75927:214.21482 76047:45.51472 76161:106.01756 76503:656.03288 77255:5.1436156 77702:110.38204 78011:4.2580965 78760:20.125013 83272:3.0197223 83466:3.1186623 84100:21.168812 85365:53.508403 85885:8.0900066 85984:31.787904 85988:30.741396 85994:39.73488 86077:3.749774 88771:1.8321882 89542:6.9899261 91004:6.7195972 92070:21.096955 92343:4.5796802 93029:6.7138389 94116:42.470996 94262:226.98182 94540:2.7793369 97904:3.4810679 98464:15.893952 100122:196.4992 100123:4.7269594 100124:196.4992 
0 0 1.170941609051446e-05 0 0 0 0 0 0 0 7.3927013064947992e-06 0 2.0618011375813572e-05 0 0 0 0 0 0 0 0 0 2.2274152990022547e-05 5.8859500560014858e-06 0 0 0 1:19.091051 2:46.715809 5:5.5247748 6:31.265405 8:149.3382 9:149.26521 10:51.911097 11:39.610559 12:48.733895 13:2.6102826 14:188.87775 15:25.28482 16:32.257052 17:16.195454 18:74.20247 19:79.387249 20:73.987612 23:33.554577 24:10.070521 25:33.591322 27:5.4478422 6332:3.9396428 9416:11.016077 10138:2.3086213 11436:11.614204 12268:30.166044 12815:9.0915572 13581:16.709029 14134:7.946976 14841:13.530511 15999:11.791779 17741:2.8053124 18576:27.315012 18666:5.0566042 19777:30.776083 20335:5.415756 21590:2.7158674 21776:5.206136 21862:11.61382 23230:41.860252 23333:4.245674 23350:7.946976 26013:4.8350938 27146:70.011688 27273:5.4969579 27905:5.206136 28757:19.086341 28974:11.864146 28980:7.946976 28986:7.4367476 29119:74.268656 29857:27.8219 29892:79.46976 29958:11.864146 29966:71.174376 31135:14.636769 31359:18.244832 32519:77.486846 41159:12.075008 43462:28.748757 43478:4.3774433 43991:59.054288 44554:38.895892 45153:2.2104037 45749:3.5838774 46811:12.028562 47393:3.4753372 47483:13.388426 47673:1.9630397 50217:4.63279 52013:6.872233 52094:7.6558776 52581:3.8443326 53461:21.619023 53517:4.8559335 54728:3.5221294 55000:4.5292493 55357:7.6886653 58683:27.266337 58849:38.657392 59031:7.946976 60708:50.661495 61592:18.862944 62234:71.817375 63693:4.7899756 64106:3.0832951 65036:70.039093 65543:7.946976 65707:2.7185448 66212:29.300431 66713:12.588247 69482:8.5413506 73096:7.4549366 74261:24.004263 74307:17.087053 76161:14.135675 76991:15.893952 77702:9.3942161 79520:237.32294 79809:6.2422279 81962:3.0269951 84596:11.61382 85238:12.675076 85365:6.4210084 85441:8.9009369 85520:6.7861982 86421:3.930593 86515:5.0847751 86775:12.928419 86910:4.1183346 88826:3.138865 88908:2.02005 89185:55.740127 89542:3.4949631 91004:4.4797315 91465:4.8035971 92070:66.807025 94540:2.7793369 96492:3.1146702 96942:3.0491362 97814:25.13187 100122:72.914799 100123:18.907837 100124:72.914799 
0 0 0 5.4172730174791272e-06 0 0 0 0 0 0 0 0 3.0281780039158083e-05 0 0 0 8.7594586253382091e-05 0 0 0 0 2.9631537600195244e-05 0 0 0 0 0 1:5.7273152 2:21.98391 8:40.619991 9:40.600137 12:14.620169 14:36.281601 15:18.963615 16:2.3894112 17:5.889256 19:19.541477 9829:30.166044 11774:4.7483029 16755:10.000954 20335:5.415756 24080:8.3029736 25089:8.3551538 25905:19.682045 25909:12.850243 26013:12.087735 27146:70.011688 27273:21.987832 32519:24.654906 35877:13.229618 42104:34.963248 42580:47.681856 43284:31.787904 43629:7.946976 43632:39.73488 43637:14.061371 44554:12.375965 45153:2.2104037 46935:7.0805135 49597:28.677799 60708:6.754866 62849:24.279668 65707:2.7185448 76161:10.601756 82526:13.388426 85520:6.7861982 86515:10.16955 86653:6.8483637 91465:4.8035971 94262:5.8200468 94540:27.793369 100122:27.188569 100123:4.7269594 100124:27.188569 
0 3.2878290839782141e-05 9.4142000430144206e-06 0 0 0 0 3.7866705388981797e-05 0 0 0 0 0 0 0 0 0 0 0 0 0 3.0909135278540491e-05 0 0 0 1.4096554396481194e-05 0 1:5.7273152 2:24.731899 5:5.5247748 6:2.2332432 8:23.894112 9:23.882433 10:22.494809 12:15.838516 13:7.8308478 14:58.690825 15:80.911426 16:10.752351 17:1.472314 18:1.1074996 19:13.434765 20:1.1042927 5706:26.364137 6949:13.993838 10958:43.522973 11194:17.249254 11495:45.249065 11906:6.8483637 12287:6.9054747 12771:2.1944034 15276:34.841459 16755:15.001432 16916:15.183744 17395:84.926699 17408:17.701284 23244:14.244909 27146:45.301681 27273:10.993916 28913:7.9345887 29044:11.009258 32519:14.088517 35877:19.844426 42196:16.561254 43665:3.0380044 43737:21.761486 44554:7.0719803 45153:2.2104037 45749:7.1677547 46039:4.8559335 52874:5.3442863 60708:20.264598 62234:1.177334 62872:2.9396796 65707:2.7185448 68893:5.6956842 69094:30.175232 75848:13.44372 76161:12.368715 77702:28.182648 77872:3.6913633 78011:4.2580965 79992:63.366961 84100:21.168812 84440:3.3220032 85520:3.3930991 88771:1.8321882 91465:2.4017985 91595:10.86853 93014:3.6031706 94262:5.8200468 94540:2.7793369 100122:12.358441 100123:4.7269594 100124:12.358441 
0 0 0 0 0 0 0.00025772397800738868 6.7586756645712136e-05 0 6.1030716352959116e-06 0.00020446750560428032 0 0 6.3008043570021374e-05 0.00018117494103803771 2.9415318199981205e-05 0.00033203311376075328 0.00021903633210047183 0.00029381771646793645 0 0 0 0 0.00036455972414065838 0 0 0 1:11.45463 2:38.471843 5:11.04955 7:3.5673224 8:31.062346 9:31.047164 10:3.4607398 11:6.2542988 12:8.5284317 13:5.2205652 14:21.342118 15:13.906651 16:19.11529 18:54.267478 19:56.181745 20:58.527514 26:3.3983762 3926:6.0467042 3927:5.297774 6535:16.075518 9416:5.5080383 11436:2.9035509 16755:5.0004772 16857:4.3226351 18594:21.528107 20999:15.893952 24216:4.1292637 25089:5.5701025 26450:2.658709 27146:28.828342 27273:8.2454369 28061:5.3820266 28913:3.9672943 31135:19.515692 31359:1.8244832 32519:7.0442587 35877:6.6148088 41312:5.4620693 44554:12.375965 45153:2.2104037 46766:4.1627864 52094:3.8279388 59402:8.9528239 60708:10.132299 61356:13.243098 62234:54.157365 62278:6.1743272 63231:1.8984225 65707:2.7185448 69094:10.058411 71003:14.507658 73096:3.7274683 76160:7.5415109 76161:12.368715 77702:7.0456621 85365:4.2806723 85441:8.9009369 87756:8.8492912 88059:7.2538288 88072:7.946976 88087:7.946976 88097:7.946976 88137:7.946976 88139:7.946976 88140:7.946976 88181:7.946976 88203:7.946976 88204:7.946976 88209:7.946976 88341:7.946976 88344:7.946976 88826:3.138865 91004:2.2398657 94262:23.280187 94437:9.9580816 94540:5.5586739 95483:28.748757 99207:15.893952 99462:3.7803108 100122:11.122596 100124:11.122596 
0 4.373984858586546e-09 0 0 0 0 0 0 0 0 0 1.7029720030863886e-07 0 0 0 0 0 -0 0 0 0 1.4402466119124906e-07 0 0 0 0 0 1:80.182413 2:4333.5783 5:2.7623874 6:862.03187 7:913.23453 8:2944.9493 9:2943.5099 10:3215.0273 11:25.017195 12:1173.2685 13:1015.3999 14:4921.4925 15:13395.898 16:1978.4325 17:7.3615699 18:1074.2746 19:1338.5911 20:1063.4339 23:198.13179 25:198.34876 27:326.87053 3926:2509.3822 3927:981.85412 4061:244.83015 4082:707.87558 4105:9.1941438 4254:6.8483637 4297:13.121363 4304:286.79937 4331:12.002132 4393:7.2538288 4459:6.1552165 4466:13.878557 4751:14.296898 4949:18.183114 5020:209.89904 5022:174.76836 5176:4.9024536 5661:170.01232 5917:126.55233 5926:94.299775 6051:39.543542 6177:81.429585 6223:39.812492 6322:74.853213 6332:795.80785 6385:1223.4767 6436:34.165403 6481:496.30758 6535:594.79418 6834:29.397693 6949:3.4984596 7210:201.10372 7216:530.37092 7258:51.137626 7273:32.29216 7348:16.14608 7503:11.009258 7523:16.032859 7556:171.61633 7690:6.9054747 7795:72.538288 7814:251.62432 7905:28.122741 8100:233.89823 8195:13.696727 8196:135.70074 8305:64.391763 8456:19.682045 8803:6.8483637 8981:68.34821 8982:4.9512437 9033:15.083022 9091:8.15155 9230:1661.8934 9254:603.97018 9264:913.90224 9449:17.92496 9624:203.62079 9625:7.946976 9631:15.893952 9805:4.1627864 10138:500.97083 10188:8.1724926 10213:27.145645 10224:24.571571 10286:6.8483637 10295:9.8049071 10301:39.36409 10312:8.5413506 10339:19.682045 10341:6.0751738 11218:216.03186 11436:162.59885 11449:34.984596 11623:28.828342 12192:31.211139 12201:7.2538288 12429:5.3820266 12476:36.269144 12584:53.500049 12771:54.860084 12872:640.03066 13068:421.02059 13126:45.509438 13212:101.06427 13302:319.16847 13357:37.262822 13591:4.8334607 13687:40.648369 14443:35.790157 14462:14.434445 14687:9.6669214 14699:5.2728273 15838:5.6443909 15867:313.89098 15973:5.6443909 16334:18.339761 16359:1485.6776 16387:11.499503 16718:8.5161931 16755:502.54796 16771:6.0751738 16857:17.29054 16880:15.007611 17106:28.868891 17109:10.924139 17120:13.121363 17142:301.98509 17236:6.8483637 17475:392.28005 17479:73.862598 17490:11.191201 17628:4.034953 17658:11.288782 17717:22.382403 17741:176.73468 17794:11.61382 17852:108.01919 17870:4.4969884 17874:10.924139 17940:18.993211 17942:14.709114 18057:607.10722 18071:288.66999 18086:16.88513 18247:5.6443909 18472:4.3774433 18493:35.39623 18494:17.602603 18571:12.700212 18814:148.32276 18983:61.143867 19273:5.4212473 19691:442.57006 19858:17.376686 19946:27.688629 20050:343.86166 20619:38.266174 21590:19.011072 21793:3.8361021 21802:4.1514868 21971:23.844611 22222:22.577564 22228:85.288861 22232:2287.9225 22282:203.10721 22359:7.5415109 22360:71.522784 22401:21.092056 22426:6.8483637 22429:19.370863 22604:230.8566 22613:174.1637 22626:5.8675345 22645:141.24893 22647:5.8675345 22930:11.735069 22935:5.4212473 23060:10.842495 23133:6.8483637 23136:4.1292637 23327:5.1436156 23332:5.8069098 23966:8.3040161 24068:852.53409 24126:151.34589 24127:12.928169 24830:5.0566042 24923:36.500686 25125:21.776927 25278:55.377258 25418:4.6147715 25818:30.258077 25861:7.5415109 26200:17.701284 26297:37.363381 26450:15.952254 26499:18.46565 26690:4.5292493 26721:31.046324 26726:6.2422279 26844:500.67427 26921:151.94569 27051:5.4212473 27146:337.70344 27273:788.81346 27387:169.75285 27725:3.9861628 27732:110.12833 27794:13.048991 27911:22.063671 27927:10.058411 27937:175.76713 27938:13.121363 27945:28.613533 27983:11.288782 28040:11.61382 28126:181.24523 28134:23.541488 28144:19.475955 28256:8.5668287 28909:18.993211 28913:51.574826 28927:28.478421 28986:29.74699 29763:1390.371 29817:134.35091 29857:25.03971 29966:10.676156 30013:228.0405 30034:70.270645 30447:5.5956007 30549:6.4929913 30657:6.1552165 30942:7.5415109 31135:214.67261 31145:147.87085 31265:10.86853 31359:915.89056 31520:315.62719 31707:7.5451774 31735:5.6443909 31806:6.694213 32009:76.458391 32519:2493.6676 32532:29.571071 32620:216.76825 33110:5.5490807 33149:28.489817 33160:3.9039247 33215:210.86507 33398:114.18519 35877:16.537022 35917:4.9512437 41159:24.150016 41208:244.15955 41312:1037.7932 41464:18.225521 41552:220.03488 41671:462.49742 41727:187.20894 41934:220.66257 42239:15.618408 42243:204.51701 42302:35.032823 42521:49.830048 42682:180.43551 42710:18.225521 42718:87.024769 43354:10.764053 43368:35.205207 43478:223.24961 43607:17.376686 43665:151.90022 43730:687.10372 44335:57.986087 44338:78.439257 44349:12.484456 44554:426.08681 44641:9.1941438 45077:10.412272 45153:2.2104037 45260:479.93193 45366:51.772 45377:45.762976 45394:20.226417 45399:30.242486 45580:48.601391 45670:776.68096 45962:218.49055 46111:1256.4051 46610:230.4623 46646:5.0292053 46677:519.22199 46713:522.00991 46811:43.302824 46830:15.511797 46895:7.0306853 46970:3.5775281 47087:129.95116 47178:408.7971 47673:887.29395 48400:5.2389258 48700:47.46363 48787:45.249065 48788:80.330556 49708:82.95662 50217:13.89837 50281:19.012614 50317:27.275862 51505:40.910101 51524:22.681865 51674:4.5970719 51676:36.10391 51968:87.002292 51971:10.615837 52013:3.4361165 52094:114.83816 52101:6.8832523 52450:405.60244 52587:15.716777 52596:49.953436 52618:5.7497514 52784:384.95295 52872:24.300695 52943:9.5378443 53127:117.64873 53394:69.347366 53402:6.0751738 53461:7.2063411 53539:370.79815 53721:31.023594 54625:3.3468183 54989:20.824544 55000:4.5292493 55389:10.348775 55641:86.606672 55730:169.64053 55995:13.89837 56340:15.694325 56597:408.04407 56631:161.33561 56971:163.43268 57048:146.64152 57155:10.764053 57214:15.007611 57655:3.8779492 57956:366.54804 57993:74.902283 58927:26.702811 59016:205.01179 59402:308.87242 59416:31.847512 59446:200.72174 60069:23.55989 60320:6.2422279 60477:88.763538 60708:932.1715 60719:7.5415109 60880:29.470296 61148:175.81222 61356:357.56366 61419:11.098161 61460:12.310433 61479:10.764053 61592:143.35837 62172:32.431044 62234:1099.63 62278:160.53251 62872:17.638078 62927:4.4657359 63038:250.6101 63041:18.225521 63231:793.5406 63279:5.8069098 63831:647.61252 63880:161.47223 63962:130.96589 64035:6.8483637 64106:73.999083 64376:353.48657 64432:7.6076825 64579:1205.094 64725:20.327061 64747:189.35634 64767:480.6621 64797:453.14192 64829:37.880929 64893:133.83485 64944:59.992029 65128:6.3954109 65155:18.456816 65194:464.81467 65307:829.13634 65466:56.037975 65470:6.4428986 65533:5.8069098 65638:90.809852 65707:2.7185448 65834:73.552433 65909:92.047728 65965:4.9765615 65974:10.227525 66045:250.6101 66142:28.106053 66164:3.9672943 66190:181.6876 66503:39.30593 66544:6.2422279 66589:170.28712 67106:29.337672 67145:26.776852 67213:20.226417 67247:20.116821 69094:221.28503 69125:50.02537 69482:8.5413506 69708:244.83015 69755:6.4428986 70098:12.885797 70200:8.9624802 70251:635.75808 70342:4.8559335 70500:59.761935 70743:9.2498853 70825:7.2538288 70832:11.633848 71041:29.859369 71318:54.155865 71349:14.969133 71393:15.893952 72760:7.0306853 73012:19.328696 73040:12.885797 73096:18.637341 73417:8.2585273 73616:9.9024874 73675:4.7689222 73709:10.688573 73739:46.455279 73819:7.0306853 74132:164.63002 74329:24.057409 74368:103.77932 74388:6.694213 74435:19.012614 74851:25.595616 74955:14.306766 75314:174.04954 75323:12.484456 75396:6.0010658 75421:15.087616 75445:1179.7603 75450:214.48685 75451:35.593426 75465:2265.9774 75504:2157.4841 75578:28.018988 75607:308.34033 75650:7.946976 75651:23.840928 75654:31.787904 75848:4.4812401 75927:763.14028 75942:181.6876 76032:6.3375381 76079:43.369979 76086:25.777907 76140:5.5490807 76143:18.46565 76149:237.20466 76161:1455.9745 76189:291.28061 76190:5.932073 76195:840.26548 76291:366.06502 76301:188.53777 76865:58.829443 76900:124.65295 76908:13.696727 76911:7.5415109 77052:6.2422279 77062:38.234485 77072:14.061371 77116:6.3375381 77431:25.616351 77501:17.624067 77522:172.73959 77702:4668.9254 77872:199.33362 78615:25.939545 78643:4.7899756 78726:25.146026 78760:8.0500053 78800:7.2538288 79303:669.4801 79631:154.48566 79726:228.0405 79823:4.9512437 79868:11.61382 80060:6.2422279 80067:398.75983 80128:8.5413506 80141:12.484456 80160:33.23812 80192:84.109112 81091:1301.1132 81217:25.93581 81226:8.3949438 81962:9.0809852 82501:25.114655 82620:12.885797 82768:4.5129888 82795:30.375869 83203:7.0306853 83212:6.4659028 83331:10.657581 83376:11.864146 83392:19.245927 83415:11.61382 83588:12.484456 83698:4.0450033 83708:949.11529 83716:9.9024874 84440:26.576025 84502:42.920299 84560:16.14608 84604:26.855356 84763:100.05253 85007:13.953417 85049:52.985075 85085:17.420729 85153:39.785539 85167:5.3820266 85365:2076.126 85441:4.4504684 85520:773.62659 85544:844.05369 85612:7.2456867 85647:196.49238 85737:38.657392 85804:6.694213 85828:48.601391 85829:20.082639 85881:11.61382 85883:7.2538288 85893:75.348373 85895:47.771268 85899:301.98509 85909:12.045451 85988:4.3916279 86090:18.051955 86683:3.3074044 86775:28.442522 86910:177.08839 86951:168.79966 86975:9.7578461 87028:5.932073 87032:46.855224 87099:22.018516 87111:66.572654 87202:5.1743873 87706:6.4428986 87709:19.012614 87714:13.388426 87715:20.545091 88756:12.310433 88761:7.8611859 88765:152.64616 88771:3647.8868 88786:12.627919 88788:17.032386 88826:21.972055 88863:15.944651 88871:131.09851 88908:125.2431 88938:37.66638 89001:5.0292053 89014:7.946976 89021:7.2538288 89022:9.1941438 89185:206.56635 89231:7.0306853 89309:120.83652 89505:59.118613 89542:835.29617 89813:32.441246 89949:14.244909 90033:6.0010658 90153:8.6187797 90471:140.61371 90839:21.377145 90844:12.310433 90859:22.624533 90864:41.090182 91004:114.23315 91042:3.4527374 91367:3.9861628 91465:1520.3385 91595:43.47412 92374:7.5415109 92602:52.458144 92674:86.933965 92684:17.987954 92699:3.3074044 92942:163.26007 93014:14.412682 93029:3.3569194 93170:23.741514 93652:177.94084 93671:143.00711 93733:284.88123 93757:179.66781 93792:228.59076 93906:41.090182 94057:353.56692 94262:1751.8341 94309:272.38262 94348:6.5606816 94384:5.1436156 94437:1242.2707 94501:16.759281 94540:16.676022 94945:34.34965 95185:3.6842961 96041:41.373647 96079:5.3820266 96164:238.34039 96243:707.03416 96836:47.899756 96837:23.840928 96942:179.89904 96951:6.6736365 96960:69.473814 96962:92.235592 96993:5.2728273 97091:486.15452 97255:517.13118 97345:9.3396625 97372:113.49091 99042:4.6888795 99234:182.98045 99744:15.169813 100122:1580.6445 100124:1580.6445 
3.1875509618781401e-05 0.00010881470598651815 0.00032048320157629259 0 0 0 0 0 7.3840165019810043e-05 8.4396528650272222e-05 0 0.00010108410944078794 6.9898335225070685e-05 6.7525586121113964e-06 0 8.7285141467632908e-06 3.2764921382720608e-05 5.7450264417643916e-05 0 0 0.00027935375918851363 0.0001577162802005067 2.4433586711639167e-05 0 6.838693400542135e-05 0 2.7870583335231768e-05 6:2.2332432 8:13.141762 9:13.135338 10:20.764439 12:4.8733895 13:2.6102826 14:7.4697414 15:15.170892 16:2.3894112 18:2.2149991 3927:7.0636987 5756:3.5587188 6223:9.9531231 6535:4.0188796 7210:3.5281354 11436:8.7106526 12771:2.1944034 14439:12.150348 17109:5.4620693 17127:10.545655 18153:4.3360581 19170:4.5292493 25818:3.3620085 28508:3.2195882 28986:2.4789159 31359:3.6489664 32519:14.088517 41303:15.893952 44554:1.7679951 45142:3.1511854 45260:1.8602013 45685:7.5415109 51725:3.5341777 54728:3.5221294 60069:2.355989 64797:4.5541901 65707:2.7185448 75504:7.6236189 75542:21.684989 75607:3.0528745 75980:7.946976 76161:3.5339187 79631:4.0654122 83272:3.0197223 85520:3.3930991 88765:2.5023961 88771:1.8321882 89542:3.4949631 91004:4.4797315 91465:2.4017985 96041:4.5970719 96089:6.4428986 96243:7.3267789 96446:38.532403 97904:3.4810679 100122:7.4150643 100124:7.4150643 
0 2.1152962025620251e-05 4.3170676031189519e-05 4.6434165588571409e-05 0.00013179113245114261 5.4668908417305292e-05 4.9907260331306813e-05 4.208395102392506e-05 0 5.5310813865639003e-05 4.8552977853738071e-05 2.0410897992244071e-05 9.7319580217063043e-05 4.3214672359053914e-05 1.3260413228527063e-05 5.8114312141563505e-05 1.6666755111669022e-06 7.6461293327174994e-05 0 0.00011758960054445103 0.00020457797215189149 0.0001363243329338435 7.0809704685303741e-05 8.6833261379563569e-05 0 8.546793823601895e-06 2.2275262534371263e-05 2:16.487933 5:2.7623874 6:2.2332432 8:15.531173 9:15.523582 10:3.4607398 12:7.3100843 13:9.1359891 14:24.543436 15:11.378169 16:9.5576449 19:2.4426846 24:5.0352607 8305:3.2195882 8782:15.169813 9463:16.786802 9768:3.4868316 16755:2.5002386 17408:14.161027 19449:28.478421 26631:15.007611 27273:2.748479 31135:9.7578461 32519:7.0442587 35841:45.249065 35877:3.3074044 41159:12.075008 41224:7.946976 43665:3.0380044 45153:2.2104037 45749:3.5838774 46935:3.5402567 46970:10.732584 52886:6.4428986 59320:5.8006605 64767:27.310347 65707:2.7185448 76161:3.5339187 77088:11.098161 77702:11.74277 79992:14.909873 85365:2.1403361 85520:6.7861982 87570:12.700212 91465:7.2053956 93792:9.6587645 100122:7.4150643 100124:7.4150643 
0 0 1.2708462016407963e-05 0 0 0 0 1.3283873204495196e-05 0 0 3.7720699352686071e-05 0 0 0 0 0 0 0 0 5.2934161731175166e-06 0 0 6.4273861986905735e-05 0 0 0 0 1:9.5455254 2:65.951731 5:8.2871622 6:42.431621 7:5.3509836 8:38.23058 9:38.211894 10:24.225178 11:2.0847663 12:48.733895 14:129.11982 15:82.175667 16:52.567047 17:2.944628 18:62.019975 19:68.395168 20:61.840392 23:23.967555 25:23.993802 27:21.791369 3927:7.0636987 4700:7.0306853 4704:5.7497514 6290:4.6511391 6481:5.3946476 6535:2.0094398 6834:2.4498078 6949:3.4984596 7000:6.4428986 7019:5.4620693 7147:12.737022 7814:2.2874938 8026:7.946976 10138:2.3086213 10483:4.0551557 11436:2.9035509 11623:4.1183346 12815:4.5457786 12872:20.318434 13212:2.8875505 13581:3.3418058 13804:36.637441 15276:34.841459 15764:4.1514868 16755:10.000954 17408:28.322054 17469:22.577564 17475:8.2585273 17479:6.1552165 17483:7.5415109 17838:6.1552165 18225:4.5796802 19467:22.030083 20099:14.061371 21080:19.906246 21590:5.4317348 24822:15.893952 26013:4.8350938 26200:3.5402567 27146:28.828342 27273:2.748479 27825:4.6147715 28757:8.1798605 29206:14.184301 29316:31.787904 30319:7.6236189 30611:7.2538288 30665:4.63279 30829:4.3774433 30830:15.893952 31135:4.8789231 31359:14.595865 31558:6.2422279 32519:14.088517 35801:7.946976 35877:13.229618 42104:5.3789612 42302:3.1848021 43991:10.737143 44554:26.519926 45153:2.2104037 46501:32.803408 46713:26.364137 46811:2.4057124 47393:6.9506744 47673:1.9630397 48700:7.4942573 49818:3.8609997 49933:7.6236189 50317:3.0306514 50702:45.249065 52094:3.8279388 54728:3.5221294 55005:3.4416261 56335:23.840928 56550:4.1514868 56587:19.682045 59967:8.15155 60708:23.642031 61356:2.2071831 62234:65.930705 63231:1.8984225 63660:24.517478 64106:3.0832951 65194:3.0380044 65638:6.0539901 65707:2.7185448 66142:4.0151504 69094:15.087616 69548:28.478421 69742:4.5129888 70360:7.5415109 71347:4.7689222 71354:9.4165951 72919:6.4303463 73096:26.092278 76138:6.8483637 76161:14.135675 77062:5.4620693 77103:39.510736 77702:21.136986 78170:41.524511 80067:16.789888 81217:8.6452701 82768:4.5129888 85365:10.701681 85520:10.179297 85909:4.0151504 86487:23.840928 86775:5.1713677 88771:10.993129 88863:3.9861628 89264:4.63279 89542:3.4949631 91367:3.9861628 91465:7.2053956 91595:36.228433 92602:4.7689222 93733:3.0306514 94133:28.904846 94262:61.110491 94540:13.896685 96765:4.4657359 97091:2.946391 97372:2.9100234 98898:23.728292 98905:15.893952 100122:51.90545 100123:4.7269594 100124:51.90545 
0 0 0 0 0 0 0 0 2.7652184139027847e-06 0 0 0 0 0 0 0 0 0 0 0 0 0 0 3.1550746272661907e-06 0 0 0 1:313.09323 2:992.02395 3:14.648671 4:4.9037181 5:77.346847 6:129.5281 7:117.72164 8:788.50571 9:788.12031 10:176.49773 11:91.729716 12:994.17146 13:79.613619 14:1268.7889 15:582.81511 16:548.36988 17:53.003304 18:210.42492 19:944.09759 20:219.75425 21:10.590152 23:284.41499 24:57.905498 25:284.72645 27:92.613318 3926:72.56045 3927:116.55103 4090:4.3634571 4650:9.6669214 4751:8.578139 4949:13.637336 5022:4.4812401 5176:4.9024536 5698:5.0566042 5735:26.776852 6051:21.089889 6177:19.159902 6223:9.9531231 6322:19.698214 6367:8.9009369 6481:35.065209 6535:64.302073 6834:7.3494233 6949:3.4984596 7137:5.8675345 7147:101.89618 7216:15.831968 7291:9.1941438 7374:7.0306853 7556:35.98407 7570:12.150348 7690:41.432848 7814:36.5999 8305:6.4391763 8456:6.5606816 8978:7.946976 9091:4.075775 9416:52.326364 9570:7.946976 9805:4.1627864 9880:10.058411 10138:60.024154 10188:4.0862463 10224:3.5102245 10277:6.2422279 10295:4.9024536 10312:4.2706753 10478:11.098161 10875:8.4186127 11088:5.1743873 11368:10.163549 11436:34.842611 11449:24.489217 11774:4.7483029 11838:34.748997 11855:7.0306853 12225:47.998028 12341:17.133657 12584:34.617679 12771:21.944034 12815:9.0915572 12833:7.8432486 13109:3.9487753 13146:4.8559335 13212:28.875505 13357:8.280627 13581:160.40668 13591:4.8334607 13597:15.083022 14501:4.5457786 14678:35.790157 14687:4.8334607 14841:3.3826278 15999:3.930593 16334:3.0566269 16755:22.502148 16798:6.8483637 16857:69.162161 16865:99.53959 16945:7.0306853 17143:5.8675345 17165:4.5625857 17385:3.1307348 17741:2.8053124 17870:4.4969884 17940:4.7483029 17942:3.6772785 18086:59.097956 18230:5.8069098 18247:16.933173 18370:20.422087 18411:39.924367 18478:5.4212473 18571:8.4668079 18573:11.735069 18576:6.828753 18594:5.3820266 18641:6.8483637 18814:3.0269951 19946:9.229543 20050:8.9314718 20281:18.003198 20288:23.840928 20335:24.370902 20619:38.266174 20849:3.7422834 21296:7.5918722 21401:4.8334607 21590:27.158674 21776:5.206136 21781:7.946976 21802:12.45446 21812:49.024536 21815:42.75429 21912:3.8118094 22219:5.6956842 22320:5.0847751 22337:85.469452 22383:5.0292053 22393:96.669214 22429:38.741725 22440:405.74481 22472:5.8069098 22626:5.8675345 22645:9.4165951 22647:5.8675345 23327:5.1436156 23494:7.0306853 23499:7.5415109 23966:5.5360108 24080:4.1514868 24087:3.9672943 24210:4.0654122 24216:4.1292637 24277:5.6956842 24310:11.901883 24349:4.4354306 24485:6.0010658 24830:5.0566042 25089:19.495359 25200:12.002132 25340:21.761486 25818:3.3620085 25909:17.133657 26013:53.186032 26200:31.862311 26403:3.9127354 26450:2.658709 26749:5.8069098 26795:4.8789231 26844:156.21037 26874:7.5415109 26893:42.526217 27051:5.4212473 27146:502.43682 27273:65.963495 27825:13.844314 27833:5.3079187 27911:11.031836 27927:5.0292053 28081:5.8675345 28134:9.4165951 28224:4.4812401 28256:4.2834143 28327:6.8483637 28498:6.2422279 28531:76.468971 28570:30.447646 28582:26.03068 28674:19.682045 28707:128.20569 28757:38.172682 28986:37.183738 29350:67.059658 29708:7.946976 29763:178.87814 29778:7.946976 29817:41.69511 29854:7.946976 29857:50.07942 30319:3.8118094 30549:9.7394869 30659:5.5490807 30829:4.3774433 30996:7.6558776 31135:131.73092 31265:3.6228433 31359:129.53831 31500:7.8611859 31520:24.824611 31707:3.7725887 31793:24.968912 32009:33.063088 32390:25.771594 32417:21.761486 32443:4.3496637 32508:5.4212473 32519:165.54008 32532:9.8570236 32604:5.6956842 32892:60.247917 33110:16.647242 33149:4.7483029 33160:7.8078494 33232:6.0751738 33295:7.946976 35232:4.7281002 35877:29.766639 35919:14.765453 40620:60.332087 41159:4.0250027 41208:27.745404 41238:103.43073 41758:74.906735 42104:32.273767 42126:6.0751738 42213:5.6956842 42272:7.946976 42302:6.3696041 42521:3.3220032 42644:3.895191 42796:4.8789231 42839:7.4549366 43000:18.46565 43006:11.098161 43119:12.150348 43607:3.4753372 43730:8.8090221 43991:56.370002 44282:15.78786 44317:6.0751738 44471:10.842495 44547:6.694213 44554:457.91072 44576:6.4428986 44602:7.946976 44657:5.1743873 45132:6.2422279 45153:4.4208074 45188:5.8069098 45199:6.694213 45260:85.569258 45377:5.0847751 45420:7.946976 45494:9.6455195 45580:6.0751738 45652:3.4984596 46111:6.754866 46430:4.9512437 46513:8.3029736 46568:7.0306853 46577:10.227525 46766:8.3255727 46811:96.228498 46830:54.291289 46838:6.4428986 46935:28.322054 46970:3.5775281 47043:6.694213 47045:7.5415109 47087:10.259302 47393:6.9506744 47483:13.388426 47673:100.11503 48700:49.961715 48719:7.6236189 48764:33.034109 48827:7.4549366 48830:9.8049071 48915:23.840928 48987:126.63848 49462:3.9672943 49479:6.3375381 49632:29.197525 49703:15.893952 49818:15.443999 49933:26.682666 50217:9.26558 50235:6.4428986 50317:9.0919541 50458:4.0968284 50818:15.818482 51170:27.393455 51335:7.2193705 51524:15.121243 51944:5.6443909 52094:172.25725 52164:20.646318 52581:11.532998 52587:5.2389258 52626:7.4845667 52693:3.7803108 52784:14.920657 52872:6.0751738 53288:24.620866 53391:6.8483637 53394:23.115789 53756:5.3079187 53763:11.61382 54243:47.651537 54532:5.1743873 54728:81.008975 55005:86.040654 55098:33.382455 55115:71.184876 55251:7.5415109 55257:7.946976 55320:7.946976 55389:5.1743873 55730:14.136711 55838:4.63279 56084:6.4428986 56166:7.946976 56175:4.245674 56276:5.1436156 56340:81.610489 56516:56.212105 56557:4.4657359 56594:294.11892 56597:16.861325 56631:4.245674 56923:4.6888795 56964:7.0306853 57956:3.5587188 57993:4.4060167 58634:9.3022783 58683:167.49321 58718:56.245482 58892:5.7497514 59016:17.98349 59168:15.893952 59320:60.906935 59402:53.716943 59416:21.231675 59446:34.165403 59835:9.9024874 59844:11.160427 59861:4.4969884 59944:5.504629 60069:4.711978 60708:580.91847 60880:16.074707 61262:5.1743873 61356:30.900563 61592:3.7725887 62234:218.98413 62278:18.522982 62332:15.007611 62787:6.2422279 62872:82.311029 62927:13.397208 63231:70.241632 63243:4.1742151 63660:212.48481 63831:31.531696 63880:4.1403135 64106:33.916246 64459:15.893952 64579:4.8789231 64675:39.812492 64699:6.5606816 64725:12.196237 64747:7.425739 64767:180.24829 64797:9.1083803 64829:7.5761858 64893:3.0417012 65036:8.7548866 65128:9.5931164 65155:3.6913633 65194:24.304035 65274:31.787904 65466:18.679325 65520:7.5415109 65533:11.61382 65547:11.391368 65638:93.836847 65707:10.874179 65965:4.9765615 66045:108.218 66109:12.885797 66110:37.707554 66117:77.800439 66142:80.303007 66164:67.444004 66190:37.163373 66212:8.3715518 66500:5.6443909 66503:15.722372 66578:44.561193 66599:9.1941438 66624:4.3916279 66713:56.647111 66753:138.95144 66878:317.87904 66898:23.840928 67210:6.694213 67213:5.0566042 69094:25.146026 70068:12.484456 70098:6.4428986 70185:7.946976 70200:58.256121 70342:14.567801 70415:10.764053 70601:30.776083 70870:4.8114818 70878:6.2422279 70914:11.735069 71219:5.1743873 71221:4.1627864 71222:3.9216243 71287:40.020296 71310:137.61572 71313:185.82111 71316:21.092056 71635:22.196323 71704:7.2538288 71921:7.2538288 72154:8.3715518 72658:44.275029 73096:175.19101 73202:4.6147715 73678:7.0306853 73971:6.3375381 73976:5.8675345 73981:18.003198 74120:31.260151 74132:8.4425651 74137:12.150348 74146:15.169813 74158:12.885797 74169:103.48775 74198:7.946976 74244:102.01812 74261:774.13749 74307:17.087053 74565:4.9265511 74747:5.4212473 75149:19.328696 75200:6.694213 75266:4.4812401 75271:6.2422279 75450:5.6443909 75504:7.6236189 75607:12.211498 75829:32.527484 75835:6.694213 75847:7.2538288 75848:4.4812401 75927:60.247917 75942:20.646318 75943:7.946976 75962:12.150348 75984:4.9024536 76047:9.7531543 76111:109.32886 76121:7.2538288 76161:243.84039 76189:4.4812401 76195:18.88237 76515:6.9852574 77522:18.183114 77702:220.76408 77703:7.946976 77795:10.545655 77872:11.07409 78116:6.0010658 78368:336.22785 78405:10.113208 78969:4.1292637 79170:8.6993275 79190:6.1552165 79333:5.8675345 79334:5.8069098 79367:6.3375381 80067:12.592416 80128:25.624052 80192:21.705577 81935:6.4428986 81962:21.188965 82487:12.290485 82501:4.1857759 82536:7.946976 83042:4.7281002 83212:6.4659028 83331:7.1050537 83392:14.434445 83466:3.1186623 83654:346.9095 83675:9.7578461 83701:6.0751738 83708:8.3255727 83714:15.893952 83716:4.9512437 83861:4.2212826 84312:5.8675345 84315:13.351405 84440:3.3220032 85192:12.522645 85238:31.68769 85264:12.484456 85365:273.96302 85388:15.893952 85441:178.01874 85464:5.6956842 85506:7.946976 85520:13.572396 85540:15.893952 85547:6.2422279 85825:7.946976 85893:5.3820266 85909:8.0303007 85988:61.482791 86077:3.749774 86090:22.564944 86183:8.8412309 86242:52.485453 86300:131.08679 86302:357.61392 86421:43.236523 86515:10.16955 86576:5.1137626 86775:49.127993 86910:20.591673 86975:4.8789231 87539:16.032859 87570:25.400424 87607:13.696727 88427:2.8532258 88761:7.8611859 88765:30.028753 88771:196.04414 88786:4.2093064 88788:12.77429 88826:3.138865 88843:28.929941 88863:3.9861628 88871:12.290485 88886:11.098161 88908:12.1203 88938:9.4165951 89022:13.791216 89185:6.557662 89377:9.8224415 89542:71.646743 89949:4.7483029 89974:4.7082975 90001:10.848728 90237:36.269144 90308:14.507658 90361:5.4212473 90870:5.002537 91004:58.236509 91078:5.6956842 91465:55.241367 91580:5.206136 91595:21.73706 92070:17.580796 92403:5.3442863 92598:7.2538288 92602:9.5378443 92684:13.490965 92762:7.946976 93014:7.2063411 93029:3.3569194 93170:4.7483029 93344:4.7483029 93422:10.688573 93574:3.4197673 93671:10.035587 93682:7.946976 93733:15.153257 93792:6.4391763 93983:4.4206155 94024:9.1941438 94262:66.930538 94384:5.1436156 94437:37.342806 94501:6.7037123 94540:69.483424 94823:5.3442863 94834:82.95662 94862:4.8114818 94945:11.449883 94967:4.8559335 96164:17.987954 96243:10.990168 96492:24.917362 96806:19.159902 96836:4.7899756 96923:35.133023 96942:12.196545 96960:7.3130331 96962:28.624839 96969:3.3671236 96993:5.2728273 97091:14.731955 97255:23.086213 97372:5.8200468 97640:26.910133 97653:12.484456 97720:4.4657359 97814:7.1805343 98111:5.2333512 99234:3.3269172 99354:7.946976 100122:609.27112 100123:70.904391 100124:614.2145 
3.1428368864910931e-05 6.0495300837443575e-06 0 2.6523549747563038e-05 0 2.6565777118150735e-05 1.0291035613474377e-05 0 0 0 1.4397747835833406e-05 0 3.3191808527641351e-05 3.5941006218971837e-05 1.5575236418325329e-05 0 8.3053467965854478e-06 5.0073006849942766e-05 4.4590026956826443e-06 7.5046247244996491e-06 5.8527720451949127e-06 0 0 3.8748812534499511e-05 0 0 0 1:1.9091051 2:54.959776 5:2.7623874 6:17.865945 7:5.3509836 8:39.425285 9:39.406015 10:8.6518495 12:20.711905 13:10.44113 14:43.751343 15:37.927231 16:8.3629393 17:2.944628 18:17.719993 19:18.320134 20:19.877269 21:2.1180304 23:1.597837 25:1.5995868 27:5.4478422 3927:1.7659247 5756:3.5587188 6051:2.6362361 6535:2.0094398 6834:2.4498078 7147:46.702414 7210:3.5281354 7433:25.423876 7556:5.5360108 8900:3.7880929 9091:4.075775 9416:33.04823 10213:3.8779492 12771:2.1944034 12872:5.0796084 13581:6.6836116 17508:7.0306853 19807:10.477852 23754:4.63279 23757:20.545091 24210:4.0654122 25089:2.7850513 25818:3.3620085 26013:7.2526407 26711:5.5490807 27273:2.748479 28508:3.2195882 29741:19.245927 31359:7.2979327 32519:3.5221294 32739:3.3569194 35865:8.9939769 42521:3.3220032 43730:2.9363407 44554:8.8399754 45142:3.1511854 45153:2.2104037 45260:1.8602013 46625:12.016183 46646:15.087616 47393:13.901349 47673:3.9260794 49933:15.247238 50702:30.166044 50896:23.840928 51122:5.7497514 51725:3.5341777 52587:5.2389258 53721:3.8779492 53735:5.6956842 57187:17.249254 57197:6.8483637 57655:3.8779492 59844:7.4402845 59977:7.5415109 60708:13.509732 61047:15.893952 61049:7.946976 61356:2.2071831 62234:18.837344 63231:1.8984225 64797:4.5541901 65638:6.0539901 65707:2.7185448 65747:133.01688 67225:6.8483637 69094:15.087616 72111:22.252342 73096:3.7274683 73658:5.1137626 75607:6.105749 75972:6.5606816 76161:7.0678374 77702:9.3942161 82796:5.7497514 83224:7.5415109 83272:3.0197223 83331:3.5525268 85365:2.1403361 85520:3.3930991 86421:3.930593 86683:3.3074044 86775:7.7570515 88765:5.0047922 88771:1.8321882 88788:4.2580965 88939:5.4212473 89185:3.278831 89542:1.7474815 90468:6.694213 90716:5.6956842 91465:2.4017985 92684:4.4969884 93525:15.893952 94116:3.8609997 94133:12.387791 94262:5.8200468 94540:5.5586739 96164:4.4969884 96492:9.3440107 96893:12.310433 97604:10.615837 97904:3.4810679 100122:16.065973 100123:4.7269594 100124:16.065973 
0 9.1155787461921181e-05 0 7.0894224156767776e-05 0 2.1773310739604874e-05 0 0 0 0 0 0 5.7561744717545464e-05 0 0 0 0 0 0 0 0 0.00013374141318520658 0.00011670133557302898 0 0 0 6.6307903224533727e-05 2:10.991955 7:3.5673224 10:1.7303699 12:3.6550421 13:1.3051413 14:7.4697414 15:25.28482 16:3.5841168 23:4.793511 25:4.7987603 3926:18.140112 3927:1.7659247 4082:4.0450033 6949:3.4984596 7556:8.3040161 9550:7.946976 12771:6.5832101 13688:6.8483637 16755:2.5002386 16916:3.7959361 17267:6.1552165 17271:10.842495 17700:7.5415109 17942:3.6772785 18141:12.885797 18183:13.388426 18411:3.6294879 18478:5.4212473 19449:5.6956842 23502:7.946976 26142:5.932073 26753:10.227525 28061:5.3820266 28081:5.8675345 35877:3.3074044 41159:4.0250027 41229:7.946976 43478:4.3774433 45153:2.2104037 45670:3.6984808 49632:10.949072 50458:8.1936568 51736:4.7689222 56516:8.0303007 59887:7.946976 61038:10.16955 62784:7.946976 62785:7.946976 63231:5.6952674 63803:19.682045 65707:2.7185448 66551:3.895191 69801:7.946976 71728:5.0931068 75340:7.5415109 76086:4.2963178 77025:15.716777 77522:4.5457786 82283:14.707361 85520:3.3930991 88765:5.0047922 88771:12.825318 89542:3.4949631 91465:2.4017985 96243:3.6633894 100122:1.2358441 100124:1.2358441 
0 0 0 0 0 0 0 0 0 0 0 0 0 0 0 0 0 0 0 0 0 1.4455826739899706e-05 0 0 0 0 0 1:22.909261 2:98.927596 5:27.623874 6:8.9329727 7:3.5673224 8:137.39115 9:137.32399 10:53.641467 12:98.686138 14:210.21987 15:176.99374 16:54.956458 17:4.416942 18:2.2149991 19:70.837853 20:3.3128781 23:3.195674 25:3.1991736 27:8.1717633 3926:54.420337 3927:5.297774 3975:47.681856 3976:55.628832 3977:55.628832 4075:6.2422279 4223:6.694213 4466:10.408918 5176:4.9024536 5661:13.878557 5787:87.416736 5808:23.840928 5986:5.0847751 6051:2.6362361 6177:4.7899756 6535:10.047199 7052:7.5606215 7107:7.946976 7216:7.9159839 7814:4.5749876 8305:3.2195882 8807:5.4212473 9449:4.4812401 10138:2.3086213 10213:3.8779492 10224:7.0204489 11436:5.8071018 12771:2.1944034 13089:23.349156 13109:3.9487753 13146:4.8559335 13212:2.8875505 15867:3.8279388 16016:9.7578461 16334:3.0566269 16755:2.5002386 17408:7.0805135 17591:13.388426 17595:14.636769 17628:56.489342 17741:2.8053124 17794:11.61382 18153:4.3360581 18571:4.2334039 19691:246.43106 20050:4.4657359 20335:2.707878 21590:2.7158674 21802:4.1514868 23461:7.946976 23462:6.4428986 23465:6.4428986 24126:3.6913633 24174:18.912401 24830:5.0566042 25089:158.74792 25125:10.888464 25302:49.937823 26631:30.015222 27146:61.775019 27273:21.987832 27387:37.262822 27411:13.696727 27512:14.507658 27518:7.946976 27524:7.0306853 27525:20.545091 27558:4.3774433 27732:31.972742 27794:4.3496637 28144:3.895191 28913:15.869177 28927:5.6956842 28929:9.6229636 28986:4.9578317 31135:9.7578461 31359:20.069315 31707:22.635532 31860:5.002537 32009:2.066443 32519:66.920458 32739:6.7138389 33215:5.5490807 33231:4.5970719 35232:4.7281002 35877:3.3074044 35919:3.6913633 41177:7.946976 41307:5.1436156 41330:5.932073 41417:6.8483637 42044:15.083022 42521:3.3220032 42644:7.7903821 43301:6.1552165 43553:18.46565 43665:48.60807 44554:33.591906 45118:4.7483029 45120:8.069906 45153:2.2104037 45260:1.8602013 45408:5.3079187 45811:4.3226351 46811:2.4057124 46935:10.62077 47087:20.518604 47673:5.8891191 48700:4.9961715 48827:3.7274683 50813:5.1137626 52094:3.8279388 52450:6.3375381 53461:10.809512 53527:4.7281002 53767:5.504629 54728:3.5221294 56597:40.46718 56631:21.22837 57035:6.4428986 57202:19.012614 59967:8.15155 60006:4.63279 60708:64.171227 61356:15.450282 62234:2.354668 62747:11.031836 63041:6.0751738 63048:6.1552165 63231:5.6952674 64797:2.2770951 64942:28.739853 64976:7.2538288 65707:2.7185448 66142:12.045451 66164:3.9672943 66190:20.646318 66282:16.473338 70273:5.4212473 70572:7.2538288 71376:9.7578461 71769:46.455279 71894:4.0151504 72919:61.08829 73096:3.7274683 73202:4.6147715 73675:28.613533 74444:10.924139 74540:6.2422279 74565:4.9265511 75504:7.6236189 75942:4.1292637 76161:33.572227 76515:6.9852574 77062:76.468971 77088:33.294484 77702:18.788432 79992:7.4549366 80192:2.7131971 81091:17.29054 85365:6.4210084 85441:13.351405 85520:6.7861982 85612:3.6228433 85893:10.764053 85895:5.3079187 85909:8.0303007 86775:5.1713677 88771:20.154071 89542:12.232371 91004:2.2398657 91465:16.81259 91655:14.681239 93429:10.477852 93435:6.8483637 93439:6.694213 93574:10.259302 93652:4.5625857 93671:2.5088967 93733:9.0919541 94057:5.8927821 94262:2.9100234 94384:5.1436156 94433:15.893952 94437:2.4895204 94540:2.7793369 96006:49.649222 96675:12.150348 96945:6.2422279 96962:3.1805377 96982:7.5415109 97255:4.6172426 97647:27.970126 97891:5.8675345 97933:17.796219 100122:49.433762 100124:49.433762 
0 0 0 0 0 0 0 0 0 1.1569251644699658e-05 0 2.0445574611095201e-06 3.1639382646472328e-05 0 0 0 3.9320974056195975e-05 0 0 0 0 0 2.9306567231341406e-05 0 1.1041838446007172e-05 2.1068900481291408e-06 0 1:1.9091051 2:2.7479888 6:4.4664864 8:39.425285 9:39.406015 10:20.764439 11:10.423831 12:20.711905 13:13.051413 14:33.080283 15:72.061738 16:8.3629393 17:2.944628 18:55.374978 19:18.320134 20:49.693172 23:14.380533 25:14.396281 26:13.593505 27:2.7239211 3927:10.595548 5006:5.2389258 6535:2.0094398 7147:4.245674 10875:8.4186127 12771:6.5832101 12815:27.274672 12833:7.8432486 13581:3.3418058 14841:3.3826278 15026:49.241732 16334:3.0566269 16755:2.5002386 17290:12.310433 17741:5.6106249 17800:12.885797 18804:133.88426 18805:7.946976 19170:9.0584986 20286:7.2538288 20335:32.494536 20619:15.30647 23165:54.676564 24362:4.7899756 25632:6.4428986 26013:2.4175469 26268:4.0968284 27146:4.1183346 27273:2.748479 27704:6.3375381 30827:7.946976 31359:10.946899 32009:4.132886 32519:45.787682 35877:3.3074044 41330:5.932073 42378:4.0654122 42421:39.73488 43665:6.0760087 43991:8.0528574 44554:1.7679951 45129:4.6698313 45153:2.2104037 45260:7.4408051 45670:3.6984808 46811:7.2171373 46970:3.5775281 47673:5.8891191 48987:12.663848 52094:3.8279388 56657:7.946976 59320:2.9003303 59967:4.075775 60069:7.067967 60708:3.377433 62228:7.2324853 62234:50.625363 63231:13.288957 64797:2.2770951 64893:3.0417012 65638:18.16197 65707:2.7185448 66513:5.0566042 69602:36.269144 69623:63.575808 69624:7.946976 70870:4.8114818 73096:7.4549366 74103:7.0306853 75447:10.924139 75450:5.6443909 75451:5.0847751 76047:3.2510514 76161:22.970471 76195:18.88237 76984:7.946976 83466:3.1186623 83708:8.3255727 85520:3.3930991 85612:3.6228433 86421:3.930593 86819:53.389092 88771:43.972517 88908:2.02005 89542:1.7474815 91439:4.4504684 91465:4.8035971 92070:35.161592 94057:11.785564 94262:5.8200468 94540:2.7793369 97074:5.8069098 97078:6.5606816 97623:5.1743873 98051:3.7348484 98111:7.8500267 100122:25.952725 100124:25.952725 
0 0 0 0 0 0 0 0 0 0 0 0 0 0 0 0 0 0 0 0 0 1.5083010989882335e-07 3.8488460080898816e-06 0 0 0 0 1:9.5455254 2:52.211787 3:7.3243355 4:2.451859 6:13.399459 7:3.5673224 8:199.51584 9:199.41832 10:88.248864 12:57.262327 13:16.966837 14:177.13958 15:182.05071 16:34.646463 18:9.967496 19:12.213423 20:9.9386344 23:30.358903 25:30.392149 27:5.4478422 3926:145.1209 3927:17.659247 4229:10.764053 4588:72.902086 6481:8.0919714 6535:10.047199 7556:5.5360108 7599:16.139812 7615:8.280627 7668:13.696727 8173:18.003198 8305:16.097941 9230:33.573604 9695:4.5129888 10138:2.3086213 11096:17.951336 12771:4.3888067 13212:8.6626516 14147:5.3820266 16755:7.5007159 17343:15.083022 17475:20.646318 17490:27.978004 17799:11.288782 17806:6.8483637 18057:78.566817 18814:15.134975 18983:10.790094 19691:120.70093 20849:11.22685 21802:20.757434 24145:5.6956842 25089:2.7850513 25418:4.6147715 27146:37.065011 27273:8.2454369 27622:5.6956842 28134:4.7082975 29857:2.78219 30087:6.8483637 31304:4.6698313 31359:3.6489664 32009:6.199329 32519:147.92943 32739:3.3569194 33160:3.9039247 35232:4.7281002 35877:9.9222131 35919:7.3827266 41159:16.100011 42180:5.8069098 43991:59.054288 44282:5.26262 44554:10.60797 45153:6.6312111 45188:5.8069098 45399:11.340932 45730:18.225521 45749:3.5838774 46111:6.754866 46677:7.8078494 46811:2.4057124 46935:21.24154 47673:3.9260794 49933:7.6236189 50317:3.0306514 50458:20.484142 50813:5.1137626 52164:20.646318 53763:5.8069098 53767:5.504629 54625:6.6936367 55005:51.624392 55389:25.871936 59402:31.334884 60069:2.355989 60708:74.303526 61356:4.4143662 62234:10.596006 62747:95.609242 63231:30.37476 64729:4.3226351 64747:3.7128695 64767:21.848277 65547:28.478421 65707:5.4370895 70342:24.279668 71221:8.3255727 71354:61.207868 71835:407.77975 72609:7.2538288 73417:4.1292637 74169:108.66213 74411:5.6956842 75607:3.0528745 75848:80.662322 75912:4.5625857 76111:10.412272 76161:77.746211 77702:2.348554 78726:15.087616 80192:2.7131971 81544:47.681856 81590:4.4354306 84604:13.427678 84669:5.5490807 85365:34.245378 85520:30.537892 86951:75.022071 88700:7.5415109 88765:7.5071884 88771:43.972517 88908:2.02005 88938:37.66638 89542:15.727334 91465:43.232374 92602:4.7689222 92614:7.2538288 92699:3.3074044 93014:3.6031706 93733:6.0613028 94057:2.946391 94262:23.280187 94437:12.447602 94501:6.7037123 94540:8.3380108 95094:9.7118671 95818:33.573604 96243:14.653558 96847:6.5606816 96923:4.3916279 97091:14.731955 97255:27.703456 99234:9.9807516 100122:87.744928 100124:87.744928 
0 0.0001101540640792795 0 4.6194986591702342e-05 2.3910392921866487e-05 0 0.00010785086561649041 0.00010305980945767637 0 3.4990999295755968e-05 0 8.1451042130804952e-05 0 0 1.1267451624980807e-05 1.1031851848169345e-05 0 2.0380020039829664e-05 0.00011380998864713369 0.00022937356008149402 0 5.3774566437826986e-05 8.7116837353043943e-05 0 0 1.7070850274817295e-05 0.00021810290545718229 2:21.98391 3:1.8310839 8:4.7788225 9:4.7764867 10:1.7303699 12:1.2183474 13:22.187402 14:13.872377 15:49.3054 16:22.699407 18:7.7524969 20:7.730049 23:4.793511 25:4.7987603 3926:36.280225 3927:3.5318494 6385:12.484456 8196:4.3774433 9230:22.382403 9255:7.946976 10138:6.925864 10224:3.5102245 14239:7.5415109 15691:7.946976 15692:23.840928 16080:7.946976 16755:7.5007159 17369:4.6147715 18983:7.1933961 20619:2.5510783 24068:8.6993275 25278:18.459086 31359:1.8244832 32519:3.5221294 35877:3.3074044 41197:7.946976 43607:6.9506744 43665:6.0760087 45153:2.2104037 46935:3.5402567 49632:21.898144 51676:9.0259776 53540:12.310433 55005:3.4416261 59016:3.5966981 62234:8.2413381 63231:3.796845 63803:6.5606816 65707:2.7185448 69547:19.682045 71221:8.3255727 72919:3.2151732 75451:10.16955 75848:17.92496 75912:4.5625857 76161:1.7669593 76195:3.1470617 77981:7.946976 83939:23.840928 85167:16.14608 85365:8.5613445 85520:3.3930991 85545:7.0306853 88765:2.5023961 88771:9.1609411 88908:6.0601499 89542:3.4949631 91004:2.2398657 91465:4.8035971 94262:2.9100234 97255:2.3086213 100122:3.7075322 100124:3.7075322 
1.7283719590964378e-05 0 0 0 0 0 0 0 0.00012468755816879171 8.1340017109497471e-05 0 0 0 0 0 0 0 3.1719305829752574e-05 0 0 0 0 0 0 5.5343658265277656e-05 1.1499470626872347e-05 7.968279026170994e-05 1:9.5455254 8:7.1682337 9:7.16473 10:1.7303699 12:6.0917369 14:5.3355296 15:5.0569641 16:5.9735281 17:7.3615699 18:3.3224987 19:14.656107 20:3.3128781 27:10.895684 10903:9.3396625 11838:3.8609997 13581:16.709029 24310:3.9672943 26013:2.4175469 27146:65.893354 27273:5.4969579 28985:7.5415109 30996:3.8279388 31359:1.8244832 32519:3.5221294 44554:10.60797 51335:21.658112 60708:20.264598 62234:3.532002 64413:27.393455 65707:2.7185448 73384:7.5415109 76161:10.601756 86421:3.930593 92070:3.5161592 94540:5.5586739 100122:11.122596 100124:11.122596 
8.5028118550868368e-05 0 0 0 0 0 0 0 0 0 0 0 3.6700290789894352e-05 0 0 0 0 0 0 0 0 8.6801541597906671e-05 0 1.4985475151621763e-05 0 0 0 2:167.62732 3:3.6621677 5:2.7623874 6:2.2332432 7:3.5673224 8:326.15463 9:325.99522 10:13.842959 12:68.227453 14:131.25403 15:15.170892 16:9.5576449 18:31.009988 19:30.533557 20:30.920196 23:17.576207 25:17.595455 26:3.3983762 27:2.7239211 3927:5.297774 6322:3.9396428 6481:18.881267 6535:2.0094398 7147:4.245674 7273:5.3820266 7556:2.7680054 10213:3.8779492 11623:8.2366692 12815:4.5457786 13109:3.9487753 14716:15.893952 15139:5.504629 15141:7.946976 15193:24.620866 15194:7.946976 16172:8.7548866 16755:7.5007159 18472:13.13233 19257:13.844314 19858:3.4753372 21737:4.8559335 23230:27.906835 23332:87.103647 23333:21.22837 24126:11.07409 24127:4.3093898 27146:49.420015 27273:41.227184 27387:24.841881 28029:15.169813 28126:8.8412309 28256:4.2834143 28913:15.869177 28927:22.782737 31135:9.7578461 32519:183.15073 32863:7.946976 35761:31.787904 35848:7.946976 35877:9.9222131 41217:15.893952 41564:7.946976 41671:11.659599 42521:3.3220032 45153:2.2104037 46811:14.434275 47393:10.426012 47483:26.776852 47673:7.8521588 48400:5.2389258 57646:7.6396832 60708:3.377433 61356:13.243098 62234:32.965352 64106:3.0832951 64279:23.840928 65036:65.661649 65590:13.388426 65707:2.7185448 66713:18.88237 67247:15.087616 68893:5.6956842 68897:22.624533 68899:7.946976 68932:7.946976 70832:7.7558985 74158:6.4428986 75067:5.4212473 75106:5.6443909 76161:17.669593 76195:15.735309 77501:8.8120333 77702:2.348554 80160:9.4966057 81091:12.967905 81217:17.29054 81962:9.0809852 82903:4.7689222 83679:7.946976 83708:8.3255727 84384:7.2538288 84596:34.841459 84848:11.098161 84872:10.688573 85238:12.675076 85365:19.263025 86653:61.635273 86683:3.3074044 86775:5.1713677 88771:20.154071 89542:3.4949631 91367:3.9861628 92070:14.064637 92215:15.083022 93014:10.809512 93792:9.6587645 94057:2.946391 94540:19.455359 96942:36.589634 100122:67.971423 100124:67.971423 
0 0 0 0 0 0 0 0 0 0 0 4.6136887102766276e-07 0 0 0 0 0 0 6.6030088280547081e-07 0 0 0 0 0 -0 0 0 1:189.0014 2:3707.0369 3:32.95951 4:68.652053 6:230.02405 7:92.750382 8:1172.0062 9:1171.4334 10:776.93608 11:114.66215 12:1857.9798 13:605.58556 14:3598.2812 15:6361.6608 16:1674.9773 17:73.615699 18:426.38733 19:725.47732 20:425.15269 21:33.888486 22:2.1239301 23:407.44844 24:370.09166 25:407.89463 26:50.975642 27:78.993712 3926:1354.4617 3927:506.82038 4067:5.4620693 4077:112.49096 4082:4.0450033 4197:30.166044 4201:7.946976 4208:9.26558 4238:21.106413 4262:7.0306853 4301:5.0292053 4304:13.44372 4309:7.5415109 4331:12.002132 4449:17.249254 4518:8.8412309 4557:8.280627 4573:7.946976 4638:4.9512437 4751:71.484491 4949:4.5457786 5022:22.4062 5155:21.848277 5359:4.7082975 5661:34.696392 5706:36.909791 6051:79.087083 6223:89.578107 6332:7.8792856 6334:228.90826 6367:8.9009369 6481:345.25745 6498:6.3375381 6535:190.89678 6834:181.28577 6922:50.02537 6949:13.993838 7140:493.26036 7210:3.5281354 7216:47.495903 7258:15.341288 7348:5.3820266 7503:5.504629 7532:20.082639 7556:304.48059 7599:12.104859 7615:24.841881 7814:171.56203 8173:12.002132 8195:13.696727 8196:17.509773 8293:19.328696 8305:67.611352 8414:20.116821 8454:10.764053 8508:4.4206155 8782:121.3585 8900:3.7880929 9091:24.45465 9161:4.9765615 9203:7.2538288 9545:13.696727 9695:4.5129888 9768:6.9736632 9880:5.0292053 9902:127.15162 9922:16.14608 10138:720.28985 10188:65.37994 10194:11.288782 10213:27.145645 10224:24.571571 10312:12.812026 10341:85.052433 10344:8.9939769 10440:10.924139 10466:10.477852 10483:4.0551557 10706:7.5415109 10709:7.946976 10710:7.5415109 10738:14.507658 10801:60.751738 11368:149.06539 11436:14.517754 11497:16.933173 12192:31.211139 12445:6.4428986 12584:31.470617 12771:87.776134 12815:159.10225 12833:7.8432486 12872:1440.069 13068:137.92054 13116:86.112426 13212:147.26508 13282:90.525695 13292:119.52165 13299:39.73488 13302:101.5536 13305:12.310433 13357:4.1403135 13406:18.003198 13528:12.885797 13562:6.2422279 13581:23.392641 13651:11.009258 13685:10.16955 13687:17.420729 13894:31.787904 14099:23.840928 14128:6.5606816 14443:19.88342 14462:57.737781 14699:26.364137 14841:81.183067 15651:12.960472 15684:23.349156 15867:118.6661 16072:117.50762 16115:489.82884 16122:7.946976 16145:307.9338 16334:186.45424 16387:11.499503 16561:5.1743873 16569:6.4428986 16573:24.756219 16615:21.761486 16755:130.01241 16807:12.045451 16916:11.387808 16962:12.310433 16964:13.388426 17031:10.764053 17106:4.8114818 17109:49.158624 17120:13.121363 17127:5.2728273 17271:43.369979 17369:4.6147715 17385:3.1307348 17395:63.695024 17408:127.44924 17475:16.517055 17485:34.485858 17490:11.191201 17556:38.025228 17562:28.122741 17721:6.1552165 17741:14.026562 17782:31.787904 17870:35.975908 17874:5.4620693 17940:23.741514 17942:84.577406 18057:264.2702 18086:8.4425651 18098:7.0306853 18153:8.6721162 18350:18.003198 18411:14.517952 18493:15.169813 18571:4.2334039 18814:18.16197 18983:14.386792 19170:4.5292493 19257:4.6147715 19258:15.818482 19339:6.2422279 19580:55.628832 19653:7.946976 19656:7.946976 19659:63.575808 19680:27.393455 19691:191.1098 19692:381.45485 19693:23.840928 19696:23.840928 19807:10.477852 19858:3.4753372 19946:4.6147715 20050:4.4657359 20066:7.946976 20476:20.545091 20479:7.2538288 20619:20.408626 20793:460.92461 20849:7.4845667 21226:4.4969884 21590:236.28046 21737:24.279668 21776:98.916583 21806:5.1137626 21808:6.5606816 21871:5.2728273 21912:41.929904 21971:23.844611 22201:4.8114818 22228:6.5606816 22377:5.1137626 22386:7.946976 22426:6.8483637 22429:219.53644 22476:6.1552165 22505:14.061371 22594:15.430847 22604:6.0751738 22613:58.054567 22645:4.7082975 22678:15.618408 22681:104.63868 22683:5.5490807 22750:15.893952 22925:47.681856 22927:39.73488 22930:29.337672 22935:5.4212473 23136:24.775582 23140:6.8483637 23327:15.430847 23333:25.474044 23525:22.577564 23724:15.893952 23748:13.490965 23966:5.5360108 24068:100.04227 24080:4.1514868 24126:11.07409 24127:30.165729 24216:8.2585273 24594:73.344961 24597:7.946976 24606:34.241819 24897:5.8675345 24898:6.694213 24923:4.5625857 25089:306.35564 25125:32.665391 25204:38.025228 25335:15.893952 25635:13.388426 25657:7.5415109 25818:70.602179 25858:23.840928 26013:2.4175469 26028:41.69511 26080:6.3375381 26099:7.946976 26200:739.91366 26297:8.3029736 26403:3.9127354 26415:19.328696 26450:2.658709 26547:5.3079187 26669:4.8334607 26690:9.0584986 26726:18.726684 26795:4.8789231 26844:12.016183 26862:14.507658 26903:14.999096 26926:19.328696 26973:7.946976 27051:27.106237 27146:757.77357 27273:590.92298 27387:33.122508 27558:30.642103 27643:7.946976 27911:36.772785 27927:5.0292053 27937:7.0306853 27956:5.1137626 28040:40.648369 28045:7.5415109 28046:8.9939769 28071:97.202781 28081:23.470138 28083:37.948731 28118:7.0306853 28144:3.895191 28170:6.0751738 28341:6.694213 28402:7.946976 28497:5.3079187 28498:12.484456 28511:4.9765615 28590:8.4186127 28648:5.3820266 28657:19.012614 28757:35.446062 28848:29.015315 28909:33.23812 28913:7.9345887 28927:28.478421 28929:9.6229636 28986:7.4367476 29087:7.2538288 29427:4.5796802 29574:20.824544 29741:4.8114818 29763:922.84857 29804:15.893952 29817:718.08245 29857:38.95066 29966:42.704626 30034:109.30989 30122:22.277217 30968:7.0306853 30996:7.6558776 31135:24.394615 31256:7.946976 31265:39.851277 31268:23.470138 31304:4.6698313 31359:204.34212 31520:28.370984 31815:5.5490807 31860:5.002537 32009:185.97987 32166:5.0847751 32443:21.748319 32446:7.946976 32508:10.842495 32519:574.10709 32739:228.27052 32996:127.15162 33160:15.615699 33215:11.098161 33233:4.4969884 33294:802.64458 33398:31.141414 35513:30.339625 35877:3.3074044 35919:22.14818 40560:16.837225 41208:33.294484 41237:7.5415109 41238:175.38255 41265:7.946976 41273:1613.2361 41274:164.29096 41671:54.411462 41727:9.8531022 41758:6.2422279 41794:6.5606816 41798:7.946976 41899:10.113208 41934:5.8069098 42085:17.087053 42138:94.299775 42161:22.624533 42196:49.683762 42243:5.3820266 42302:162.4249 42521:33.220032 42537:23.470138 42602:23.840928 42603:7.946976 42645:611.91715 42650:23.840928 42682:185.18381 42718:6.694213 42810:5.8675345 43131:37.707554 43313:4.5625857 43431:5.5956007 43461:5.8069098 43478:4.3774433 43480:9.229543 43607:13.901349 43665:446.58664 43730:176.18044 43956:6.694213 44030:7.5415109 44282:94.72716 44350:7.2538288 44547:26.776852 44554:367.74297 44911:3.8118094 44920:7.5415109 45132:24.968912 45153:6.6312111 45260:716.17749 45366:444.63012 45377:20.3391 45394:30.339625 45399:7.5606215 45428:16.263742 45491:11.391368 45577:5.8069098 45579:10.924139 45627:7.5415109 45670:114.6529 45811:4.3226351 46577:20.455051 46646:5.0292053 46677:62.462796 46713:105.45655 46766:8.3255727 46811:28.868549 46830:11.633848 46928:13.388426 46935:120.36873 46970:10.732584 46972:7.946976 47068:15.893952 47369:19.012614 47393:62.55607 47673:586.94887 48589:6.4428986 48700:62.452144 48764:16.517055 48789:17.249254 48827:7.4549366 49062:83.934011 49063:15.893952 49208:7.946976 49433:518.30726 49434:7.946976 49446:352.36008 49632:967.16801 49818:3.8609997 49933:133.41333 50317:12.122606 50458:16.387314 50818:5.2728273 51349:14.909873 51372:140.95243 51524:22.681865 51676:13.538966 51958:7.946976 52101:3.4416261 52147:3.4197673 52157:6.694213 52164:4.1292637 52174:5.4620693 52260:4.245674 52322:7.946976 52355:5.504629 52587:10.477852 52784:408.826 53351:7.0306853 53352:28.122741 53392:6.1552165 53394:211.89473 53461:21.619023 53527:14.184301 53540:36.931299 53680:10.842495 53721:31.023594 53735:11.391368 53814:7.2538288 53816:4.9512437 54482:15.716777 54625:16.734092 54728:169.06221 54824:41.395098 54878:16.647242 54912:7.2538288 55005:113.57366 55091:19.328696 55098:33.382455 55104:6.2422279 55112:15.893952 55113:31.787904 55326:28.368601 55357:34.598994 55386:37.155431 55641:4.8114818 55730:353.41777 55995:9.26558 56084:6.4428986 56340:75.332759 56516:8.0303007 56549:5.1743873 56557:53.588831 56597:171.98552 56631:12.737022 56645:35.592438 56923:4.6888795 57151:5.7497514 57155:5.3820266 57197:6.8483637 57655:19.389746 57729:76.983708 57956:88.96797 57993:4.4060167 58603:6.0751738 58927:4.4504684 59016:64.740565 59195:15.893952 59320:52.205945 59388:23.840928 59402:190.24751 59416:10.615837 59446:341.65403 59834:6.4428986 59844:7.4402845 59851:13.008174 59861:4.4969884 59912:5.6443909 59967:16.3031 60006:13.89837 60014:15.893952 60034:6.3375381 60069:9.423956 60477:11.095442 60708:803.82905 60880:10.716471 60961:15.795101 61038:5.0847751 61148:559.40252 61262:5.1743873 61282:8.8120333 61356:128.01662 62172:275.66387 62233:71.522784 62234:373.21488 62278:30.871636 62332:5.002537 62365:7.0306853 62483:21.761486 62872:38.215835 63007:6.8483637 63038:22.782737 63231:542.94883 63243:4.1742151 63803:970.98088 63807:430.71373 63831:38.808241 63962:75.305385 64029:7.946976 64106:188.081 64579:273.21969 64596:182.03775 64604:37.511036 64725:4.0654122 64729:90.775336 64747:11.138608 64767:174.78622 64797:236.81789 64893:60.834024 64944:32.3034 64952:6.5606816 65128:9.5931164 65194:6.0760087 65307:11.204545 65470:6.4428986 65525:14.064637 65535:13.388426 65551:37.453367 65707:10.874179 65747:4.9265511 65834:65.37994 65839:15.893952 65935:22.624533 66113:28.221954 66142:100.37876 66164:63.476709 66212:12.557328 66503:3.930593 66513:116.3019 66589:17.92496 66692:32.29216 66713:179.38252 66773:19.906246 67106:105.61562 67133:14.124893 67166:5.0292053 67213:15.169813 67247:5.0292053 68853:5.8069098 68913:6.5606816 68923:35.153426 69027:7.946976 69128:6.0751738 69142:6.8483637 69149:5.4212473 69180:74.416536 69482:12.812026 69489:152.89761 69509:6.8483637 69562:11.191201 69820:6.0010658 70037:6.4428986 70098:6.4428986 70126:31.787904 70200:4.4812401 70208:6.1552165 70342:24.279668 70500:22.98536 70573:8.8412309 70715:6.2422279 70777:6.1552165 70832:3.8779492 71007:4.7899756 71028:13.121363 71041:24.882808 71068:156.59086 71070:82.95662 71116:566.00623 71221:79.092941 71222:31.372994 71310:5.504629 71313:17.420729 71324:7.2538288 71347:19.075689 71349:97.299368 71376:9.7578461 71412:5.0566042 71895:26.364137 71949:4.4812401 72054:9.6669214 72111:4.4504684 72604:5.932073 72657:103.49553 72658:92.575061 72919:109.31589 73096:59.639493 73202:313.80446 73417:4.1292637 73513:7.946976 73580:4.7281002 73616:14.853731 73675:4.7689222 73681:6.0010658 73718:15.523162 73843:17.420729 74120:98.24619 74132:21.106413 74284:201.69048 74317:768.60384 74324:682.31089 74327:23.840928 74494:5.5490807 74591:18.459086 74628:25.700486 75382:25.012685 75396:36.006395 75405:6.694213 75445:31.046324 75447:5.4620693 75451:5.0847751 75465:342.03432 75504:297.32114 75578:952.64558 75607:112.95636 75635:4.5625857 75658:829.94593 75710:12.700212 75821:6.0751738 75829:5.4212473 75848:94.106042 75912:18.250343 75942:276.66067 75962:97.202781 75991:7.946976 75992:7.946976 76033:5.6443909 76034:4.8789231 76047:42.263669 76086:51.555813 76111:249.89453 76138:6.8483637 76143:98.483464 76146:6.5606816 76161:427.60416 76189:246.4682 76195:88.117728 76213:7.0306853 76379:49.241732 76865:9.8049071 76893:18.46565 76933:7.9533682 77182:64.542879 77255:72.010619 77431:16.010219 77501:88.120333 77522:36.366229 77702:784.41705 77872:7.3827266 77902:5.7497514 78352:12.310433 78362:20.082639 78411:12.484456 78506:123.10433 78508:7.0306853 78615:11.116948 78978:11.391368 78982:31.787904 79255:4.9512437 79303:23.788633 79477:5.5490807 79608:14.061371 79631:4.0654122 79814:26.242727 79823:341.63582 79868:23.227639 79873:7.5415109 79992:328.01721 80067:62.962079 80128:25.624052 80192:70.543126 81091:151.29223 81226:33.579775 81366:8.3484301 81674:4.8114818 81727:6.8483637 81900:24.279668 81962:33.296946 82091:5.8675345 82487:36.871456 82578:52.06136 82623:11.812591 83184:7.0306853 83272:9.0591669 83331:14.210107 83376:5.932073 83583:17.453828 83627:67.873598 83698:20.225017 83708:66.604582 83716:29.707462 83717:6.4428986 83948:6.8483637 83993:7.5415109 84007:4.9512437 84369:50.776802 84399:66.757026 84438:31.787904 84604:134.27678 84669:22.196323 84731:10.615837 84763:177.87116 84872:5.3442863 84918:4.7483029 84943:5.6443909 85007:9.3022783 85103:3.895191 85125:4.075775 85153:4.4206155 85174:6.3375381 85192:4.1742151 85238:12.675076 85365:779.08235 85441:8.9009369 85473:7.946976 85494:101.13208 85520:203.58595 85647:17.862944 85719:29.015315 85727:36.672481 85732:39.73488 85737:45.10029 85762:15.083022 85763:15.893952 85828:12.150348 85829:6.694213 85839:15.893952 85881:11.61382 85885:16.180013 85893:16.14608 85895:5.3079187 85909:60.227255 85962:6.0010658 85988:4.3916279 86044:23.840928 86077:22.498644 86090:22.564944 86576:20.455051 86775:18.099787 86819:13.347273 86951:9.3777589 87099:33.027774 87111:118.35138 87294:66.478914 87367:17.420729 87430:117.09415 87706:6.4428986 87714:6.694213 87755:23.840928 87756:5.8995274 88154:21.417072 88427:2.8532258 88756:18.46565 88761:7.8611859 88765:175.16773 88771:1244.0558 88786:12.627919 88788:4.2580965 88826:6.2777299 88843:7.2324853 88863:7.9723256 88908:159.58395 88938:4.7082975 88949:7.946976 89001:5.0292053 89185:19.672986 89250:7.5415109 89264:13.89837 89293:9.8049071 89505:4.9265511 89542:885.97314 89813:36.496401 90338:53.225167 90764:23.227639 91004:89.594629 91439:17.801874 91465:367.47518 91492:7.946976 91595:18.114217 91617:14.061371 91618:6.1552165 91655:411.07471 92320:246.63018 92343:4.5796802 92367:7.5415109 92369:13.388426 92403:5.3442863 92426:7.946976 92602:19.075689 92684:8.9939769 92900:13.121363 93014:7.2063411 93029:23.498436 93047:39.73488 93170:28.489817 93344:28.489817 93499:5.2389258 93574:6.8395347 93626:268.58884 93645:30.944308 93671:40.142347 93733:333.37165 93757:42.552902 93792:28.976294 93846:7.946976 93983:30.944308 94024:18.388288 94057:5.8927821 94073:4.3774433 94262:264.81213 94309:16.261649 94437:343.55382 94501:328.4819 94540:80.600772 94554:13.44372 94593:7.946976 94945:5.7249417 96079:5.3820266 96219:5.932073 96243:190.49625 96836:9.5799511 96893:6.1552165 96942:27.442226 96951:30.031364 96960:219.39099 96962:82.693979 97091:335.88858 97121:4.3093898 97225:13.388426 97255:373.99665 97345:18.679325 97372:14.550117 97628:7.946976 97664:58.675345 97666:31.787904 97671:28.122741 97675:6.5606816 97685:32.527484 97720:53.588831 98051:123.25 98111:36.633458 98549:34.234571 98825:96.017053 98918:31.68769 98919:7.946976 99042:4.6888795 99234:16.634586 99238:15.580764 99462:3.7803108 99614:8.4425651 99744:20.226417 99880:42.526217 99884:36.269144 100122:852.7324 100124:852.7324 
0 0 7.3915139126143331e-05 0 0 0 0 0 0 0 0 0 0 0 0 0 0 0 0 0 0 1.0421779907931801e-05 0 0 0 0 0 1:5.7273152 2:27.479888 6:6.6997296 8:54.956458 9:54.929597 10:65.754056 12:84.065969 13:7.8308478 14:113.11323 15:64.476292 16:15.531173 18:4.4299982 19:20.762819 20:4.4171708 23:3.195674 25:3.1991736 27:21.791369 3927:1.7659247 5699:5.3820266 6949:17.492298 7556:5.5360108 8097:7.0306853 8305:3.2195882 10138:2.3086213 10312:4.2706753 12771:2.1944034 12872:55.875693 15867:42.107327 16755:10.000954 17034:5.2389258 17051:6.3375381 17069:5.206136 17076:6.3375381 17741:2.8053124 18057:64.281941 18370:3.4036812 19691:90.525695 26690:4.5292493 27146:37.065011 27273:46.724142 27387:8.280627 28531:5.4620693 29857:2.78219 31135:14.636769 31359:5.4734495 32519:31.699164 33110:5.5490807 33160:7.8078494 35877:13.229618 41159:12.075008 41208:5.5490807 42104:21.515845 42615:15.893952 44554:8.8399754 45153:4.4208074 45215:12.310433 45260:33.483623 46935:10.62077 47673:5.8891191 48700:2.4980858 52587:5.2389258 52626:3.7422834 55423:12.888953 55995:4.63279 56764:47.938546 59402:15.667442 59861:4.4969884 60069:7.067967 60708:30.396897 61356:4.4143662 62234:4.7093361 63231:1.8984225 64767:60.082763 65155:7.3827266 65194:54.684078 65707:10.874179 66872:6.0010658 69309:4.5129888 71310:44.037032 71313:5.8069098 71316:7.0306853 75465:32.065718 76161:21.203512 77702:7.0456621 79992:18.637341 80067:12.592416 83466:3.1186623 85365:4.2806723 85520:10.179297 86167:12.484456 88765:2.5023961 88771:5.4965647 88871:8.1936568 88908:4.0400999 89185:3.278831 89542:6.9899261 91465:14.410791 93170:4.7483029 93429:5.2389258 93733:6.0613028 94262:8.7300702 94540:19.455359 96528:6.8483637 97255:2.3086213 99238:3.895191 100122:27.188569 100124:27.188569 
0 0 0 0 0 0 0 0 0 0 0 0 0 0 1.8692371616586966e-05 0 0 0 0 0 0 0 0 0 0 0 4.2042296874330939e-07 1:5.7273152 2:74.195697 6:8.9329727 8:40.619991 9:40.600137 10:25.955548 12:25.585295 13:20.882261 14:23.47633 15:45.512677 16:33.451757 18:17.719993 19:18.320134 20:8.8343417 3926:60.467042 3927:3.5318494 5756:3.5587188 6000:14.507658 6045:14.061371 6535:2.0094398 6949:6.9969192 7210:3.5281354 8294:14.061371 10138:2.3086213 10295:4.9024536 11436:2.9035509 12771:4.3888067 13089:14.009494 13684:5.3820266 14439:36.451043 15867:30.623511 15999:23.583558 16072:11.191201 16334:3.0566269 16755:5.0004772 19170:9.0584986 21776:20.824544 25818:3.3620085 26013:2.4175469 27146:61.775019 27273:13.742395 28508:3.2195882 31359:3.6489664 32009:2.066443 32519:28.177035 33160:3.9039247 35877:6.6148088 41159:8.0500053 44554:7.0719803 45142:3.1511854 45153:2.2104037 45260:1.8602013 45428:5.4212473 46811:4.8114249 47349:4.8789231 47369:19.012614 47673:5.8891191 49632:21.898144 51725:3.5341777 53825:5.7497514 54728:10.566388 55730:3.5341777 59402:8.9528239 60708:13.509732 62234:9.4186721 64797:4.5541901 65707:2.7185448 66282:4.1183346 69542:47.681856 69781:15.580764 74302:6.4428986 75504:45.741713 75578:28.018988 75607:3.0528745 75942:57.809691 75962:18.225521 76047:19.506309 76161:8.8347967 78726:20.116821 83272:3.0197223 85365:12.842017 85520:13.572396 86550:6.5606816 88771:10.993129 89542:5.2424446 91465:4.8035971 94540:5.5586739 97091:2.946391 97904:3.4810679 98549:22.823048 100122:21.009349 100124:21.009349 
0 3.5512114608533894e-05 0.00015569318293650943 0.00018688885168135244 0.00019998600188609768 0.00028984903832048118 0 0 0 0 0.00018250591817308554 2.444809897532276e-05 0.00013894490467748129 0.00023405180866620164 0.00013056813748087891 0.00018645928575055219 4.4435423361000043e-05 0.0001479770011496192 3.5196583176508935e-05 0 0.00034400660239348877 0 0 0.00014013546796626575 2.1947164247693827e-05 0 0 2:21.98391 8:19.11529 9:19.105947 10:6.9214796 11:4.1695326 12:1.2183474 14:17.073695 15:5.0569641 16:7.1682337 18:2.2149991 19:6.1067114 20:2.2085854 18057:7.1424379 31135:14.636769 32009:2.066443 32519:10.566388 41159:4.0250027 45153:2.2104037 61592:7.5451774 62234:2.354668 65707:2.7185448 72919:6.4303463 75658:8.6452701 75942:4.1292637 76161:1.7669593 79992:3.7274683 83242:11.009258 85365:4.2806723 86775:5.1713677 87756:2.9497637 88154:12.850243 89185:19.672986 89505:9.8531022 93645:35.364924 94116:3.8609997 99700:7.946976 100122:3.7075322 100124:3.7075322 
8.4692049416547848e-05 0 0 0 0 0 0 4.4152393456208396e-05 2.4590518965878396e-05 3.8206945911093146e-05 7.9827424476225958e-05 0 3.1717765851819416e-05 0 0 2.4938798797250456e-05 8.2741247751539498e-05 0.00010481542262657109 0 0 6.8414607058707487e-05 0 3.4799750331743139e-05 1.8741751476428453e-05 0 1.4653524533650678e-06 0 1:13.363736 2:2.7479888 8:13.141762 9:13.135338 12:12.183474 13:2.6102826 14:23.47633 15:2.528482 16:8.3629393 18:12.182495 19:12.213423 20:13.251513 23:6.391348 25:6.3983471 3927:19.425171 11436:5.8071018 12771:2.1944034 15982:4.4354306 16334:3.0566269 16713:43.086516 18370:3.4036812 20619:28.061861 27022:4.3496637 28986:9.9156634 30996:11.483816 31359:3.6489664 32519:10.566388 32739:53.710711 33134:40.020296 41226:7.946976 41330:5.932073 43991:10.737143 44554:7.0719803 45153:2.2104037 46811:4.8114249 47673:1.9630397 52094:3.8279388 54728:3.5221294 55423:8.5926355 62234:12.950674 63231:1.8984225 65707:2.7185448 73096:7.4549366 76161:12.368715 77155:34.658706 83466:3.1186623 85345:44.362767 85520:3.3930991 85612:3.6228433 88908:2.02005 89892:15.893952 91004:4.4797315 91465:2.4017985 94262:11.640094 100122:13.594285 100123:18.907837 100124:13.594285 
3.1854785841438035e-05 0 2.0189364210365405e-05 0 0 1.9121987813462476e-05 0 0 0 0 0 5.9799028083461535e-05 4.9077074915752236e-05 0 0 0 0 0 0 0 0.00012942812685567932 0.00010208051542702905 3.9589972970425612e-06 0 0 0 2.391060132420117e-05 1:11.45463 2:27.479888 5:8.2871622 8:59.735281 9:59.706084 10:27.685918 12:42.642158 14:59.757931 15:44.248436 16:28.672935 17:20.612396 19:35.418926 21:4.2360607 23:6.391348 25:6.3983471 27:10.895684 3927:10.595548 4650:4.8334607 6332:3.9396428 6481:8.0919714 6535:4.0188796 8241:62.652526 10138:2.3086213 10312:8.5413506 10478:5.5490807 11096:3.5902672 11368:3.3878497 11436:5.8071018 13109:7.8975506 13212:2.8875505 13581:16.709029 14922:4.9765615 14952:10.924139 15008:9.4562003 15999:11.791779 16016:4.8789231 17713:11.009258 21590:2.7158674 23966:2.7680054 27146:24.710008 27273:5.4969579 28502:17.249254 28757:49.079163 28986:7.4367476 29857:30.60409 31359:21.893798 32517:21.748319 32519:14.088517 32532:4.9285118 41159:4.0250027 42500:7.2538288 42521:3.3220032 42839:3.7274683 43665:3.0380044 43991:10.737143 44554:37.127896 45153:2.2104037 45260:1.8602013 45652:10.495379 45749:3.5838774 46111:3.377433 47673:9.8151986 48584:10.113208 48700:4.9961715 49818:3.8609997 53756:10.615837 53778:4.5625857 54625:3.3468183 56597:10.116795 59402:8.9528239 60708:13.509732 60880:5.3582357 60961:7.8975506 61356:2.2071831 61410:4.7082975 61479:5.3820266 63660:16.344985 63831:4.8510301 64432:11.411524 64478:17.796219 64725:4.0654122 65036:8.7548866 65194:6.0760087 65707:2.7185448 69094:15.087616 70626:3.9766841 70791:5.3442863 73096:18.637341 73658:5.1137626 74329:4.8114818 74747:5.4212473 75382:5.002537 76161:14.135675 76189:8.9624802 76452:36.006395 77702:7.0456621 79303:3.3983762 81962:6.0539901 83346:4.8789231 84661:11.735069 85023:68.483637 85028:30.166044 85365:2.1403361 86421:7.8611859 88293:3.9861628 88771:9.1609411 88788:4.2580965 88826:3.138865 88887:5.0847751 88908:6.0601499 89022:4.5970719 89185:6.557662 89542:3.4949631 91004:8.9594629 91277:6.2422279 91465:4.8035971 91917:7.946976 93671:2.5088967 93792:3.2195882 94262:5.8200468 94540:2.7793369 96110:6.8483637 96206:15.083022 97255:2.3086213 98111:31.400107 99234:3.3269172 100122:33.367789 100124:33.367789 
4.7937609249917957e-05 5.3239612428993176e-05 0 0 0 4.8043991922515494e-05 2.383226071283145e-06 0 4.7550057545578515e-05 3.578881393156622e-05 0 2.0994901186961812e-05 1.7004515138652379e-05 1.5951495547010775e-05 0 6.1712274844112155e-06 0.00010152523378352917 0.00011932680284031501 0 1.1676043167882854e-05 0 0 2.306004783437892e-05 0 3.5561619048443373e-05 7.7082538951505615e-06 3.8483996350190575e-05 1:1.9091051 2:24.731899 5:11.04955 6:4.4664864 7:1.7836612 8:22.699407 9:22.688312 10:10.382219 11:31.271494 12:12.183474 13:6.5257065 14:10.671059 15:15.170892 16:14.336467 17:17.667768 18:22.149991 19:19.541477 20:16.564391 23:41.543762 25:41.589256 3927:5.297774 6115:5.4620693 7684:36.931299 9416:8.2620574 10483:4.0551557 12872:38.097063 18983:7.1933961 20335:10.831512 26721:5.1743873 31135:53.668154 31359:20.069315 32519:10.566388 33398:5.1902357 43991:5.3685716 44554:3.5359901 45153:2.2104037 45260:1.8602013 46811:19.2457 46838:12.885797 48764:4.1292637 52164:4.1292637 52174:49.158624 54625:6.6936367 54728:7.0442587 57048:15.169813 59320:8.7009908 62234:16.482676 62278:6.1743272 63231:3.796845 64106:3.0832951 65707:2.7185448 69797:5.6956842 70626:3.9766841 72096:91.398908 72919:67.518636 73096:3.7274683 76161:5.300878 77702:2.348554 86895:15.893952 88771:3.6643765 91367:3.9861628 94501:3.3518561 94540:2.7793369 100122:14.830129 100124:14.830129 
0 0.000256852666870897 0 0.00027488670701651419 0.00057817285601123299 0.00071865946992833015 0 1.7863741880651843e-05 0.0002530655938488861 9.2594943317619101e-05 0.00027028144240981243 5.2176154891844193e-05 0.00013482539429304465 0.00065588597723542684 0 0.0001895330330699729 0.00025827163383880883 0.00059463887748382354 0 0.00026022484697409452 0.00029004580176690022 0.000209775928361182 0 7.0257216043383136e-05 0 0 0.00017834351668863615 1:1.9091051 2:8.2439664 8:9.5576449 9:9.5529734 12:1.2183474 14:7.4697414 15:1.264241 16:4.7788225 18:2.2149991 19:8.549396 20:2.2085854 23:1.597837 25:1.5995868 7615:12.420941 27146:12.355004 31135:19.515692 32519:3.5221294 44554:3.5359901 45153:2.2104037 52094:3.8279388 54625:6.6936367 60708:3.377433 62234:2.354668 65036:17.509773 65707:2.7185448 76161:3.5339187 91655:7.3406197 91999:12.002132 93792:6.4391763 93946:9.1251715 100122:3.7075322 100124:3.7075322 
0 0 4.6456746349105887e-06 0 0 0 0 0 0 0 0 0 0 0 0 0 0 0 0 0 0 1.998586968989046e-06 3.169821057795461e-05 0 0 0 0 1:3.8182101 2:27.479888 6:2.2332432 7:1.7836612 8:54.956458 9:54.929597 10:24.225178 12:37.768769 13:14.356554 14:105.64349 15:93.553836 16:22.699407 18:12.182495 19:26.86953 20:8.8343417 23:33.554577 25:33.591322 27:2.7239211 3927:10.595548 5022:4.4812401 5756:3.5587188 6051:15.817417 6223:4.9765615 6481:2.6973238 7000:19.328696 7019:5.4620693 7210:3.5281354 7814:2.2874938 10138:4.6172426 10213:3.8779492 11436:14.517754 12771:4.3888067 12929:40.054216 13109:3.9487753 14439:18.225521 15867:49.763205 15913:7.2538288 15920:7.946976 17490:5.5956007 17822:19.328696 20050:8.9314718 21776:15.618408 21806:5.1137626 25818:3.3620085 27273:2.748479 28144:15.580764 28508:3.2195882 28611:23.840928 28757:62.712264 28860:69.966346 30034:3.9039247 30104:5.5490807 31359:21.893798 32519:52.83194 32550:5.8675345 33110:5.5490807 33160:3.9039247 41159:8.0500053 41671:3.886533 42521:3.3220032 42839:3.7274683 43435:22.624533 43436:39.73488 44554:7.0719803 45142:3.1511854 45153:2.2104037 45260:3.7204025 45680:98.039641 45682:135.09859 45859:5.8675345 46677:11.711774 46766:4.1627864 46935:3.5402567 46970:3.5775281 46983:55.628832 47393:24.32736 47673:1.9630397 49933:22.870857 50818:5.2728273 51124:23.840928 51725:3.5341777 52618:5.7497514 52893:7.946976 53407:29.707462 53448:7.946976 54728:10.566388 55005:41.299514 56550:4.1514868 58927:4.4504684 59452:28.472937 59467:7.0306853 60069:7.067967 62234:9.4186721 62849:14.567801 63008:5.8069098 63231:7.5936899 63831:2.4255151 64604:14.066638 64675:9.9531231 64725:4.0654122 64747:14.851478 64797:4.5541901 65707:2.7185448 67213:5.0566042 69094:30.175232 71376:4.8789231 71394:22.624533 73096:18.637341 74169:77.615809 75542:5.4212473 75607:3.0528745 75658:12.967905 75848:4.4812401 75912:4.5625857 76108:7.946976 76161:24.737431 76195:3.1470617 77522:18.183114 77702:9.3942161 77815:6.694213 77872:3.6913633 78368:14.009494 81091:8.6452701 81674:4.8114818 83272:3.0197223 83708:12.488359 84502:9.5378443 85365:6.4210084 85520:13.572396 85695:4.4504684 86515:10.16955 86530:7.0306853 88771:12.825318 88908:2.02005 89185:29.509479 89293:4.9024536 89542:6.9899261 89974:4.7082975 90429:6.0010658 91004:2.2398657 91465:9.6071942 91595:3.6228433 93671:2.5088967 93733:3.0306514 94057:2.946391 94262:17.46014 94959:32.803408 94967:4.8559335 95094:4.8559335 96089:6.4428986 96836:4.7899756 96962:3.1805377 97091:2.946391 97255:2.3086213 97904:3.4810679 100122:38.311166 100124:38.311166 
0 0 5.0286373509136027e-05 0 0 0 0 0 0 1.4082375285792227e-05 0 1.3487657130286412e-05 7.2603619891744024e-06 0 0 0 0 0 0 0 5.6888324009139222e-05 0 1.3172367335678407e-05 0 0 0 0 1:15.272841 2:10.991955 6:37.965134 8:44.204108 9:44.182502 10:44.989617 11:2.0847663 12:41.423811 13:2.6102826 14:71.496096 15:22.756338 16:33.451757 17:5.889256 18:25.47249 19:45.189665 20:25.398732 23:9.587022 25:9.5975207 5176:4.9024536 6141:4.6147715 6949:3.4984596 6974:31.787904 7503:5.504629 8949:7.0306853 12287:3.4527374 12361:5.1436156 12771:2.1944034 12872:22.858238 18220:68.34821 18370:3.4036812 21563:5.7497514 21569:6.5606816 25418:4.6147715 26013:4.8350938 27146:49.420015 27273:16.490874 29857:2.78219 31359:3.6489664 32519:24.654906 32572:3.7649258 33110:5.5490807 35919:3.6913633 43991:16.105715 44554:10.60797 44642:7.946976 45153:2.2104037 45260:70.687648 45749:3.5838774 46935:35.402567 47393:10.426012 48700:2.4980858 49933:11.435428 51122:17.249254 52094:7.6558776 54728:7.0442587 54989:5.206136 60708:43.906629 61356:2.2071831 62234:27.078682 65194:109.36816 65707:2.7185448 69094:15.087616 73096:7.4549366 74169:36.220711 76161:17.669593 77522:13.637336 77702:7.0456621 78405:15.169813 78411:6.2422279 88771:1.8321882 89542:3.4949631 94262:5.8200468 96243:3.6633894 100122:51.90545 100124:51.90545 
0 0 0 0 0 0 0 0 0 0 8.2865434516084944e-06 0 0 0 0 0 0 0 0 0 0 0 0 2.7568820869350533e-07 0 0 0 1:47.727627 2:123.6595 6:8.9329727 7:14.26929 8:95.576449 9:95.529734 10:6.9214796 11:27.101962 12:110.86961 14:183.54222 15:58.155087 16:44.204108 18:87.492465 19:79.387249 20:87.239124 23:23.967555 25:23.993802 27:8.1717633 3927:5.297774 5359:18.83319 6051:2.6362361 6535:2.0094398 7147:4.245674 7276:5.7497514 7291:4.5970719 7556:2.7680054 7814:4.5749876 8305:6.4391763 9091:20.378875 12287:3.4527374 12872:5.0796084 16354:7.946976 16755:12.501193 17298:77.314783 17628:16.139812 17799:11.288782 18057:17.856095 18086:4.2212826 18573:46.940276 18594:5.3820266 19691:90.525695 21590:2.7158674 22406:20.082639 22429:38.741725 22434:19.328696 22692:54.720983 22718:7.946976 22731:5.6956842 23136:4.1292637 27146:197.68006 27273:10.993916 27387:82.80627 27825:9.229543 28913:23.803766 30034:7.8078494 31359:5.4734495 32009:8.265772 32519:17.610647 33398:15.570707 35877:16.537022 35919:11.07409 41725:15.083022 44554:40.663887 45153:2.2104037 45494:16.075866 45621:23.840928 46934:31.787904 46935:3.5402567 46942:81.31871 46970:10.732584 47178:4.1292637 47673:1.9630397 52094:7.6558776 53461:7.2063411 53540:6.1552165 54728:3.5221294 55005:10.324878 55098:19.075689 60006:50.96069 60708:118.21015 60880:10.716471 61356:2.2071831 62234:93.009387 63231:1.8984225 63400:39.36409 63660:49.034955 63831:2.4255151 64557:30.166044 65707:2.7185448 66212:4.1857759 66282:16.473338 68782:7.2538288 68784:6.3375381 69094:5.0292053 69742:4.5129888 73096:11.182405 73472:3.8779492 75658:25.93581 75942:45.4219 76140:22.196323 76161:45.940943 76195:12.588247 77255:5.1436156 77942:15.893952 81935:6.4428986 83192:37.707554 83194:31.787904 83195:7.946976 83682:12.888953 84763:18.528246 85238:19.012614 85365:17.122689 85441:22.252342 85520:3.3930991 85926:29.034549 86775:20.685471 88761:3.930593 88771:16.489694 88908:2.02005 88932:23.840928 89542:12.232371 91465:2.4017985 92070:7.0323184 94437:9.9580816 99631:7.946976 100122:40.782854 100123:28.361756 100124:40.782854 
0 0 0 1.6115711065322279e-05 0 4.2389086410557702e-05 0 0 0 0 0 3.235396172358157e-05 0 3.3464868364086946e-05 5.5945822439258312e-05 9.9060213469721345e-06 0 9.9264760278939079e-06 0 0 3.9009885574395864e-05 0 0 3.0173721103158116e-05 0 0 5.0373343326707371e-06 2:107.17156 8:43.009402 9:42.98838 10:19.034069 12:98.686138 13:1.3051413 14:57.623719 15:24.020579 16:68.09822 18:19.934992 19:7.3280537 20:18.772976 23:3.195674 25:3.1991736 27:10.895684 3927:8.8296234 4067:5.4620693 6535:2.0094398 7556:5.5360108 10138:2.3086213 12872:50.796084 13684:5.3820266 14439:6.0751738 14525:28.489817 15867:84.214654 15876:7.946976 15878:11.61382 15911:12.150348 16561:5.1743873 16573:4.9512437 16597:21.761486 16755:2.5002386 17615:7.946976 18571:4.2334039 18576:17.071882 19170:4.5292493 19467:8.8120333 21818:14.507658 22437:7.5415109 26669:4.8334607 28497:5.3079187 30448:7.946976 30968:7.0306853 30996:65.07496 31359:7.2979327 32519:38.743423 35877:3.3074044 43431:11.191201 45153:2.2104037 45282:7.946976 46766:4.1627864 47673:3.9260794 48700:2.4980858 51372:59.633721 55000:4.5292493 56340:3.138865 56352:7.946976 56645:11.864146 59402:2.238206 59452:28.472937 60069:2.355989 60961:3.9487753 61992:7.946976 62234:20.014678 62278:6.1743272 63231:9.4921124 65194:6.0760087 65707:2.7185448 67133:9.4165951 70832:3.8779492 71161:158.37173 73096:14.909873 73617:7.946976 74818:15.893952 75396:6.0010658 75591:7.946976 76161:15.902634 77702:4.6971081 77885:7.5415109 83042:4.7281002 83146:14.507658 84604:6.7138389 84731:10.615837 85238:25.350152 85365:4.2806723 85520:3.3930991 86183:4.4206155 88771:5.4965647 88843:3.6162427 88908:2.02005 89264:4.63279 89309:4.8334607 89468:12.310433 89542:3.4949631 89949:4.7483029 90033:36.006395 91465:7.2053956 94057:2.946391 94294:40.450033 94735:53.168068 94945:5.7249417 96942:3.0491362 96962:3.1805377 100122:42.018698 100124:42.018698 
4.3198433760142037e-05 0.0001540859790564446 0.00016579791538941319 9.0174058101727986e-05 4.5990908381643233e-05 0.00017113487789856789 0 6.4041404017673912e-06 0.00013487655365007417 2.4294055139259462e-05 3.9651139692195396e-05 4.2681337215912488e-05 5.0179662739354378e-05 0.00017991649813795351 0 3.4734846926482621e-06 7.4976991461650472e-05 5.2935698896009344e-05 2.3726028555697909e-05 1.5383269434589594e-05 0.00027367455213422111 0.00031916527903294795 0 7.6623498664483961e-05 6.1698141731934326e-05 0 9.8683155701706171e-05 2:2.7479888 8:14.336467 9:14.32946 10:13.842959 12:13.401821 13:3.9154239 14:9.6039532 15:12.64241 5756:3.5587188 6051:2.6362361 7210:3.5281354 7556:2.7680054 10138:2.3086213 11946:55.628832 12771:2.1944034 13629:6.3375381 16755:2.5002386 17347:7.0306853 18168:4.8334607 18181:6.3375381 21806:5.1137626 25818:3.3620085 27273:16.490874 28256:4.2834143 28508:3.2195882 35877:3.3074044 44282:7.89393 45142:3.1511854 45153:2.2104037 45260:1.8602013 45472:7.2538288 46935:3.5402567 51122:5.7497514 51725:3.5341777 64797:4.5541901 65707:2.7185448 69094:5.0292053 75465:10.688573 75607:3.0528745 77795:5.2728273 80067:4.1974719 81962:3.0269951 83272:3.0197223 85365:17.122689 86077:3.749774 88765:2.5023961 88771:1.8321882 89542:3.4949631 91465:2.4017985 97904:3.4810679 100122:1.2358441 100124:1.2358441 
0 2.9572974978949935e-05 5.0955504064535335e-06 0 0 5.1004527306335001e-06 0 0 1.9181944941068709e-05 0 0 2.3117227767378809e-05 0 0 0 0 0 0 0 0 0 4.9341449201230141e-05 5.7508460392719517e-06 0 0 0 7.8192887087255675e-06 1:3.8182101 2:13.739944 5:5.5247748 6:4.4664864 7:1.7836612 8:9.5576449 9:9.5529734 10:8.6518495 12:10.965126 14:17.073695 15:51.833882 16:7.1682337 17:1.472314 18:1.1074996 19:13.434765 20:2.2085854 23:12.782696 24:5.0352607 25:12.796694 27:5.4478422 3927:8.8296234 4751:2.8593797 5756:3.5587188 6051:10.544944 6535:2.0094398 7210:3.5281354 10138:6.925864 10188:4.0862463 12771:2.1944034 13212:2.8875505 13804:32.057761 13835:23.840928 13911:22.624533 14391:60.332087 14405:37.707554 15911:6.0751738 16755:5.0004772 18488:7.946976 22228:6.5606816 23136:4.1292637 25125:7.2589758 25818:6.724017 27273:2.748479 27927:10.058411 28508:3.2195882 28803:14.507658 31135:14.636769 31359:5.4734495 31860:5.002537 32519:7.0442587 35877:6.6148088 43946:14.507658 44554:3.5359901 45142:3.1511854 45153:2.2104037 45260:14.88161 45836:4.4060167 46111:3.377433 47087:3.4197673 47673:3.9260794 49818:3.8609997 50235:6.4428986 50317:6.0613028 51725:3.5341777 52356:4.0053942 52784:2.9841314 52943:4.7689222 54728:3.5221294 55005:10.324878 55115:5.932073 55730:3.5341777 55731:11.499503 58927:13.351405 59320:2.9003303 60300:15.893952 60708:6.754866 60781:15.893952 61356:2.2071831 62234:1.177334 63231:1.8984225 63660:16.344985 63880:4.1403135 64797:6.8312852 65707:2.7185448 66164:3.9672943 69365:6.8483637 73096:11.182405 74368:21.848277 74411:5.6956842 75607:3.0528745 76161:3.5339187 77431:6.4040877 77702:7.0456621 78290:55.628832 80192:2.7131971 81366:4.1742151 81613:40.233642 81623:15.893952 83272:3.0197223 84699:6.5606816 85365:4.2806723 85520:3.3930991 86775:2.5856838 87756:2.9497637 88765:5.0047922 88771:14.657506 88786:4.2093064 89293:14.707361 89542:8.7374077 91465:2.4017985 93671:2.5088967 93733:15.153257 94057:2.946391 94540:5.5586739 97255:2.3086213 97904:3.4810679 100122:13.594285 100123:4.7269594 100124:13.594285 
0 1.1842716567520144e-06 0 0 0 0 0 0 0 0 0 0 0 0 1.460052997260798e-05 0 0 0 0 0 0 0 0 0 0 0 2.3707468249860295e-05 1:11.45463 2:82.439664 5:5.5247748 8:48.98293 9:48.958989 10:1.7303699 12:47.515548 13:10.44113 14:80.032944 15:88.496872 16:25.088818 17:1.472314 18:21.042492 19:34.197584 20:22.085854 23:12.782696 25:12.796694 27:2.7239211 3926:6.0467042 3927:1.7659247 4179:12.002132 6051:5.2724722 6203:7.2538288 6535:4.0188796 6949:10.495379 7019:10.924139 7052:7.5606215 7556:2.7680054 7690:3.4527374 7814:2.2874938 8196:4.3774433 8305:3.2195882 9805:4.1627864 11436:2.9035509 11652:4.0250027 11838:3.8609997 12268:15.083022 12771:2.1944034 13146:4.8559335 13581:6.6836116 15867:22.967633 16334:3.0566269 16755:32.503102 17741:2.8053124 18540:123.31509 19170:4.5292493 19449:17.087053 20335:2.707878 25647:6.0010658 26297:4.1514868 26547:5.3079187 27146:65.893354 27273:5.4969579 27567:5.932073 27588:12.150348 27589:39.73488 27597:55.628832 27851:7.0306853 27854:15.893952 28498:6.2422279 30846:17.398655 31135:9.7578461 31359:9.1224159 32009:2.066443 32519:7.0442587 35877:42.996257 41159:4.0250027 42196:4.1403135 42595:12.885797 43991:8.0528574 44554:12.375965 45153:2.2104037 45494:3.2151732 46111:6.754866 46577:5.1137626 47178:4.1292637 47673:3.9260794 48700:2.4980858 49933:30.494475 50317:9.0919541 50356:23.840928 50452:7.2538288 50458:28.677799 51861:14.507658 52094:7.6558776 53778:9.1251715 54728:3.5221294 57765:3.5902672 59452:3.1636596 60069:2.355989 60708:20.264598 61356:2.2071831 62234:22.369346 63660:12.258739 63831:2.4255151 65036:13.13233 65128:3.1977055 65707:2.7185448 66045:22.782737 66609:36.269144 66624:8.7832559 70743:6.1665902 70769:23.840928 71185:5.5956007 71822:7.2538288 73096:7.4549366 74411:5.6956842 75607:3.0528745 75984:4.9024536 76161:5.300878 77062:5.4620693 77103:5.6443909 77182:29.337672 77193:31.787904 77255:51.436156 77431:3.2020439 78726:40.233642 79992:18.637341 80128:4.2706753 83781:7.2538288 84440:3.3220032 85365:6.4210084 85441:17.801874 86421:3.930593 88771:12.825318 88786:4.2093064 89022:4.5970719 89542:1.7474815 91042:3.4527374 91465:2.4017985 91595:3.6228433 92711:11.864146 94540:8.3380108 95315:55.628832 96683:23.840928 97255:2.3086213 97933:11.864146 97957:7.946976 98111:2.6166756 100122:17.301817 100124:17.301817 
0 0.00050598662675932374 0.00011693772151064815 0.0005465960337608151 0.000506858983770906 0.00073994839541909876 8.9590564106955796e-05 0.0002167201750021709 0.00024991782954413103 8.4545937380004575e-05 0.00023266237150293089 4.2265610023669643e-05 0.00030306657180144696 0.00034930702678726428 7.0182268447568577e-05 6.0317885939637453e-05 0.00018621858952002992 0.00038852034471739856 4.3380343419416326e-05 0.00038674752721671961 0.00063203582268935769 0.00032752369423629326 7.8673813832643471e-05 1.244010608145847e-06 0 0 0.00013293352012896497 2:10.991955 6:4.4664864 8:5.9735281 9:5.9706084 10:1.7303699 12:3.6550421 14:8.5368473 15:11.378169 16:2.3894112 19:2.4426846 27:2.7239211 8054:7.9533682 15867:7.6558776 16755:7.5007159 20550:15.893952 21045:7.946976 27146:8.2366692 32519:3.5221294 32739:6.7138389 35877:9.9222131 41178:15.893952 41929:6.3375381 45153:2.2104037 50360:7.5415109 65707:2.7185448 69094:5.0292053 85321:7.5415109 86775:5.1713677 88151:7.5415109 88154:8.5668287 100122:3.7075322 100124:3.7075322 
0 3.8124934772651845e-05 0 0 0 1.2607336699071691e-05 0 0 9.0998028731655912e-07 0 3.2998268398720761e-06 1.2253301339131846e-05 5.9011386231029257e-06 7.5453380412000275e-06 0 1.8332624668461638e-05 5.6312291285599359e-05 0 0 0 1.459387877480003e-05 6.2808731990165949e-05 1.6862665845998508e-05 1.5673522086112048e-05 1.9097519456065521e-05 0 3.745257943013398e-05 1:1.9091051 2:54.959776 4:9.8074362 5:11.04955 8:68.09822 9:68.064935 10:15.573329 11:29.186728 12:35.332074 13:5.2205652 14:58.690825 15:31.606026 16:27.478229 17:5.889256 18:22.149991 19:52.517718 20:28.71161 21:23.298334 23:44.739436 24:32.729195 25:44.78843 27:2.7239211 3926:24.186817 7147:12.737022 12815:18.183114 16807:4.0151504 20961:4.1742151 26013:7.2526407 27621:7.946976 30122:14.851478 31359:7.2979327 32519:3.5221294 43607:10.426012 43991:32.21143 44554:12.375965 45153:2.2104037 45494:6.4303463 45533:31.68769 46811:2.4057124 48987:25.327695 52094:22.967633 53461:14.412682 57655:7.7558985 59320:2.9003303 62234:22.369346 64936:30.166044 64984:31.787904 64985:23.840928 65707:2.7185448 69042:47.938546 69094:5.0292053 73096:11.182405 74307:28.478421 76161:1.7669593 77702:18.788432 79303:16.991881 79845:133.58302 85365:19.263025 85441:48.955153 85520:3.3930991 90537:63.375381 91465:2.4017985 94540:13.896685 96006:14.185492 98111:5.2333512 98825:24.004263 98839:7.5415109 100122:19.773505 100124:19.773505 
